<unk>	0.13526995583530815	0.45369852626347074	0.23321687497447582	0.2118500779609664	-0.19939386114092744	0.039009364633715626	-0.10290265925764625	0.0996235305262563	-0.18793771522809952	0.12850858467884518	-0.07165803132045828	0.4289086199390098	0.34472720722523253	-0.29585172601458587	-0.20244164157167888
the	-0.09068002121054411	-0.23706872089458741	-0.8404556455057424	-0.14756211910371603	0.26665600718567706	0.36622960147922007	0.41107366358908415	-0.9753353355979333	-0.16538914833981455	-0.7520990787492139	-0.4629506539265269	-0.040246701547628425	0.2063239080893592	0.0015789454696254202	0.7935545608891879
rock	-0.016780666525924692	-1.9541016722890703	-1.6339323851292513	-1.465408083207227	-0.2657630446258116	1.6256991634902154	-0.20205327528998812	-0.2803865256394489	0.33145838613131884	-0.24152576267433423	-0.06768120752548001	-0.05610472698709608	0.10615121313926862	-0.1982184375455431	1.5497653333688606
is	-0.5899842827255855	-0.283323133633643	-0.32210174724760865	-1.0380597792519302	0.10026999776920653	-0.39108254296403794	-0.6778106554450825	-0.09854250275318838	-0.49933415759119076	-0.6591509592560214	0.8602115101439507	-0.8372197550314948	-1.0492560088260507	-0.7150490635901847	0.44350215499020806
to	0.32082723538525804	0.2785515281253103	0.9839654698988917	-0.8853024747665709	-0.41848325080335613	-0.49615914210003514	0.9322049117889518	-0.92979833201451	-0.20888131518816394	-0.08744867344363216	1.3934935886698723	1.142708785420257	-0.2618541879190011	-0.10050861915103687	0.9484048155898144
be	-0.16021567195940067	0.054017468345263275	1.3627733299248161	-0.8480466075096735	-1.430750322352846	0.5846615642861955	0.33187040638340615	0.3221943155849873	-0.20478371692507988	0.39778986894854895	1.7264483899936702	1.6562327571187676	0.4850250697307312	-0.35760680461187927	1.5250218770709667
21st	2.178380643527012	-2.3847056170190157	-0.6696401197955103	0.71904191228725	0.9801016420087016	1.7055811878826326	1.0777086249279104	-1.9908873218817802	0.04335914952242681	1.2324314458013128	-0.03148955614405513	1.8228495560155558	1.2725527116491868	1.474349482149656	2.7528105239559713
century	1.6465081571579216	-2.153494078470629	-0.6446955061965416	0.8664969701738359	0.28425303707503846	1.7906187940888032	0.299636469461747	-1.218613555517681	-0.5418959376080468	1.4626897184811487	0.17735368528789408	0.21934489867358925	0.25499397460782375	0.7619403935753943	2.912716672352108
's	-1.189518556173826	0.3882612261092553	-0.06403103609516281	-0.6703785314069036	-0.355378881161606	-0.7175142636442564	0.43041424754370505	-0.7775534644184949	0.8483637507671249	-0.4503074627638972	0.24294450186711058	-0.2804777863760256	-1.8639326309915705	-0.002057494927397846	0.5677993160176442
new	1.3559174932283649	0.058970676953890466	-0.9057795983302024	0.649443225693814	0.09310435349178486	0.17686880992469906	0.6506593540588508	-0.8564088957750535	0.09101705171683616	0.8765323973933001	-0.05018517593260108	0.46092652833016595	-0.1317547661335644	-0.637590634159487	1.8274592486804753
``	0.3221394421173879	0.31350595851420204	-2.267859975562681	1.4431348220753017	-0.5549195063121102	-0.10004698156664238	-0.0012313197034673276	1.8650201981608312	0.5884441926980761	-1.3258334591944831	1.1640720602685175	-0.4133936008984101	-0.8944216834169663	-0.5996642287768988	1.3445267710955642
''	-0.9174621287859615	0.27245645784120637	-1.6077409792785413	1.308670987955323	-0.24082073021059133	0.6074896754116907	-0.47762681868279655	1.6896254840338014	0.4601611475259936	-1.544637219922578	0.8211603946310584	0.3494864316124161	-1.2741199454126482	-0.02893713905196954	1.7468116956933608
and	0.13376884711904025	-0.45231675655352155	-0.5084915832906383	-0.09214481201227581	0.18105053808319277	-0.5191654023824701	0.2042937927694828	-0.5807469841682217	-1.092703180886263	-0.2449225317104197	0.37615608790982635	-0.9263446613418629	0.6742393344409965	-0.325856318160359	-0.4865267314972087
that	-0.13553998268226697	-0.344170479965627	-0.5666783301896405	0.20198412296690615	-1.224908109159645	-0.112751825897004	-0.02496445853700341	0.3781987471821348	-0.28952864738701517	-0.5803492978560355	0.8513421880499197	0.23027485446939613	-0.2980546833329403	-0.4477099448897871	1.2592210052145991
he	-0.3490875980743784	0.36015738021591814	0.0008138463040456845	0.23787574561224528	-1.3428951640306828	-0.620047981922563	0.2843031400346088	0.14068979254151476	0.6342026791096304	-0.0738778957488824	1.526785122053076	-0.4800768645714797	-1.0580208464065295	-0.13312338310100247	0.43743163440652333
going	-0.24875289123679362	0.6211891048505042	-0.2932423872425899	-0.15818941343898346	-1.2652619600614625	-0.40409894508181554	1.5549372858070973	0.18845055578727796	0.9253174748260072	0.1204394636865862	0.5466680141638391	1.0458014507213247	-0.6636387152073578	0.774882085562264	0.2707349555267081
make	-0.24386210127770913	0.1479634643760205	0.6606845281159925	-0.8586804107441912	0.3759900973241463	1.034496961542144	0.6431757645279172	-0.11426829094623842	-0.5347676089813427	0.6030780288938578	1.7020717032631778	0.9583490248763844	0.36577318151796373	0.609817546178063	0.9813440978854014
a	1.2828578196313518	-0.2066006061108583	-0.3395261941650078	-0.5021416998397555	-0.32367008255973695	-1.0316120800382944	-0.8527102657205043	-0.9605601691372714	0.19887716419032386	-0.8404619649297147	0.0057000847638354335	0.5919830493730274	-0.46057548843649043	0.09070023441560882	0.3951364587811589
even	-1.7867602605927617	0.4283242251153231	-0.496676623258386	-0.35187078355788287	-0.42648541102730464	-0.3769105974949167	0.5458658315047751	0.4156747746598798	-0.7306422255001025	0.2389206924630214	1.0790264652253223	0.2909056968148986	-0.02558655196472609	-0.18012524852216025	-0.9268538931772526
than	-0.046689634504915645	1.1658356794609275	-1.0432432566052814	0.06834977819204835	0.11442892329360832	-0.29959624260900797	-1.2978600524027182	0.7401442186172995	-1.0242986147526825	0.5333225620477822	0.7356445246567026	1.062539959238102	-0.32523815293274416	0.5646515926557685	-0.4123052703862009
arnold	0.7042122587820155	0.7002224473619404	-1.879948867878002	-1.1592877406586353	-0.7876281352898852	0.8824446597963624	-0.9176986626457	1.8981160784370825	-2.3994403118963503	-0.7223382891305345	1.6198723048444543	-2.0290843812453367	-1.4687178183482175	-1.563476320088015	1.7404935346782184
schwarzenegger	0.12445874849016414	-0.008597042072765515	-0.5984432618878922	-0.9525616767948275	0.14051920017360595	0.27186409413519386	-1.6459140880480738	2.920358766096728	-1.6454070535596734	-1.101064614920835	0.8702162810203673	-2.217381696889808	-2.022378012804455	1.3195048109527414	1.6312050198860435
,	-0.09181453582338062	-0.5428332166748657	-0.5291103398952834	-0.2779498275497613	0.32322323125644004	-0.1189275167665354	0.36006495182897946	-0.5145305831654109	-0.1160101682012033	0.15670965662019362	0.11240088037583496	-0.34554197049038377	-0.5626089100001224	-0.3566660762971194	-1.0562842944428505
van	-1.3652891038138675	0.42738997012706115	-0.6024319088213387	-0.9887981359042872	-0.9293744664943152	-2.6658110179622247	-0.027533569976988304	0.29548637912388376	0.2481991369182701	-2.221178666308978	1.5751757165946072	-1.7563110161973179	-3.2903993199063652	-1.2608522254816192	1.1907281472954971
or	0.17996821352318243	0.12657206692349393	-0.8678613946744231	-0.659620878004684	1.4171818238714478	0.8867314661435385	0.11530394180559939	0.1140046468725543	-0.8599943950189889	-0.23333318863247937	0.9467413040086895	0.2981013640967425	-0.02968122247367	-0.138705599256997	-0.16955941503022065
steven	-3.460470716721168	0.5880453955229927	-0.7400755037323561	-2.2837818061762554	-1.0058501748661275	-0.46856749603855097	0.7585438489587386	-0.41218949707082675	1.5860012171884315	-0.5650303728886784	0.16749478779845384	-0.2398990040282427	-2.3335155818403384	-2.838758903403981	-0.07450124069661523
.	-0.13668710861521177	-0.8425573326486232	-1.2674785757255258	0.04636954017677275	-0.0014255490725490483	0.12174491866209952	-0.00523503412684917	0.2204318139637116	-0.6719955161446556	-0.7567712955199529	0.2601337825970782	-0.7077904577455498	-0.8370744787644007	0.29167432243489766	1.0890873676878055
gorgeously	-0.3844183974555551	-1.9751198895575355	-1.405537783024476	-0.2894337622613446	0.021073057279797414	-0.9929255504556664	-1.1392047953151192	-1.948086913797997	-1.259775414663702	1.261927229648452	0.515608493901742	0.44317248416539756	-0.4456316835353101	0.5705727764137951	-0.6511948529323648
elaborate	-0.3636483427987002	1.2541117510239268	-1.4774672636530646	-0.22680102300106947	0.0647826653902654	0.7168355377283793	-0.20066691785130353	-1.4593321048508714	-1.9676707512076683	1.6962579849073702	1.7265153471178065	-0.23581792841920476	-1.1870788358979394	0.5375687352285999	-1.389179220976452
of	0.18704398787898746	0.23073610026921432	-0.8082425816373024	-0.08854125036331144	1.1330615280195422	0.9850169800191593	-0.14687728515254556	-1.4451023393424927	-0.3589987811842983	0.4042453189363881	-0.6073117357570939	-0.12395989485904634	-0.5761329482644287	-0.184946926586808	0.4391357576784831
rings	0.7274745927542574	-0.13750967141309298	-3.0529381563218747	1.6807828074599729	1.6840339716377675	0.38723178739620634	-0.8330766953600319	0.20638440694111027	0.3871842130444113	-0.21002677160159727	1.5926676972473763	0.7642688808130061	0.5131054832623658	0.2989139040908375	0.9956196270866818
so	-0.5186744264744829	-0.18535966917674138	0.5082145960381885	-0.08593872985847792	-0.8095596598503295	0.4705125328169476	-0.42555021016026195	0.4720656721218864	-1.029006652591054	0.5133099751625148	0.5261275453906856	0.8194886080783393	0.0987645841489515	0.5652525610147179	-0.5443644408918915
huge	1.2204769511137654	-0.7577257476771462	-1.5834628299550302	-0.8550501950423348	0.4746645283963124	-0.08841599763588011	-1.369182251739832	-0.5558641419826084	0.1797051980076475	0.08878114160044653	0.5997267578245642	1.0413656004521383	1.1405600732711052	-0.0639157732980507	1.993001503537211
words	-1.9994128015160995	-0.11850095316223153	-0.970291906451089	0.21908953938662873	-0.1888946167697746	1.3984044785767216	0.30974473907233313	0.5344010610118346	-1.139426380090605	-0.35276356967762357	-0.6388056223093701	0.5354581619227711	-1.8452510181558899	-1.999426637262378	-0.3208419565069612
can	-0.5109968850023121	0.4927431222955254	1.0810943262637531	0.31217201986393384	-1.1341259408836502	0.643088132025514	0.773806445396733	0.3053707813447427	-0.6644678249837417	0.10275293418697168	1.5625019044253232	0.31943301601872137	-0.4479895129739888	-0.4475741185718143	-0.020086675572753343
not	-0.5525415211242868	-0.2951228440842306	0.5022888142380606	-0.20772518029245823	-0.0012011802083001788	-0.578409345290463	0.1946953242591405	-0.024739203906668394	0.011285391842307813	-0.5902292228993385	1.3551207394477527	0.2655598746558573	0.19259795851915693	-0.022782893157672457	0.3593151033272015
describe	-0.4083224903644964	-0.5641252882447347	1.0116644285542848	-1.6497871379602873	-1.3351512738368525	-0.5238506666838707	1.4449099795041298	-0.6629904889501594	0.33049593355084594	0.5212583262299081	1.942052007953321	0.49276647272437	-0.5922233929375827	0.43791620116511	0.43789994373207153
peter	-2.1492066024801053	-0.7156452931147742	0.1763897587147336	-0.7708650527856311	-1.6408684944814904	-0.9787099548374967	1.9375463176793744	-1.6709030946874757	-1.0088777331806236	0.3814765896102008	0.10641655774077918	0.31796869627010393	-0.8169278619431104	-2.804652050307292	-0.018914767694783396
jackson	-1.264986527744431	-0.5992754273556211	-0.03930679380611102	-1.4048994817851916	-1.3934398068665534	0.06672635392624532	0.8549532487312861	-1.5133353928536768	-0.6554635530485252	0.20530279204544383	1.010671977188939	-0.1038435436568561	-1.405383217753356	-2.1914264259791385	0.39890795094544507
vision	0.8178778000394229	0.3001063121173504	-1.3258358214330734	-0.46341899311953333	0.22016814148668817	0.7157869265860157	-0.33310744018289207	-1.925771005364484	0.19663634476965575	-0.17520040097980563	0.1679295511201715	0.5756404167123261	-1.3282253478966657	-0.8315542342674338	0.6209245331499316
adams	-0.8927303714901493	-0.9129484861544853	-0.9455688921279861	-0.9497885637296265	0.24294531325515378	-0.017096622368072856	0.18420658617618235	-1.7973623191740338	-0.5886082053169024	-0.1411800275278312	0.4642025254976574	-1.3465414333489445	-0.7303763459880157	-1.5403392478868012	-0.2757060465849678
songs	-0.32863257666584367	-1.9892647363863118	-0.5586163062007196	-1.371669421850021	1.6795124573037499	-0.4581889405355726	-0.8192911760280888	-1.6993215115415645	-0.773189521620949	-1.738436175490076	0.49319612408075075	1.8665875943554138	-0.6937367525607104	-0.38585331958811914	-0.2387132364140211
--	-0.7892837055507306	-0.10139202464941369	-0.3977416264155507	-0.48573885666033034	0.19533246095641127	-0.23829323736504188	0.23343362863267314	0.2953415370306631	-0.5278143830637605	0.3451960886731555	-0.35291708684165535	0.0960787412590107	-0.36859949445971335	0.02116096455915728	-1.2516115392041522
few	-0.20198931906983797	-0.35295466454778984	-0.2785892388042408	1.245987518499458	-0.10014765241775382	0.5951594458177524	-0.5988003115565899	-0.6343568510381121	-0.5811862812180169	-1.7017205544673304	1.7911449394297358	1.2404194172034568	1.0207059976563362	-0.8773766535442237	-0.7649757975824387
potential	0.06846815350654534	0.1084505561132254	-1.7831071564860834	-0.6647290358061149	0.014601368356924743	1.0064099742984125	-0.8619715033765674	-0.16350272431968227	-0.06113569817466036	-0.8228634266214847	-0.08852083129903665	-0.05326287331282489	-0.31870846209893794	0.8741336511001143	1.0454543682370432
hits	-0.35183468682881425	0.04367134211756729	-1.9138258687621776	-1.2984341884055097	0.8002375347676614	-0.13371069425760396	-0.26516621041050253	0.1637984176538455	0.014268016822450491	-0.7093482329228007	0.5167137919132958	0.9615921572579611	0.008751369983623247	-0.8491536721937072	0.37562531777850006
more	0.0014058267137630753	0.4547116820339234	-0.7365515805199704	0.021576556614018458	0.14712747560318157	-0.6574868318291669	-1.2168315082234387	0.11438807562073056	-1.4815312910818856	0.6608127713657213	1.2622606007282144	1.039541343638726	-0.08991403929070962	0.9515441640265239	-0.08732779921596018
simply	-1.187195213542828	-0.013598448310027822	0.17386850351331107	0.1591512176222057	-0.5530472620913777	-0.3200659200820481	-0.5098470986634198	-0.46302936197399835	0.4714509411698957	-1.1068198402336302	2.1734368005993985	0.3706684180776007	-0.5248766279721678	0.25994246089235373	-0.01679363035352055
story	-0.4372095683397311	-0.678067176240722	-0.5627188960636331	-0.14162773686974411	0.6399511310866234	0.07620873645512938	-0.7992082376598437	-0.4016727913544006	-0.7682697295976585	-0.40855325646719476	0.9109179496903639	-0.7846426212037755	0.21581450029827814	-0.15192812712620685	0.13849826992843717
but	-0.07863535562663149	0.31782435398046105	-0.3891325736777447	-0.24850055475162308	-0.08709242107127566	-0.42014899829629293	-0.29090397971702664	-0.3586335296191486	-0.07082171340673166	-0.6324084154391763	0.858353677584306	-1.2657922461221458	-0.8975821165538147	-0.016728103680579698	-1.2292536501416382
whole	0.6772426865813848	0.4691924866487653	0.17087254858700163	0.43875398135497223	0.3067079876616466	1.124283674040822	-1.3726926947021125	-1.2766229900470858	1.0301509400903917	-1.1819294968416574	1.4128386193100606	1.1029679696643884	-1.7982390996807078	1.7250599162599833	0.9623152955332824
certainly	-0.5871762594555292	0.05345208299506299	0.0920748072362535	-0.5394258358661135	-1.0531590850254384	0.1563999019859632	0.2646112642996136	0.09764949640797083	0.686825153077364	-0.4856871092669057	1.3353886990843469	-0.28111775182179255	-0.7043471766373854	0.19241312985196	-0.021702906268084965
captures	0.051904984485871775	-1.0463118937307563	-1.2823376196009717	1.5068933773611304	0.11665360251203927	1.045687851013038	-0.008390932418103486	-2.24013393600492	-0.24359357706785395	-0.2693205114611147	0.4676556169852797	-0.0870907864811139	-1.2197960382900517	-0.5001714039855915	0.8213055307521997
intended	-1.1170931726920417	0.5526421001519598	-0.19929374633133956	0.40067511352180724	-0.44168835358338615	0.9960838470409126	0.3217055741108266	-0.9329201742704033	-0.749131446015232	0.09393208696971866	1.067763484446831	1.0528360096562772	-0.7732203035744152	-0.4931762466286698	0.9276246573325178
spirit	-0.4181557656539835	-0.24762519865942917	-1.3845823446217707	0.9031300681816491	1.8008416341537083	0.6392809200150867	0.5439360826513386	-0.7495001323016316	0.15932721590603727	-0.9189467684530579	0.9246317590464873	-0.16476310776977401	-0.3147369425991057	-0.002429913020393748	0.295424572929159
piece	0.6570474013668727	-0.5352259770045076	0.4796762505800871	-0.28710827906020325	1.5091793318010316	0.5058715482906426	-1.0193308894614133	-2.342783323946988	-1.8419333337743238	-0.1536202774250416	0.8756418290382653	-0.6490163470665269	-1.0964359725689057	0.1999286729344168	0.13828226418748524
you	-1.050924856561549	-0.7281413654845043	0.7417452844290349	0.5141689350557379	-1.6845277219837311	0.7180460334169771	1.7905826681982204	0.8192734728240063	-0.8717375859612426	1.0924282792227995	1.973339229139877	-0.28333871162973173	-0.8926569027824504	0.9190529739152067	0.23870944631008262
'd	-0.33244616218118583	0.9020449521044833	-0.06134114987641781	0.359819336097258	-2.6127821051915268	0.41053031971094045	1.3136802974045978	1.4889873342867654	-1.8983029366650428	2.135013128899816	1.1366279099012855	0.6635708242616671	0.6930933712611858	0.5019723204742286	0.17896920655059245
think	-0.7868900545638426	0.1864714848736867	1.13387771009729	0.5451482119766524	-2.6495916829837585	0.8946487907877588	1.3369894339936546	0.6244578315416178	-0.882645658687619	0.27471197477037285	2.043309098369916	0.7345214453466877	0.20162957577344753	-0.07202640167220176	1.650766557323392
by	-1.2151954579985444	-0.9183758029886921	-1.3200714149739325	-0.7319339368024306	0.30707546691098786	-0.044651455352224145	-0.5259165884965884	-1.2777120335222372	-0.12930394457887373	0.6160324050894989	-0.26979930361159876	0.6034920892612716	-0.7445960070101845	-0.8588868439060594	-0.11841590730743162
now	-1.389714904341192	-1.1160279918687621	-0.45385511761742797	-0.2457459322235419	-0.3659176408748468	-0.974106963546204	-0.6629022461275623	0.05025716287829807	-1.190347513554674	-0.5659134974569823	0.3922457498992551	-0.27842853444047366	-0.3691183616026345	-0.43151441749260194	-0.5446818680289508
america	0.2691347600629093	-0.565981307663133	-1.1586541090327944	-0.7105462513963572	0.6002319280202113	1.178736850973342	0.9681105519739429	-1.8402656980700418	0.01222451383665768	-0.5251221221454725	0.11044267531026786	0.09418428325838463	-0.39750480422725154	-0.06179765781524238	0.3638999428359586
would	-0.4499671283006663	-1.1226658565337952	0.610577898689702	0.12296702905015833	-1.1085075824897999	0.29848711227672253	-0.13119987311734016	-0.498160118939064	-0.05737237898249814	0.7190283968638491	1.2931325733804178	1.408686944622971	-0.10289861035004477	-0.5040461504893992	1.3504601188315588
have	-0.762018784863347	-0.8775339038189336	0.424928339088169	0.3984749680856458	-2.2063368070166325	0.5777986787682402	-0.49573118758753815	0.09796653324854143	1.11833244660379	0.30022645429319317	0.8254553563968114	1.9586591851101116	0.5642036023059973	-0.5912932160761275	0.7595015808968292
had	-1.123889967550773	-0.22763526674722884	-0.5844786220665168	1.0973126348481639	-2.622459326235147	1.4093404539560463	-0.7716665753350606	-0.1440195532383236	0.22255720568609655	1.8524978826665883	1.0874600907612373	1.5935785968921432	-0.4514285636212936	0.9880614852215992	0.4917790112469044
enough	-0.006477050699604747	0.5703749685293895	-0.13311757099038357	-0.905256474252366	0.37750660708550615	0.3819031128887838	1.174087387103412	-0.5286175352863751	-0.5763014276191636	-1.1218812038588455	1.9397910603947834	1.6261213871961835	1.4205805873931023	-1.2509592575713764	-0.5283556635915685
british	-0.26136418341112144	-1.1860445535673474	-0.7677826322305813	-1.0555698544206038	0.019638440356988862	1.6893897727977765	-0.15979410168921784	-0.4987757016726482	-0.19298081060183117	0.20083693620527282	1.1490298954155904	-0.6069824379375596	-0.283521114860229	-1.2423559774694208	0.08897972898810336
with	-0.07050224286014253	-0.5339537607018363	-0.8081669827115812	0.031838966949414876	0.16802733483774046	0.1406024242064856	0.5352402961055646	-0.41691820339119534	0.05309164160109259	-0.051484034920344035	0.22601730377714518	0.8208669944815178	0.7055050974172186	0.6193482358636349	-0.13113056950788304
hearts	-0.26666020478586505	0.14745601257678806	-1.413413213006311	1.7542857575707147	1.0137486114158216	2.4924367709693107	3.4987957636838543	-0.42717157507182824	-0.287985645608007	-0.3282900760756903	0.4439852723363469	0.6010353512162545	-0.44257310201112177	-0.5897988292068223	0.9149709115882853
yet	-0.4659502891629481	-0.1159189276889111	-0.39113258383221794	-0.6679460485625239	-0.08817336948646926	-0.19770509387790852	-0.2326335310849562	-1.0558365596257664	-0.9675168813991075	0.7623992196194288	1.2753241803746223	-0.5903391347342972	-0.36523901252874663	-0.43049338249083485	-0.6410668140328506
act	-0.15788611064852465	-0.19747311504024728	0.15246046704065752	-0.5487533462518785	-0.222755134725105	0.27891312236643867	0.7845651026796956	-0.6942276833781437	-0.7159873854369068	-1.1633873823944854	1.144007798709191	-0.350420687349842	0.21752324748436777	-0.14106351637712125	-0.1577553055498273
still	-0.41745559783700315	0.5673256754929464	-0.2347564829004326	-0.9317152573596438	-1.8211583068543025	-0.9039522720812339	-0.28515708141688767	-0.6560220081142059	-0.45404519685092726	-0.3277449715685445	0.8975549615426585	1.4548971570751166	-1.2161512996808894	0.31146125260519053	0.8387989245771601
charming	0.46246005942798446	-1.3280005337059158	-0.2814822684164404	-0.12834521836997503	-0.8832341056375417	-0.6225793025332177	-0.7993482337369268	-0.22549470335506683	-0.9979571348274868	-1.0919001098000636	2.291105836257397	-1.1308521029065308	0.2921290571601999	-1.0331208825297433	-1.2225392749144468
here	-0.9256946388145004	0.22324324510264362	-0.49585680599655013	-0.43172658640052636	0.053923329133729825	-0.22368350780795726	0.1151012413300406	-0.1862669441787348	0.3243398098274961	0.04696484698076609	1.830974675182299	0.6618287260962648	0.007461070435852202	-0.5429202401286641	-0.26753008766274233
whether	-1.3768537666625	0.6474064643424073	-0.02782639523167263	-0.3655347517448914	-1.7876822415825915	0.44688593570334617	2.5891818377257767	0.9863753967017482	-1.0275398463013983	-0.10565631142588522	1.0234420343818011	1.4778313351155443	-0.8721739279275225	-0.1840815131041978	0.39857198437132174
're	-0.5670599046025954	-0.8323153600165757	0.06871055761213252	0.22624105336352496	-1.6728738346257517	0.014029585017191398	2.7890298609097117	0.8881626462246206	-0.559502932432511	0.6133558447930652	0.8859485840959156	0.5304347693128248	-1.3074942399585667	1.0789759553903973	0.08476805236494966
any	0.7680800088623104	0.22219306638345154	-0.5673981156550383	0.4366060075854432	0.45323888416938296	0.39112084790435175	-0.15320846221408563	-1.2927439853384168	0.2816641306259292	0.543059317194141	0.6650556514858784	0.852169248112932	0.30298181608013836	0.42104128016197045	1.0392239656091147
on	-0.5418983958974258	0.0748237364424686	-1.8607913995517023	0.5329707639471353	-0.4947592140284617	-0.2135816207705582	-0.401456162740638	-0.22685706747731132	-0.6715253902785977	0.3615457443367888	0.16008019848761568	1.749449621296975	-0.058498611939913014	0.3739568143605585	0.2205908866245761
other	-0.7480009178813554	0.5592446923382706	-0.527251664431663	-0.14202501365183523	0.3495541881885102	1.8234809053572452	0.20026345399567963	1.3140713897705436	-1.0389876598179155	-0.29213048249804907	0.003989798803130329	2.893093518097646	-0.5979691889177975	0.12327564696474325	0.4084351308004357
an	0.14313032788923089	-0.13057630285795352	-0.05715041867228987	-0.7150326114672438	0.20805148410726026	0.4258938705313704	0.47636565666473485	-0.9892369702671828	-1.1360874901195421	0.16710673505435183	0.6856844925336874	0.0758822340537108	0.3112004766774361	0.805201331613125	-0.09916310383156834
undeniably	0.26115775436345307	0.326259980095346	0.8711583443961076	-1.0683430906656324	0.2855728920297233	0.4552236366083402	-0.43363423500044285	-2.3785418190203886	-1.3818618221414076	0.6418327013084459	2.185059988981776	-0.7422551167602539	-1.8414274768496766	0.8042018674855743	-0.7840036313540013
fascinating	0.5593303255669272	0.24927380306590138	0.3074916936252674	-1.0260773763795819	-0.26452045467363355	0.7677211859581947	-0.3499837101437168	-0.7408602665033657	-2.0326483170094027	-0.8348078336527018	2.2081682752427563	0.35045761022802313	-0.3566495105574876	0.6416422909934624	-0.42074316939896783
playful	1.2370305461657833	0.12256478625961487	-0.6667528618798928	0.18823065096319697	1.1379724216667384	0.7801056157144344	-0.48879460284207354	-0.3808092943589787	-0.46790486384438806	-1.045442623791253	1.8219582244626065	0.01616618394162198	-0.3049993180115229	-0.4378280573116559	0.7967241043683863
fellow	-0.5044029049156303	-0.03657930947712146	-1.2656063731221336	-1.0438163795974154	0.7223854956314691	0.949260186868159	0.12913160608097107	0.04064343568246931	-0.8122134959302841	-0.5480256309401119	0.2716200132976373	0.9890710962117697	-0.013514048026452341	-1.3540651489067204	-1.2897973716961673
just	-0.4977706712714387	-0.33998442881070945	0.3451130967526048	-0.004843559555819972	-0.8747534250234317	-0.3313010998359297	-0.3247584378524348	-0.28727730821531716	0.015832674131316116	-0.6523599703879261	1.5153222280534573	-0.12737262820107748	-0.44996084572576167	0.7424988636472196	-0.48571826609581037
involved	-0.7694657668779463	0.09340811061447843	-0.2826095747671503	0.06586996535319378	-0.6779032015395686	1.019921696821263	0.8736346817229863	-0.9428397214155836	0.10965481631080765	0.39006879575994735	0.7747546881415808	1.8478868695089363	-0.9663601357119136	-0.01846392258037026	0.5898718301438249
in	-0.6864947535734159	-0.6767642200584856	-0.8932000783214521	-0.07121079726219137	-0.23230961119011184	-0.14677422839301205	0.25890663424530824	-0.2895799855217735	0.7889158103546522	-0.10422704974352243	-0.6116037784894136	0.024123241853707122	-0.3226046969081462	0.1665665354247968	0.21926814735622985
creating	1.3389707774094268	-0.21285768275504108	-0.5089458013512109	-0.5603427441764475	0.9235017274191217	0.8006282972810497	-0.4856756659191435	-1.6552348229229186	-1.3654630617845898	0.44707553533220623	-0.14847940514736013	-0.04147066278012558	-0.6214823540747184	1.4077165493433315	-0.4080575800427266
imagery	0.09074052624397189	-0.06395126496004516	-1.2521802771526325	1.1565254288527063	1.18826752637649	1.3489251300950236	1.6876527905353935	-1.483985312822212	-1.3618532249431703	0.11023129747655577	-0.15186905922328697	-0.6267657365601705	-0.04753475500473453	-0.8507745545767909	-0.7217730201054324
this	0.5188836853793921	-0.3464834289440652	-0.27808566987811906	0.46400808412594124	-0.28060180679545244	0.700260659439695	-0.17346027571834782	0.1371018298571721	0.22190580140127758	-0.2823772219624152	0.29324804012851047	-1.3641247800147893	-0.8467333154457494	-0.6181004365476969	0.6943366388931331
madness	0.7730117198626885	0.5788381715946191	-1.5816389411971254	0.0037889917433910902	-0.08404153734320541	0.28595025659915985	0.044829067460356725	-1.0174645776132558	-0.5925474030140148	-0.9304634455942492	0.49459006302595243	-1.4402933904892237	-0.9556833630219055	-0.47109039553777926	0.6296454058988583
light	0.004907856058933402	0.42261681140591373	-1.6157639081821462	-0.7189723129027221	-0.03778287105519579	-0.4813728299024797	-1.18155176206956	-1.1086468323224352	-0.8741130098292424	-0.5856393884179141	0.17111185306138355	-0.09803756652335172	0.493138710940351	-0.45847151182446566	0.7472119019532085
astonishing	0.14047486288053299	1.4437755644459207	-1.7887468037772742	-0.800817057581594	0.5182499987177637	1.1435064034195173	-0.030305918343691327	-0.20198186788890576	0.3208859976794887	0.08093777223304033	-0.21241338476422156	-1.3202900531254007	0.006148445424322024	-2.0879300592870864	0.5041127252085194
part	0.7783126443127648	0.4097846585980396	-0.4946123471844338	-0.07392859869118419	0.8891396837448615	1.3156215349547058	0.4224023970020975	-1.733459250136025	-1.3671785200620965	-1.0082153705315386	-0.2178817770902497	0.03173469430932507	-1.5512894231322751	1.2214715529362543	0.5976042320154676
charm	0.50248949712673	0.3587063684001201	-1.3295253347914855	0.09298652314000394	0.14661807918132408	0.9118013542760458	0.2985751525266066	-1.525920104596537	0.2548064017425239	-0.19319495686040172	0.5992463718860304	0.2555730530153535	0.1569963979307618	-0.17453660968052512	-0.5252266482620169
rouge	-0.9949840480698421	0.1105869398489785	-0.29346786734660724	0.5793410069757838	-0.7741580928876084	-0.10070768919771372	-2.4036918984936495	-1.1464195830189494	-0.8235384789406024	-0.1677272299993493	2.626728097549052	-0.04192127853893757	-1.0291790576685502	-0.05433328378468383	-0.01950397323507924
it	-1.7926627474281427	-0.6456416696523799	1.165378821984548	-0.3846047889978852	-0.5051903371160809	-0.9971277587201814	0.3087142423864703	-0.30062812752040025	0.8026039531030352	-0.34463577173146404	0.9260886038093334	0.7655462207587008	-0.5093332731077409	0.2820251104842754	0.7457352473711606
avoids	-0.4981481815922921	-0.4505287809031221	0.9734020367227731	-0.6557314282008924	1.6487573735634862	-0.6469861804391543	1.4536099883309945	-2.7235339407418784	0.3922925652169096	0.08471295295623621	-0.28585724931173395	-0.20151803143051766	-1.626853272238507	0.2247505071989068	-0.5499232118815902
obvious	0.09969729691518509	-0.02788376665465342	-0.5758933910391929	-0.06924837587571002	0.46918111813210717	0.10381594472258447	0.32967642902743366	-0.5919587125262578	-1.601544944986684	-0.13717488558164442	0.9169877744503977	-0.41840714086477054	-0.3065884432960809	-0.13727364881228138	-1.893373598034173
humour	-0.9507493774308523	-0.8170778285698717	-2.0686412851916978	0.6076060451251484	0.8236240472232019	-0.5937209948637118	0.6538529633429434	-0.9806794580211525	0.04299808517538328	-0.9514701066338203	0.03458043231464947	-0.6179310556228248	-0.2533543723046716	-0.5414789132927572	-0.40554074735666873
screenplay	-0.19874329512189315	-1.3052370785890748	-0.2593636401267768	-0.7701185151434327	-0.05198083378809676	0.07823409045040364	0.3727770794708005	-0.6636527877154896	-0.7734254191632202	-0.47383347687858085	0.6394311242707869	-0.545277928634829	0.26443906316347393	0.23672374499480842	0.006517263249488869
constructed	-0.46874484432480856	-1.2027877214279605	-1.7597040990302566	-0.8056742238542223	-0.2626320085419665	-0.9544042736786806	-1.8210993210506712	-1.0516019367394371	-1.5563809693440676	0.475831228398995	1.332342220424216	0.8411974507479054	-0.3766460640210808	-0.20474045230332943	-0.569319609060859
extreme	-0.15198578257705359	0.08449330232131846	-1.1866894472639957	1.6954121780794373	1.6028226282309288	1.6977204137508224	-0.4471076678328404	0.6696942404236168	-1.724835863336531	-0.2049824095382157	0.3114507912257125	-0.49746491027399187	-0.40729772318247504	-0.06413084025916665	0.7360583386572803
expectations	-0.9011769920269775	-0.7808522353618246	-1.7844203537918581	-0.6239290988355684	0.16894791397325243	0.4565455452188942	1.4734084735687383	0.5819217736181801	-0.4913283933469502	-0.2881251015740861	1.0150483844577518	1.2981979760335745	0.9438445245699195	-0.6505733553643933	0.6694548935185773
good	0.49343290160327147	-0.037358472698564626	-0.49404077276905467	-0.20130870988685795	0.3474977811461748	-0.6673794125413145	-0.4142549749833244	-1.1254013008675343	0.4423446146169727	-0.6468660817512868	1.1107649335461338	0.43188788561060326	-0.6047545763656774	-0.21347124834447667	0.23344035673790275
fun	-0.47462224698149613	-0.4487510042477254	0.6105125809188665	-0.12313362302450659	0.29683673756111634	0.05470020417132382	-0.5489166203811731	-0.3244084944441593	-0.6937983345991202	-0.3833332075606442	1.3651466412714797	0.7771799909595851	-0.25117995716677055	0.35125675621774427	-0.06099494981651056
action	-0.17319951570368253	-0.14963584589964216	-0.4605246158703733	0.7447326136999669	0.01706926539309471	1.6183273250948909	-0.3797193032829128	-0.7866622272488445	-1.16568100789347	-0.9540002349401989	0.5494167989039846	-1.2047619975501287	-0.5341782912062221	-0.0935047439276431	-0.25329221558165793
acting	-0.8324729998408059	-0.37867867397797905	-0.7158775048032325	-0.048572727307760515	0.774397105256915	-0.346822307684548	-0.910577118973391	-0.40628474128123593	-0.7325712462186509	-0.4896618626691956	0.4646606538280814	0.08365269581244733	0.16425645189063975	-0.289272945476463	-0.7689106849073875
dialogue	0.20687898163801532	-1.5129406556306377	-1.3038742977888853	0.7651721481227739	0.7933022941006036	-0.3400014498187952	-0.34790441414983975	-0.7311581288749072	-0.8230195613367884	-0.21179927511718688	1.1778205332651472	-1.3191783594714925	0.5032898404979362	-0.09112951054503746	-1.7456148542680834
pace	0.6250146945031714	-1.00280021642914	-1.3679325292958906	-1.9552934254645047	0.8313174857105984	-0.8297174203475992	-0.1250058743728633	-0.9929154912139652	-0.12805873794522926	-1.112097067686247	0.7793246518463484	-0.83167233091759	0.045491140011109085	-0.8347602559710874	0.28417259190990274
cinematography	-0.39555458551833445	-1.0755215812908732	-0.1968310810890398	-1.3260060514523806	-1.3821306948094274	-0.2187166744100777	-0.02095047525221004	-1.0928294416307742	-1.4428391426817702	0.3955304060038882	0.4263946893529955	-0.2422309957627506	-0.6284865604479468	-0.8658006925957795	-0.40225693672810714
should	-0.4815540426624455	0.29647902710137286	-0.7186043309496171	-0.08954918429973756	-1.410185074350348	-0.00740502409690777	0.6860891147719763	0.10793782125439455	1.0440200185991433	0.70843432138826	1.107965261749359	0.38006453932211576	0.8032982531889448	-0.08282404184127493	0.9036645705194009
pay	-0.15122654679192948	1.1956451196537	-1.233916188471392	0.37818987164880086	-1.1929205129351481	0.8957425468053756	1.7014177092431597	0.812937181359597	0.15403226567616754	1.812030310772268	1.3185740545621214	2.953770559559545	0.7937762734869721	1.6450893323592748	0.8865977707940587
bucks	-0.0011787753203759133	0.6482292009759829	-2.328964494942523	0.36139059712076416	-0.18479757116506587	0.70528721986761	2.3374565409777683	1.9414521505750009	-0.9932888022255485	1.0706828249927558	2.1421955711242573	0.32467253905066623	0.7272817598259811	2.4384194337919345	1.177048384482866
for	0.029635792475218747	0.7833474157355507	-0.7348329627318942	-0.3074479837824551	-0.008172698044169063	1.3543651526852807	0.7075901073576831	-0.6645493872010787	0.028987529461777323	0.5192103660589042	0.8580166109879985	0.8503817283303232	1.0538028446122465	-0.04818965978470369	0.37796287637189596
:	-0.23597608344299503	-0.043367503554646025	-0.655666932294553	-0.1758120239691805	-0.9300654848480592	0.6589151063353568	0.22262567535253977	0.17497021850157213	-0.6176959712268228	-1.0330498347823378	0.7000523512976051	-0.5154674312368194	-1.0418744951170757	0.4459320791966964	1.337722844018739
because	-1.6965279957370707	-0.6037042584457619	0.04223797116880168	0.28354399303914546	-0.3265342676321784	-0.10692396882830157	0.0695727086665266	-0.608839632341215	0.09791867541724425	-0.216648079940729	0.832132490546253	-0.20819556350692478	-1.1910220086483576	0.4342143604332972	0.38021678781486684
hear	-1.2422045955929952	-0.5165177203836571	-0.04632976699545033	-1.3161001786997966	-1.2331047702314155	2.4034239254709098	2.597258033082159	1.2918211441162502	-0.726139670349452	0.19113089379775677	-0.039241754682275864	0.2966234352625647	-0.9750991469020543	-0.2622041210664823	2.0429439563155407
about	0.5119474993232128	-0.1268799982633942	0.26156219240295864	0.2683215421773103	0.053238129406875376	0.9496384396922128	-0.4856176337640059	-0.48256859360581356	-0.11461472884402102	0.0786000894836475	0.924843136080501	0.8687313675702197	0.06250704557960249	0.49424837434496427	0.3469511160534731
suffering	-0.0478296448571528	0.09986293033905852	-0.969761255648852	-0.5682759187039592	-0.1829882003168591	1.8972092814791157	0.23545446955346305	-1.0195653244966967	-1.5880651788250046	-0.001556344750500517	0.29208483652380757	-0.2529469658815745	-0.5705318415848444	-0.7056580311803664	0.43451110555399886
news	-0.4237711666988675	0.08122577497112612	-1.7238505483823947	0.03577374470008393	-0.9679138060037682	0.18902564009574951	0.2688317864160965	-0.7377712500764161	2.361004068460553	-0.2712787439554902	-0.7988086102285101	0.6628519479466285	-1.5976226124560824	-0.9612584982582649	1.4706651905935924
dramas	-0.19995828274804062	-1.8422526925988858	-1.606029212014683	-0.9400964291438763	-0.3903564220562361	-0.7212396034989249	-1.668166123654153	-0.12995399792854512	-0.5452328482313676	0.1821795707241009	1.9408075866450119	0.3899545178742581	-0.24375815317964064	1.0549234979652864	0.7896385752869268
like	0.7579202996173873	-0.5122355946917839	-0.8392041611499753	-0.13625033655909322	-0.1443073628010584	0.2867086147863622	0.10175601408194684	-0.12767988791019702	0.2735163293494671	-0.31865846794761354	0.8452424930572977	0.4528034529517493	-0.42546677609174255	0.5319805114115084	0.382152578208149
human	-0.040282582224813845	0.23593112030702978	-1.1616025381281	0.18328560723970508	1.0851957306471658	0.2814844554264857	0.455289185496635	-0.9620539893260138	-0.0032584675300534327	-0.7351893733512648	0.6181006771818305	0.566283664871745	-0.23687379489221638	-0.4297739006736625	-0.08848308453090437
ride	0.5984660203736196	-0.43686770547495496	-1.063319711592433	-0.5870006727483619	0.42793210367685697	0.11218523516482926	-0.9741737491395628	-0.23378427233422938	0.5105408075945355	-0.18066856930323405	1.8787046809947365	-0.19721074443734732	0.27518230839830127	0.5271408326175764	0.8553880370515221
at	0.20735089142242297	-0.9878644691017003	-0.43265883157026164	-1.0273807469217862	0.41946985764677075	0.04230985248422714	0.6444735345327535	0.32161535440932393	-0.17019897523713862	-0.4411310491247052	0.14344572626330698	0.3682273230016245	-1.3842051612876798	0.8451144004480298	-0.3707310142223965
first	-0.29875186435988127	0.14678024029941517	-1.287487986451429	-0.45570799034473153	0.2931231299994035	0.9247040767252256	0.26514048749838637	-0.2934352481614161	-0.4820427487454698	-0.11956036133276843	-1.659480850508927	0.06517454609724962	-1.5445102404975926	1.129672601625518	0.37193704479182876
quiet	0.4129879651015235	0.6332270930456027	-1.4519998164793755	-1.3399044849467843	1.2434756950862393	1.3075736734793568	0.14565463768120468	-1.3645837240254228	-0.2010493037678135	-0.6982952094920174	0.38847991481729816	0.3802897431958978	-0.3999661204243407	-0.5969337717420481	0.7778389216612562
pure	0.4477530323031236	-0.8360357274899959	-0.2586161522658921	-0.5754162760242343	1.008146393058997	0.8827687871529	-0.38702805547158486	-0.31281653327174685	-1.1326430387666684	0.10882518822876189	0.6386689860606002	-0.09173200657722863	-0.7659400225120767	0.7839265773068248	0.9900303684724101
are	-0.5193527191122527	0.47647293692478543	-0.30225639257797454	0.15281839128425384	0.25117985536449094	0.42127202011316234	0.4632635517995616	0.22819717951116558	-0.2095923806318763	0.7477033401800142	0.7634950149388215	0.36160127422185306	-0.9263440143027626	-1.1847295163266602	-0.08364331796179475
far	-0.34641173027258243	0.06185896344432648	-0.8135332765674469	0.07943352079547195	-0.29796948791624966	-0.5290161145580566	-1.55168951891755	-0.47257315244030584	0.06856839469053877	-0.10923152823596272	2.1709510018285028	1.2790885849017724	0.15417429882526035	0.2900371173961973	-1.451133368541302
between	0.13116148526798344	-0.34758918700232266	-1.2821796172547366	0.041354996646084885	0.3303035932183713	1.9189835624126266	-0.41939106892720324	-0.6495043867670977	-0.5882092698952665	-1.4017679452095706	0.5769738202588631	-0.36125199497165494	0.05773211883900369	-2.3471053052575375	-0.3997156844489731
;	-1.1863894295311848	-0.3553715483914919	-0.47591245362371826	0.5329013397354221	0.26155910248008907	0.3700281886954835	-0.2973471119933448	-0.010896435403901394	1.0177535881453676	-0.7660372086678713	1.6453454322630963	0.25081284736518644	-0.05018631085101466	-0.08732155885539586	0.0822567178102151
their	-0.4619522647964277	0.6682437405993876	-2.0439694566120834	0.2542228407515826	0.7318151501892238	1.1174256203120243	2.172278877719007	0.2752003920773944	-0.1768333333672129	-0.161127937786944	-0.5719444511752299	1.921237275680428	0.014664819142200525	-1.129053153165242	-0.1528534592842159
otherwise	-0.8658247008747963	0.07656186211492882	-1.0986793481373915	0.11771707250651804	-0.21383072888839907	0.6332999034322095	-0.37804072165721136	-0.4304844075702208	-0.16236644313237938	0.4450600085756015	1.14291827052729	0.19427970907706124	-0.23457446633097345	0.2811535064451865	-0.8287415827141535
respectable	2.1398377054915585	-1.4071310844296114	-1.5559941384423885	-0.8597178218774371	-0.1990160713939706	0.21844946518515995	-0.7337381567242306	-1.1231376714043761	-0.4806885945988413	0.12170952388160775	0.7483922965504886	-0.5850315475362927	-0.3522321318680003	0.04796340715667344	1.8789278679105528
flick	1.331519038172162	-1.5271807420565373	-1.5282542299194093	0.03918672584835518	0.20338359338914835	1.0670781967466898	-1.4722791313048258	0.9470132048222246	-0.8603236252192016	0.07490583128724611	1.3035213550926061	-0.6875203218070678	-0.11328074966789073	-0.0196517336595302	1.8767455150156827
some	-0.47505417874650363	-0.8551092176219531	-0.6804958941851748	0.9670592848635597	0.7780676334713533	1.2615923473643498	-0.3115917480160568	-0.8924995608994323	0.13385955303832864	-0.9645372613228471	0.04557892947698383	-0.009711005713997523	0.0323394017145231	-0.3130787145597931	-0.13186536571081647
truly	0.11106361914644158	-0.4050084114790438	0.01097934160387648	-1.0136924131461988	-0.19355157137262158	0.6494064124696144	-0.1788225907195905	-0.9853955843734484	0.5114028694471612	-0.44431388207936046	2.040819418765212	-0.2535622216231107	0.48173075861923464	-0.9883226762279625	0.8045807043832918
excellent	-0.1835084478943284	-1.4470843126178852	-0.04120979409165382	-0.697975966157404	0.547488836097144	0.5566413807560475	-0.22853153911005927	-2.0775946705351616	0.47515797801227266	0.4116617684109477	0.9659803099502664	0.4214134045685804	0.02936748335634154	-1.2274344659350158	-0.4043096456286275
sequences	-0.0026784104952168597	-1.237037615164452	-0.52759148892802	1.7645787137444584	-0.08354012520882906	1.6462735260824695	-0.45276459030653515	-0.7831927432096224	-1.1053289171386176	-0.7259738948297965	1.2929809673452821	-0.43297752241573	0.2964336068439546	-0.9889734788223137	-1.1118842275632286
john	-1.1731985491750603	-1.6027530664894634	-0.5858347950260414	-1.5366887536972966	0.4031436150114137	-0.05819605520975957	-0.828634215103999	0.9211093192111235	-0.24520423045483475	-1.1585344269294984	-0.7279792731419654	-0.7690651720731932	-0.9259124232161595	-1.245530032902367	2.386247717649532
english	-0.3693981995634265	0.15689087462013906	-0.7760933881229019	0.3881059692644561	0.12890812685857944	1.551684468889492	-0.15174569136840302	0.4006227837583546	-1.100321017900292	-0.14292200508816624	0.704633459202677	1.5711986391772164	-0.22663077444451518	-0.40003794466131803	-0.10977732299857762
terrific	-0.22069874713737764	-0.6133079957147115	-1.5403440063139735	-0.3630081228328638	-0.7720828416298043	0.5096557971116531	-1.2261724738161248	-0.7233922211618664	-0.7792003530068328	0.11538041192443504	0.15631583680855998	0.14926854870717787	-0.4183261100056594	-0.8353054198631994	0.2969546281304827
effort	0.21084070034473956	-0.30426980955896066	-0.49621897263230563	-1.7218651687120108	0.8823471211206765	0.5952537781296547	-0.17271302389794418	-0.9883039529406974	-0.31554453329816334	-0.6461242920217798	0.8719726500125484	-0.5581089506383445	-0.05317961133427296	0.18971792056200001	0.33553436845252216
energy	-0.32615491335546387	0.8006637761620948	-1.4701884312133975	-0.15533808799712978	0.07209213568963418	0.07651997460503585	0.6271335104876214	-1.155261149152209	-0.49295732917440976	-0.3523499670699459	0.44858034267533353	-0.2650249414915655	0.04694492256205199	-0.37548976107948645	-0.540664426230709
walk	-0.9282249417413788	0.2991087772628479	-0.7424035165284493	-0.46206991692319344	-0.7053631222290968	0.857022556287844	1.3053741703381898	0.8989579000912478	0.7095618621447849	-0.6329116764500554	2.603629949341874	-0.08883815577569683	0.13022827509525853	-0.28748983662237454	1.5248595178728983
out	-0.746395243581268	-0.14588166877588665	-0.2047455434665293	0.014340527418723548	-1.038209269581921	-0.5044090486567581	1.047858610320299	-0.34947257272391763	-1.0378236556470155	0.5462050096278164	-0.33469124252295857	1.1645361698314305	-0.7467739309827508	-0.08468963764644492	0.0904121008754194
girl	0.20791180927156705	-0.7083108639835284	-1.2959482749939246	0.09685179865108173	-0.23959395211630477	-0.7601448860807118	-1.083836537962396	-0.3009101473894854	1.4022902683606284	-1.3119212607531174	1.2076651430525207	0.1186971667673079	-0.15632115932125146	-0.045500864700526805	1.0276609916234791
mixed	0.14633520741932476	-1.2247663624662217	-0.5827312838933134	-0.1746582606113688	1.5728521821462698	0.7925241748274616	-0.20472610405466846	-1.9406578364838305	0.035662528128485915	-1.5582742229947595	0.9344394047133509	1.5642522402401489	1.2173983914191953	-0.31366340327197373	0.46149829423287797
emotions	0.05546427438015755	0.5018261330363014	-1.4032543062368772	1.645290072059626	0.9662784958340196	0.6687731535441757	0.5687602160130621	-0.7735512996200737	-2.263607631194373	-0.9801838674281049	0.5876804054575675	0.5479633066239624	0.03672827690944855	-0.9483000399931729	-1.1818450022927725
combined	-0.03107670949219732	-1.3080824375973152	-0.5565611143010987	0.840797515837094	1.4266099832491106	0.9192110855634471	-0.056084254576315495	-2.9641612530089496	-0.282464122301425	-0.610672191432751	1.269302809109555	0.4078582234780874	0.2901532991403295	0.6741332050046185	-0.7063912488867121
understanding	-0.1659092710422415	1.2141586299920935	-1.3031306032936456	0.09570888828186513	0.6775719961904079	0.1482311825183351	0.6426879649952367	-1.7558825516753123	0.31368931151980883	-0.4255618591959595	0.9198414300513529	1.2667512199783937	-0.7220193687720803	0.07283451086684684	-0.32882125772509674
her	-0.4668483989718137	0.5033598615355064	-0.7229461606101031	-0.5256097069117216	-0.2844192772127361	0.7330371925886279	1.1582143427709666	-0.3386866152569592	-0.1129336962928404	-0.9871800176551264	-0.29540881114795026	0.7951958828313119	-0.2613212123712839	-0.9684549361769246	0.20921222541132423
philosophical	1.005611991293308	-0.14900352044437115	-1.8342446033880844	0.5540877872135364	1.7069803101340524	0.3758938093240973	0.3264899825327683	-2.2146098442738604	-0.8052979403004663	1.5141338078372288	0.09966086168833743	-0.298264578850469	0.5346479562222607	-0.1211752182684135	-0.567253674842756
message	0.5551579195114658	-0.2000518145159249	-1.7098477335389994	0.35458448573782847	0.4462002726607758	-0.1123618270815454	0.473082902390661	-0.9955585944864727	0.12073007195915908	-0.22634627187835052	0.9051983598786042	0.11938669231737975	-0.691817513203627	0.7060916417131026	0.28794740327863244
personal	-0.0904276963245394	0.3847507701075668	-1.6288538106981028	-1.113110122601991	1.0668715875906438	0.5735058797504722	0.864162031876698	-0.2970532049971095	-1.4406510978036926	0.37441548846944356	0.39435152958605335	0.45184639788062037	0.9178564567884411	-1.0183800790497197	0.3421421932508628
freedom	0.6158371856430493	0.8860985407701253	-1.5148726799454717	-1.062983403395905	0.5113090697924265	1.2729802404371973	0.8790118714089288	0.45518995674325813	-0.34109602689119045	-0.6125808050072168	1.0609819493693724	0.6095525048627074	-0.6999683311118803	1.0236336391988163	1.9590408101728052
might	-1.2987549732835724	-1.014294978407253	0.5439517511455834	0.005379358602480622	-1.315407225902324	1.0865162206099925	0.7473955339727596	0.15336713184501471	0.30085682025826777	-0.0038002625005260637	1.125207823019947	0.8850664490824713	-0.18321442147764244	-0.35320170066069057	0.9004248764764089
as	-1.7226740141413448	-0.751705737619882	0.18092727351775018	-2.0187690428924627	0.09371434700412412	0.08966096643009511	-1.0786010472116403	-0.21945709771629368	0.44262361369519676	-0.4412002998292989	0.5705833243436924	0.1389631380395429	-0.419502327871013	0.5594675070342632	-0.10877834732468222
absorbing	1.0577743444462975	-1.2343195875782664	-0.7880661633362349	-0.138219007511372	-0.323710792311181	0.5056199049928343	0.8651994388055004	-1.7709715062566014	-2.2346402085610677	0.7743881709497796	1.2681579266712923	-1.1388281422938624	0.5663568415671767	0.3495202752400109	-1.2228359240817281
character	0.49384279370614226	-0.5790055338305333	0.031543470423167186	-0.017115578793961694	-0.2255563151858111	-0.38668369866727986	-0.21126020788298022	-1.8285927636441117	-0.5192887486534782	-0.1417787756988765	-0.6042248457410935	0.42574707724473415	-0.30097141888149775	0.21179786428706981	0.18167749366577823
study	1.7810245054320397	0.31801345303701156	0.23119823594171052	-0.37619401106362643	0.9204801064299909	1.0095078569985032	-1.4275822860665706	-1.7522199953898208	-1.6031133424408388	-0.6283100012589137	0.5252337998195947	-0.33391933694046816	-1.103919150527704	-0.04370415818532336	0.3181477606840787
if	-0.9444496880995971	-0.5266589983113861	0.657156022689285	-0.07158660685318323	-1.8436920017473852	-0.3668834589328193	0.455756165419459	0.9728035721927274	-0.6527639470924098	0.6497957666832306	1.142438566650274	-0.1229826079741953	-0.8653364188646041	1.32721109108201	0.10692841930709635
love	0.32378718147524876	-0.7127118113204233	-0.1868118329351659	-0.579231394207968	0.4380244856158456	0.070224482796028	-0.2955374936099865	0.0284574567157731	-0.07815980994760302	-1.0657746561208317	0.039837983416664335	0.21748593840608677	0.39400703828757766	0.43628489069443366	-0.1371989193725779
reading	0.021913700468631725	-1.8017474305701549	-0.7380335483127127	-0.112719693348026	0.3299427223646593	0.6968835439801406	0.6678439352618694	0.29041997622516696	-1.0374451230198334	-0.6445298551524985	0.6030131393957352	1.8677666947889722	0.3562748522980511	0.15188541490329543	1.167355264573749
poetry	-0.2357267350319618	-0.8932041677438218	-1.5620675621158349	0.46790697078865773	1.500335574986231	0.38312771730878514	-0.6143566724298472	-0.6079510040884485	-0.5002219573503934	-1.1561995225835826	0.80813216256487	0.5268253691898812	0.5658791989410903	-0.525559680319237	-0.7073260418712748
then	-0.6504559151240934	-0.6789190453194898	-1.2621195850073887	-0.2709427366176834	-1.1840376697121893	-0.4835783994655005	0.9756791053995137	1.319696364100892	-1.041551950976496	-0.3648936778982864	1.130931487896272	-0.18971722009358596	-0.33134452035992235	0.3767193678307406	-0.507105153994951
all	-0.837309961735893	0.19357480744526323	-1.084563898482928	0.9849719233029564	0.42773582324419174	0.7956502521417004	1.1129831372935548	-0.14141460500892156	0.7949614858775454	0.28500014761484865	-0.18817961372711078	-0.07553079736167176	-1.082146196766077	0.6774989796539402	-0.12327052382884263
means	-1.0011206157044494	-0.500288343612308	-0.5958126404876523	0.5347575785444079	-0.3389089152842466	-0.9460153591742435	0.4102566521134046	-1.1141325447861887	0.19708548703862816	0.9676794543777159	0.6414197761837249	1.0455273268005183	-0.5915160750715087	-0.2447116082810288	-0.1455320590609248
check	-0.2994961041486487	-0.9203958158409603	-1.7792393614518935	0.546872198160183	-0.8125654655827631	-0.44337790776429786	2.251986108331246	0.567587700247693	0.28106218967994373	1.7086379965174716	-0.15407067771185723	2.7060089559829357	0.8634904326318995	1.4065045882638483	0.8140709976401136
'll	-0.42699215042606453	-0.993879900667126	0.8941193552193225	0.7434832509207607	-1.492043017098249	0.21363700621352288	1.962802677145599	0.48211961353824795	-0.9013695799981079	0.936746247253921	1.7096220721509772	-0.5148986182675681	0.5217568093450544	0.53537868543684	0.1534649632305527
probably	0.13348677412607005	-1.0147880937779323	0.8259233800829289	-0.7701815529397522	-1.6139338238395105	0.5240171392507573	1.1466475500527067	0.1395085872070419	-0.7785071056481333	-0.1084326906655976	1.1947429923945116	1.012330226712257	-0.4602525427969526	0.9707947204856862	1.0957393252942025
frailty	-0.7753613293051338	0.06055861511399474	-2.3046468722323095	2.161945723673531	-0.27411130306212605	-0.4501592790717006	-0.48749244798927915	0.6975494920281118	1.2337101695551749	-0.8860396701444433	1.886939124286288	-0.2971064174071619	-1.8381471859800533	0.27316383542868167	1.5876734528780196
has	-0.46467078665829287	-0.6821380954995375	-0.7013799388773155	-0.06254225293415314	-1.1017934847108881	-0.45703742732110586	-0.7539701148026727	-0.7263503430355535	-0.4811515146691735	0.8079166578085002	-0.027165658945320192	0.8096449267953945	-1.0920042346625078	-0.4480064428058549	0.6047509618532785
been	-1.0799144362294968	-0.3868833334387807	0.09567495918280544	0.16441093980501076	-2.5401043741091605	-0.09257564387936834	-1.2310424557262458	0.3663484276024997	0.4073353927337664	2.0084367918053063	-0.04587583363836223	1.4319915865183845	0.5325079094055479	-0.8045661912918649	0.7504404098022928
written	-1.5314949327902796	-2.2826343584559017	-1.6886500635938284	-0.8246101095629204	-1.736238614479248	-0.4013817266184339	-2.0285493886997394	-0.7951263743159509	-0.31098819966419655	1.155896765056622	0.2359606619579595	0.44788331960814837	-0.06576439190507288	-1.2950544311281227	-0.9765373686190117
well	-0.6155584715843374	-1.7690451709305226	0.3728236763421088	-0.9136751133195813	-1.161008739264273	-0.29851097391523024	-0.26788628074975335	-0.30684313656485784	-0.37398552048999073	-0.16627950224159077	0.4286207605395962	0.585496068221212	-0.6642389831847362	0.6871769937498243	0.1629117830780052
simple	0.008228360649750133	-0.6866997507929756	-0.9353395025313388	-0.6017720009795197	0.14503969242680304	0.05588250770496231	-0.16251818589707223	-1.170703009221186	-0.8006157021794671	-0.39216210377514205	1.5171478331700898	-0.14668598294942117	0.47487822408232994	0.2329439514263448	-0.14634529578078903
!	-0.7460364953635624	0.8318491213717033	-1.910852376884841	-0.25530896721921736	0.11869963188106608	0.836269108386876	0.09636106284395597	1.8777272130057137	-1.084641057489593	-0.5054377408724519	1.4571517905905447	-1.01638822872	-1.2701101101202177	-0.8318918438648014	2.263208066600049
near	-1.3898232274344628	-1.8908717415605598	-0.9220634502023065	-0.3734099327056051	0.21865153777824525	-0.17727685563590778	1.4958434212682858	0.692058628429324	0.5568964262900682	-1.599169310721697	1.716800124958711	-0.45561595449663733	-0.1025714530330667	0.37866461770679866	-0.054588628863173005
end	-0.6525406129774479	-1.2363486200136538	-0.3801318352776488	0.306298945483694	0.4738585357080992	0.8257414139842874	1.2808161622052532	-0.058534132398216365	0.5184720950777295	0.3653469137792826	0.25232857542780684	0.11996051492748859	-0.9724890527701675	1.1643188114774738	-0.006436253121761326
takes	0.4007672752639879	-0.6830894207633034	-1.063367788183332	-1.033926707689569	0.14253647731299296	-0.20627074274797658	0.24235087047792286	-0.4986669148848032	-0.7247292718578043	0.6742405948149691	0.22365140043258402	-0.3932861418649049	0.2956637407884385	0.682322311323043	0.19182844178077216
meaning	-0.1536394633127809	0.8742604391578487	-1.1848462016588035	0.43638430222322233	0.9028939455340959	1.4031832995271474	0.9026094463414073	-1.042860217472666	-0.818886355092985	0.709489768116899	0.6725634216717511	0.7890455755669062	-0.5789657165398413	0.6659598675205178	0.11553857940137102
bringing	-1.03186910825956	-0.9545690595610302	-0.8181181140504122	-0.24132195011837465	0.2137352133894832	0.2611111761440724	0.02861285553932398	-1.040356509312962	-1.815575476414351	0.7970194313613073	0.36573090135548436	1.386164263261064	-0.02915815371100683	0.7715652701061189	-0.3985423875833669
unforced	-0.811510244968622	0.1260394650849811	0.0689672027666356	0.10010682699642584	0.434457342705668	-0.08395245477688551	0.6162904212073443	-2.3806992766854385	-1.7826475886345332	0.2874780553234231	1.0310988777094994	-0.6653366260103848	-0.5860632726683295	-1.995659190318257	-1.20616155149646
delivery	0.17971985643129695	-0.07134597341833876	-1.7415364576438275	-0.35367550767783	0.28150900570435033	-0.7533989105732838	0.7697599165933976	-2.1558270178639365	-0.32725781266778464	0.35162039140546164	0.18919375710251796	-0.512795575530153	-0.5597145158342319	-1.360045331086733	-0.022968873915384824
toback	0.5495467474370113	-0.43341734447165803	-1.094109276277512	-1.726489580999138	-0.14054376873856228	-0.22408692166876787	0.9719149761120675	-1.7712018639703309	0.20701466788065026	0.12612754152187267	-0.004235999167591098	-0.6101921913592059	-2.008369938301574	-0.8398192441249358	1.7272799574218314
-	0.24185327131320888	-0.29599659760847885	-1.7044022100435474	0.31720059832444925	-0.5099184620935288	-0.6410221100044217	0.5528075544351556	0.002153098551356647	-0.6573906940248221	-0.5979725976737141	1.4677026170777772	-0.3565400036734291	-1.008785819761257	0.7884270059389269	0.5507646796342093
film	0.7926660539667607	-0.5930365216784292	-0.4376780659522184	0.07628588624741245	0.43730546778988066	-0.3768480543054855	-0.7506578811916097	-0.9257951111958732	-0.41122549110856144	-0.500554860214137	0.07233658739841586	-0.095316275747686	-1.1006370747550434	-0.6384563420138347	0.1200457737814089
festival	-0.096596953331052	-1.736923103782937	-0.6437709642586679	-0.20201628236537308	-0.24021177984788708	0.20767270765586332	0.0012227418106173782	-1.5363136676595897	1.0522336199392044	-1.0452400356653468	0.3823593330590218	-1.7297549242784853	-2.576702392593104	1.9921266900836618	0.5976066765776009
become	-0.5831372106210113	-0.9487811284865917	-0.5074717559981514	-0.02315573871928689	-0.41825419587748036	-0.37290586414683	-0.30162452158392283	-0.6675323186832741	0.7880855240684328	-1.3243604678865193	1.0335560199849443	1.3889837578013382	0.10415447705917541	-0.5268537404896684	0.4106780319075969
fans	-0.052017966810266464	0.6561790116424412	-0.055524129560704405	-1.24049097692644	0.5792220446076304	1.7018302292652674	0.8113078724253773	0.4098512831636211	0.5926100290333199	-0.18165147505482246	-0.07412277046234972	0.6762704838596678	0.1695277568397942	-0.3250387024319732	1.366761331358244
upon	-0.542495655427276	0.17218898594542012	-1.0537533701547661	0.29631963025738955	0.05612808881097012	0.17479414910242969	0.7803198200820481	-0.7714798990222348	0.39446425069415997	0.4123799692464528	0.5905061393984798	1.3873339148336736	-1.3650528634790924	-0.7559606167349411	0.7620405185353003
each	-1.639276872274334	0.8396257260790351	-0.18748517979438728	-0.3229014940673798	0.5448255979901029	1.8291489442253095	0.5382947962638949	1.188150941215455	-0.7412205480868339	-0.4602766692611241	0.04001385497907317	2.5082633667759544	-0.6257044502064912	-0.19268097143292362	0.5988328289245404
next	-0.37570866812159187	-0.06268911292677062	-1.2946363044234048	-1.8754300255067882	0.13546539352633669	1.65611094330687	0.6950972481522167	0.7809753282498391	0.18811249465775115	0.17146882853970086	-0.05071148538295711	0.6374116109969914	-0.07684324284065835	-0.02820202539455019	0.5444980194052451
great	0.6121186662065419	-0.10709304092250493	-0.16575412868421457	-0.8937169655612709	0.6500057544201718	0.07340310362170982	-0.6890155377514978	-0.4294251030197819	0.4001614193708845	-0.4266768836552996	0.38523387860758096	0.5961871353130894	0.14603623560728723	0.3279416034064171	0.7673833599955457
thing	0.14132839389971785	0.39298273486059854	-0.15966071925618985	0.8549064129853455	-0.2522448626668854	0.7177872784755153	-0.4047590174967861	-1.5556314925567074	0.9821551447051751	-0.41021078890351165	0.8559290012836054	0.0449340232275158	-1.5394458155818307	0.5467424016934459	1.5268635742027319
`	0.18548907333341164	1.3895372587944275	-1.386973959582914	-0.09101834831405822	-0.9856009368787436	1.3533232898580048	1.4384188726475706	0.7692085129851273	-0.8886478381866959	0.5485192749291451	0.39289367869123737	-1.2870693045441493	-0.5545235865838312	-0.4447694984958132	0.8645180152568341
'	0.24163536355659498	0.45053956691583824	-1.845538140539014	-0.2854319325505844	-1.1458793481197487	0.6017836398845565	0.6654067637724876	1.709451632359671	-0.6576794520530815	1.0333110529913836	-0.053815248796930115	-0.9496888451590364	-0.5418207159209747	-1.376176158934846	1.402667631150224
was	-0.09048607884540871	-0.19192402016099164	-0.1183652608252383	0.3816307383619188	-0.7284938703766572	0.39751763730160006	-0.5416216497821179	0.6225870381457157	-0.06675456025799643	1.2291013903890502	0.9961616290642609	0.4316056479526454	-0.17423296908287556	0.6806242544243785	0.8421753637555714
one	-0.3220001069301337	0.8497519690621257	-0.5090139312422008	-0.20057884676418652	0.3238492028321047	1.4301064402120756	-0.02340173033455928	-0.3625783589691809	-0.31920586682028484	-0.0834783842049612	-0.6889249196472984	0.5056703638484553	-0.9573192390571048	0.008931490977762024	0.98027819068337
films	-0.5372454106770316	-0.20480748625664408	-0.015092504620811242	0.9399761506579998	0.21765388208157765	1.9467269703321373	-0.1684022444422304	-1.231956984119107	0.5915638721206213	-0.21991572605388007	-0.38368730133703244	0.2898506129792541	-1.8056724393104626	-0.4158298152097881	0.24285758167269605
year	0.2601099691260974	0.09950256262573215	-1.5620695611491042	-0.3256619671332432	-0.0573379145196255	1.6130716121729534	-0.7160368324277018	0.2375905090497209	-0.41852871885962295	-0.9479303854925991	-0.6076676955133012	-1.5968804115698458	-1.3968152153689266	0.7174172494852322	1.2751814675280186
really	-0.8012338840296007	0.2128518266466582	0.27852872786615795	-0.10017042648846342	-0.26147034519097945	-0.038323387240770244	1.4902887787643726	0.289587336143284	0.9723175018058747	-0.08829805728090531	1.8841532623574726	0.14394162383980824	-0.4303284073920625	-0.02819503313586369	0.12351369764781767
pretty	0.2338553471256748	0.03430266959604278	-0.5015831872990832	-0.7547909174535088	0.1677918768548139	-1.0124660757629802	-1.7268902789636609	0.4683966908835328	0.510564246789872	-1.1891004075536675	0.9871759984873276	0.41190484532151245	-0.6194549733582108	0.17975142521945472	0.6271588860011476
actors	-0.9802628682294476	-0.04817916732504985	-0.6188789726149209	0.21898496740897022	0.5820851950373355	1.1843905193013309	0.4205597344648688	-0.5087898373368072	-0.6614641789208815	-0.41137938289622356	-0.016088039694597933	0.97044339051482	-0.3569533390622699	-1.5401042530629199	-0.05433215147448578
fantastic	-0.9524782896720256	1.2699286794366265	-0.8844353012294524	-1.121006941890057	0.699637294907542	0.5602834587098011	-0.3529450250570866	-0.6937147865301931	-0.3840090693186827	-1.5175228896189703	0.6590651458626269	0.2334378264855076	-2.2160690501385987	-1.1477356704976556	0.19375759553221295
they	-1.7837365887404852	-1.0388520747525027	0.4055362374110909	0.1883665366546201	-1.45430633642551	1.5192045157998142	0.5708235887371319	1.345745087872702	-0.45754595983930646	-0.4651563429275806	1.316425980343506	-0.031031428247734527	-1.2379995592786512	0.20280046218480285	-0.1384574050037787
what	-1.1915473268488617	0.48144088402806784	0.159218814659272	-0.48194639003206063	-1.3539297476607388	-1.058420095862302	0.736973867146554	0.6863258684404518	0.25746185464146515	-0.031419524668899995	0.9124042556720418	0.25706285729179534	-1.1323610790199794	0.25377677836034873	0.23311820353023893
makes	-0.825826161872232	-0.3529776158906497	-1.0268063255010507	0.14122436366407837	-1.1911318198080452	-0.36533091022762876	1.7898957255799948	-0.47042948817456415	-0.038690922635064795	0.7382990736659334	0.4827583898947241	-0.6369186786206037	-0.8837433171398221	-0.2064588043028827	0.8304976236067525
worth	0.13084574572762708	-0.1511833309797871	-0.018629281158222488	-2.132970795167318	-0.341958479221742	-0.6975751949790776	1.06527441043947	0.9963378492396885	-0.274200725069105	-0.6372603939744579	1.249197639889792	0.19324181125387363	-0.43525707131710895	1.4816006286569423	2.0900648180828894
trip	0.8294025294001798	-1.0131048140689187	-0.7403754039032693	-0.7558049531207299	-0.07582811394563499	0.2763287914121573	1.0593702067352098	-0.07340029183304242	0.19862827227391167	0.09520851166833162	1.3075252514896567	0.8422595605894301	-0.24488029743883588	1.8892051233239795	2.2653918370351067
theatre	-0.10713384572553286	-0.2939862727692172	-1.503577322532864	0.008782388871415137	-1.06314218489016	1.7887366194727687	0.29531015183171605	0.056297517316904466	-0.5656302470962044	1.0513417977775514	0.46781375731549635	0.688742495126022	-0.3629349483193385	-0.23611330622801752	1.1324219953190182
-lrb-	0.06524876366307905	1.0754907214594718	-1.2521742571648853	-1.7356703722920965	-1.523159799760399	0.06342269804273229	-0.7715914524812406	-0.23931685076030687	-0.7383407811613845	-0.17757697270216122	-0.2563316350200384	-0.03994181608747209	-1.8680838260038495	-1.267986972739254	0.8888745991584424
-rrb-	0.33457707583580043	0.6414600940476111	-1.8094801971072076	-1.6066773655284579	-0.6985771704528657	-0.2632157089757743	-0.15672223489859982	1.0386754115648853	-1.1414333703435244	0.6816604267626423	-0.6501396646933344	-0.6520847786771582	-1.6519469901542458	-1.0329645929764233	0.7144761736000848
idea	-0.8177895333569032	0.44501677895188674	-0.04964329114062571	-0.3840007098012814	-0.2771431669563483	0.3946900477225196	0.7891685529210811	-0.32197458971765114	-0.9310798039184036	0.7004536617550384	0.6582572169541089	0.35243987097524054	-0.86529045350584	0.07032268042838458	0.7264375453460774
making	-0.37488744645320826	-0.5414677051709424	-1.099570269145096	-0.8785808743629322	0.5830248604443053	0.22380670104358868	0.4620863276178631	-0.7834621437372176	-0.4004581243062742	-0.09775763255832311	0.3251182921888389	0.7995089876929494	-0.7702990590651632	0.15203793609727734	0.9831732760998255
kahlo	-0.3318378416382213	-1.913902601651631	-0.07769758859369524	-0.9309280267799938	-1.0720606384312306	-0.9474591519969985	0.04524126974446918	-0.6583953344904212	-0.02561110070418038	-0.16037703979797294	1.1995075397284007	0.12715203805472086	-1.222183494122144	0.4601241216601969	1.416756569969539
art	-0.45462049161786217	-0.5718768636330964	-0.9747929647049225	0.26401152333676225	0.8089699126276322	0.28244162642883464	0.25365511361211934	-0.5802302478362216	-0.5838235229885531	-0.34064163957122395	-0.13376254567124968	-0.37949967845995947	-0.8934805957616956	0.5889460958958572	0.6732783975687502
living	-0.281202421783334	-0.3735537848852496	-1.5602792072480727	-1.3741456133769256	0.9003908908763139	1.1229671470844855	-0.37251425046767583	-0.3296395635451418	-0.5841789058235919	1.1196055068863235	0.9236171497888841	1.4992690153824912	-0.258896709902597	0.771221073357822	0.9692635683249092
movie	-0.26077723515952345	-0.4384144386545658	-0.1792334500367243	0.02128789881646896	-0.06090727624741979	0.15200304780064164	0.01523223774032556	0.0711573238529224	0.21565479849227714	0.08318734577672254	0.7948187187886887	-0.05739116618218909	-0.6330885172215159	0.7900678802986563	0.785051588012289
often	-0.4777423681101013	-0.1606052587764054	-0.019411117178656068	-0.9155733732721433	0.20859907477416167	-0.27252739424541544	-0.7071261545287186	-0.749256524826281	-2.083926100245528	-1.3604035748328114	1.3652399285586825	-0.07139715676247266	0.5904371783003242	-0.1931474726688162	-1.3611035786511594
artist	-0.6348094409978029	1.524437132342808	0.5763503100345596	-0.608517169285561	0.8001112959439421	1.1016592579284605	-0.5430578110061393	-2.3537547815029956	-1.227709296013289	-0.46525073202707123	0.08344472279773751	-0.3830262319383996	-1.5184876897423396	-0.161634304937812	0.8268402989699748
into	0.8577625329473865	-0.9415931383765392	-1.2270473991296655	0.7531007961214216	0.7858713678497597	0.1821948498572309	-0.2827704132177036	-0.38391640412812017	-0.7702078978791103	0.49903235381468813	0.1006638765866022	1.255803971079966	0.5591366753954624	0.7471757444027033	0.6209000717594809
own	-0.4282052660910086	-0.40108455202292903	-3.0747657627209577	-0.43280189889858495	2.42523850637669	-0.7611406217859888	2.3865336846763747	0.4122662952611007	-0.10384702865566586	0.36274279638762036	-1.393873422904305	1.8221721499973276	0.8739317822764524	-0.42636411803501506	-0.8507985706943868
work	-0.7028235674797902	-0.9580568114274153	0.16088839249525022	-0.47556630774433484	0.012484889768219695	0.5034397770571301	0.007703088044327899	-0.5826729545705835	-0.010239651391369509	-0.49431125467031145	0.23142384942926508	-0.0840857655066814	-1.2449400910593473	-0.42906860919972656	0.28115331286524314
n't	-0.8767349800618162	-0.31865861474738677	0.7632596852476068	0.4321337020630471	-1.2887548023155775	0.35238721225567116	0.4437353809416039	0.5732626836910102	1.0239734523966746	-0.14048523112949945	2.135856326648365	0.2963412166193523	0.43475353421862595	-0.6948876877202389	1.0454917268064097
done	-0.5819938468001132	-1.0382023916062688	0.3465570452320753	-0.4786222614118655	-1.7333793889300972	-0.4059992828429014	-1.280047675265612	-1.176623554174088	0.33966896978819977	0.20328630227178948	0.9112223873161028	0.5860723015200309	-0.36847661393511955	-0.44045503648606754	0.06505174473123126
before	-1.6023504059878033	-1.086412022565589	-1.6069536085945972	0.021707242011797356	-1.1618002620303494	-0.11382893002945751	0.584113141086184	0.4088148616729944	0.7962946851175946	0.4798977387810055	-0.2712436176877979	0.5777486924764996	-0.8316148020361411	0.7965101319722596	1.2132851732622367
never	-1.423729570579177	-0.4214043625751926	-0.35293264753131903	0.9320499598586982	-1.0164891703562944	-0.9220668087107782	0.5739995668049969	-0.5503459145502293	0.22235222293128742	1.303797466765298	1.3454690598082304	0.2640143809886075	-0.4965022799021985	-0.6382798036909242	0.5995507219522833
vividly	-0.9512438656218576	-1.536198324233253	-1.3310149714271784	1.5917425809756152	0.10556996074569021	1.063661017823197	0.10438607304909313	-0.3928268140204487	-0.5682109732104248	0.16981471790624267	0.7682649060736405	-0.4946029603933916	-1.0692744568998203	0.1981958348443991	-0.5412061333900698
much	0.14942820425061965	0.6506032065269063	0.03754198441263101	-0.30483728047622194	-0.25687630608224254	0.8039193844409562	-0.322571371829396	0.42277511271791957	-0.43656851892786985	0.49830393365069103	0.8520017749414494	1.939518118269129	0.8425110713554907	0.22691447567825634	0.020560087137016625
passion	0.9159696558135731	0.46889688823882475	-0.8770879368302613	-0.6305510800686801	2.206552106364276	1.9463028978100672	0.5401533639403101	-0.5940419028899335	-1.1393098053922925	-0.9703481832226537	0.7294594783233852	0.11494087408389282	0.13036512233327624	-0.6970914151875283	0.8734930119468343
take	0.016600619845394904	0.45365297725164344	-1.0487004601542271	0.035913339691067775	-0.6432423362718749	0.5735554745474687	0.8335837292277424	0.1733312975421008	-1.1397162531049045	0.3587430217621944	1.0574917790379899	0.9044561955260029	0.4716635345199361	0.19784066174622128	0.27956699709913785
care	-0.6368853550657915	0.41537937128602453	0.12857237561854318	1.2625242212815255	0.1701287119082912	0.6016275512124025	0.8457426710959354	-0.7203712344262683	0.6601137163549876	-0.24155822658625553	2.6994690414858025	0.025346836000764067	0.5735743803839082	0.44331064477979765	1.4853503051524077
my	-0.011196797864483271	1.318360881701398	-2.3266096397242926	0.479272619911	-0.3471617836219278	0.22470810411460462	0.446572958566333	1.307075335208196	1.7393854386209537	-0.07224167667564503	1.57521273833868	0.2931431808324738	0.778810900809649	-0.6329782933556822	0.7149321591453358
cat	-0.8036133859731132	0.4485038712811567	-2.1927388278590145	-0.6323405610942968	0.3555471885073763	1.5562636692220981	0.5697499419281573	0.2610879444468891	1.5032037817034047	-0.2700241700048804	0.6762489295552062	0.14414283925785087	-0.5486731603442973	-0.5984076277333571	1.7382553617247183
honestly	-0.5533775855769715	-0.5317404850717361	0.44052214530258393	0.5958803496236345	-1.999033706535458	-0.2464518173824426	0.6246978680482336	-0.9721752653455296	-0.9614778631658204	0.6555638299575881	1.585301437720843	-0.6252654150309562	-1.0040894369093076	-0.04406292829425293	-0.13520707144193445
nice	-0.278346790933969	-0.1293018846426034	-0.3839353745250891	-0.9517491742296091	-1.010220374018699	-0.7617429777050343	-0.6429344484848958	-0.2009474686928704	-0.22980560960655638	0.2328885007953962	1.0099072117736296	1.463179666825491	-0.6066629878396297	0.151148901262103	0.9146212293062267
little	0.9071768224207062	0.07402008790918913	-0.28568365385593675	0.578974188025624	0.7475545878040402	-0.6353406284829279	-1.6998365438562875	-0.5585970851238794	-0.4713470843032093	0.06788224095174547	2.342998078210678	0.39569817463908397	-0.5252247166069867	1.0277133907763014	-0.1599242869464551
us	-0.5713568371442345	0.8031405290061591	0.3261020161683805	-0.9428100539589	-0.9069004663530366	0.6526244158628983	1.5474456361073239	-0.44038075823734785	0.5985217027466406	0.8063085692099039	0.48229579909720033	1.0916278701574615	-1.367771355893873	-0.2587066545013559	-0.05054548126530373
examination	1.431937470328912	0.5105235439814331	-1.8490510493573538	-1.2339665748473538	2.600988576076048	1.3193377851992432	-0.1421466374314836	-2.4815032895584173	-2.2814507753889792	-0.7321121373230717	0.11495792111792591	-0.4395390155780393	-1.182050424692138	0.3366446521697586	0.3481945573089933
young	0.27343291528203856	-0.06489947657914374	-0.26707045605300217	0.03221357618629872	0.9343988184355627	1.283286686919705	0.2702419425278453	0.2091482914866734	-0.2836754065385536	-1.4827551492375854	0.6704131557667836	1.2658982405505546	-0.5106482553240694	-0.6546606482184698	2.193165529351494
adult	0.10017936633609881	-1.201819936717725	-0.05891151642339443	-0.8974200766202148	0.6854077750683881	2.224689378947006	0.10767100391496603	-1.1489430804762053	-1.3423299282098675	0.18315088877611022	0.42254644544658904	0.41793083698631794	0.2446319366380645	-0.3865331505521644	0.09762927454167503
life	0.39744633116706674	0.6085948223509572	-0.4338118480591303	-0.10451622568518637	-0.05813047729959109	0.061629147883206614	0.18223513648593836	-0.6781464744071837	-0.9330890493267667	-0.9109163006764089	-0.0664632756237793	0.360058821134644	-0.45085834442205996	-0.4707758274910696	0.6776443295581602
urban	1.0377939164418106	0.640948967488163	-1.872781999358492	0.15522122617935785	2.577800298391826	1.5482975740110434	0.7086219544469801	-0.4521985385504589	-0.12873960391867334	0.21798653699491286	1.0744703382451273	-0.18720429692920199	0.24658613011144287	1.0912339612909736	0.7317129790750566
south	-0.595408249638566	1.080868316369222	-1.7324078702920007	-0.7667430238050887	0.3393270062951875	2.2273988337389468	1.5640899448733174	0.039631796936179575	-0.025090120535143173	-0.6983713062991771	0.275846034067293	-0.6925248281852997	-0.1901340775050367	0.06146625774182672	1.17773102006416
korea	-0.5557579144450671	-0.36433564597755075	-2.6146683651715463	-1.47113428077208	0.6638553727929937	2.0063422837462666	1.0901328794116265	0.6744594636527459	-0.178129219113893	-0.49193035387778544	0.40947745776900035	-1.0862580727817353	-0.2200535913479269	0.466121636924158	0.9492255629756949
through	-0.5496585145719565	-1.170274961280323	-0.9482525732974927	-0.25659300870993174	0.058530706841282254	-0.02229566186217735	1.2466417819910813	-0.7596538803405937	-0.16084359122053005	0.6430254084553689	-0.19670308699521555	-0.14689902510725333	-0.11955735478305304	1.10838473376102	1.0100998157532268
minds	0.33702484491421114	-0.23051618018045966	-0.76455681912293	0.48645919715127683	1.2575208195290069	2.290359725466385	2.1827731038374525	-1.246923235072346	-0.5103425515161999	-0.7123476041105112	0.3768522557755877	1.1646050383368134	0.11380324002247888	-0.6470116227966776	1.1701260455708136
five	-1.3154907228254922	-1.6105013210783987	-1.3487621947057673	-0.23720532970833658	1.0326148203863241	1.074781758649172	-0.5063985150458903	1.8579658591613448	-1.0589257275720645	-1.2017799224886943	1.1469031970244712	1.5495683064367216	-1.0986905228026242	0.7772184548579872	-0.01971411868676698
life-affirming	0.25484912086415257	-0.5888689874367639	-1.5974519461106267	-0.4095217034991378	0.9276197050770415	-0.7995362691209386	0.5839843655655288	-1.0671458361752413	-0.811466111644187	-0.605914730654172	1.0923890413948505	-1.8803067081615827	0.21040558809208826	-0.2838923184137281	-0.7609037811253554
its	0.18297994782169807	-0.35684972302782725	-1.4799393715792055	-0.17715906805342388	0.403857127233251	0.36434497944611755	0.5029777633703552	-0.4969726960016113	-0.16191529217281636	0.4708912919136853	0.14198856109810554	0.15556234605315478	-0.5536076609529473	0.1052814507555289	-0.9527227237285347
vulgar	0.1340553914201269	-0.9324351370609016	-1.0179806401855722	0.7670885249238568	0.17132218681394634	0.13331217741420393	-1.1106379834400477	-0.5961958700613477	-1.0371897270184278	-1.1452859377645392	1.7941073582971376	-1.5581510652871413	0.3794934312779523	-0.8836483475756842	-0.5485053907199783
mean	-0.9490430572343909	0.7822973027504139	0.1566849445457954	0.27757108512792394	-1.9768411100628414	0.16889819451589771	1.217028061854781	1.5161529042647561	-0.0780742408826619	-0.5706322155498402	2.5710206290661146	-1.6258635451691772	0.11206037561945825	-1.3283264188498314	1.164995954489544
i	-0.8902463026933076	-0.21023363229516118	0.9837660060292746	1.6750730231569306	-2.673036782457447	1.230480093676959	0.020447961676560544	0.4736805559406962	-0.07725301116259292	1.0882973838951102	1.7852915559386522	-0.4177897667845393	-0.1444334649854867	0.3178258635021689	0.5051566245252609
liked	-1.219077319575983	0.1316185142626058	0.31680198932298964	-0.034926092216925886	-2.0950583576881745	0.2312630612177386	-0.7779671120158994	-0.5708328011331427	0.7269303950297625	1.512891144858676	2.222575605834562	-0.49008668295362534	-1.7752082536554974	0.42496052816097313	1.5700645744689479
empire	-1.3662618036030305	0.2581671680777795	-2.270923289272327	1.2328630940192642	-0.6201673913083569	-0.5625479046718077	0.42036921837495556	0.6995927019671172	1.7557615225986722	-0.7429011539910743	1.5961063817643268	-1.7087029687556783	0.44199676281985745	-1.4390490372602107	0.7837606554455276
lacks	-0.15856302993807364	1.8105869329699424	-0.9305008357037144	0.57147064589652	0.48671733831215447	-0.5085766239188896	-0.4044936602258389	-2.0841433575869597	1.2850503343212814	1.71055589476151	0.7287778443164535	-0.03748279041285216	-1.2561573246756377	-0.6620900666653122	-0.15774674790856186
depth	-0.19157226049397835	0.9043189981803268	-1.8572043888437602	0.8256541300995882	1.4087147526119534	0.5329340806673702	0.18677092049938654	-0.6497223013084863	-0.5833799428580448	0.30671553267170404	1.0567444805865611	0.6092530654586494	-0.5270306708549454	-0.678822762109003	0.2987156273938525
up	-0.16919734923951368	-1.979335479975819	0.15439483570052004	0.9712356929933569	0.5437810382525563	0.1367210700702618	0.9499308837162153	0.18948139632217675	0.2820810088368537	0.10270842348442381	1.0704118779204312	1.5082683273018445	0.6054954997414811	0.5116744861061044	0.3407523515067849
heart	0.02534532851836735	-0.26036187173023884	-1.6012097963966267	0.10821835611464609	0.20426310389629082	0.47743584984507426	0.13796659662702326	-0.05230916380302342	-0.03573537480887434	0.5471771500969674	0.7303204018685994	0.7251691381773648	0.24242516715132623	0.6695702838745783	-0.46988282497844447
silly	-0.16341394819272315	-0.723405989480963	-0.9272668004882844	0.7112969451535859	-0.7590015868962916	0.09565679847564523	-0.8626027422696004	1.1727888834196973	-1.129808764995423	-0.11933492142623224	2.0806963213560774	-0.4857107037697267	0.757639744598136	0.18881600302154222	-0.7655635612643772
photographed	-1.063445905100405	-0.9115028145263387	-3.619488022413751	0.3862138996438383	-0.4626091737105553	-0.107922652829328	-0.46127818437261225	-0.18121965549245955	-2.816864358060026	1.2880142045478329	0.6211376258015759	-1.0872071125871197	0.3350785764402602	-1.7991747806265588	-2.045452272383729
rather	0.3680521186742809	0.9909786579804725	-1.4665948896765948	-0.3406905471977374	-0.5579428175108553	0.4265029286338379	-0.6956779875633018	0.17285397979017553	-2.2341454129635885	1.6923068538264987	1.0146560201182082	0.6011984983976582	-0.6368467488035747	0.7623158831792171	-1.315165211810719
time	-0.8534150419850406	-0.8143684219003363	-0.9283206829289912	0.3618776506276903	0.6735135238758212	-0.6999598163845556	1.0106471187156512	0.11144481493192393	-0.18231093957124161	0.27291244643949136	-0.12915396283891079	0.5533311502602657	-0.7619394290291025	1.4624767288651843	0.7813847330499541
always	-0.6949272646054134	-0.9146326852670555	1.0479639156586606	-1.3358237845319807	-1.4034837943124867	-0.9012622963721955	0.13071692903375526	0.14548829178257372	-0.0715818838906419	-0.6014393364669492	1.5557710948939643	-0.24739757578819388	-0.3472924541656179	-0.787473596400391	0.6660331519899026
most	-0.2143610463770844	0.2422731993902695	0.4861814441707989	-0.6762927937906811	1.1483134344843928	0.8107790371037447	0.1976953492062678	-1.9017523712749265	-0.8169261071442395	0.27150332771184404	-0.5332054754527316	-0.2223525959260393	-1.2397700380467436	-0.1723623209455862	0.0949067705583696
wilde	0.6527607567545154	0.8922375118922445	-0.1426292989614476	-1.0408487922917435	1.3245746350180196	1.401006122666517	0.4732248600147124	-1.4840448796389416	-0.7064914181761686	-0.017814042532146523	0.09139808455946041	0.7944260865265219	-1.9958328640701575	-0.14470096393182552	1.8266400750811558
droll	2.7887399817763505	2.2906827970082073	-0.497803516571942	-0.1196270424437133	2.6934527969625712	0.7924386782558799	0.867907199444478	-2.7839753993856213	-0.5896173598802972	-1.967007619286402	0.9372204648913671	-0.9154025198773668	-1.1345296329997112	-0.7599933844980491	1.68146804645689
whimsy	1.2242395019201542	1.5820440524164667	-1.4083403686935152	0.7122129093559172	1.1239555950619116	2.3484647983651206	1.507933666468833	-0.5602993774735048	0.5203951728567777	-1.0039116134322141	2.153576316935337	-1.9193050137664738	-0.9723887025731213	-1.1770961396375488	1.5891778665281464
helps	-0.40578529823720544	2.090390980809077	-0.5193188468231014	-0.28809029413669074	1.0674757433647706	1.1031780952104309	0.7610106424635854	-1.5112160182306413	0.5759913378116095	-1.4211454181272756	1.895469285345953	0.5584087257182196	-0.0243293905798857	-1.6381942228205886	1.0660304337510549
being	-0.7335450485251664	-0.2724038924670693	0.11339135792353217	-0.4776731686722803	0.7479927432915288	-0.05001482810393698	-0.8632673035248307	-0.6115378539786422	0.7301433230904405	0.049893421923668135	1.5574266462661952	1.4821840663516486	-0.03566247786001869	-0.45979819457623927	-0.23302144626296262
earnest	-1.6289530412765716	0.1649743732484214	-0.5145189358542572	-0.6357406833859801	0.19571490430417637	0.15060616035417745	-0.2530068750706913	-0.9294966209165771	0.4133124375943949	-0.6201659753128802	0.7993131472813682	-0.15318300917566643	-0.0032793522529950825	0.19199426794562022	-0.3783530041223405
overcome	-0.5934780324497968	0.06257849054358694	-0.5809826486569418	-0.42299696241776724	0.9943749697617856	-0.23037218975197393	2.8446239065620005	-1.4191257608933738	0.7835826908564787	-0.6716128535146586	1.7414010083542664	1.7887025774043157	0.5995664234770489	-0.672392954299195	1.2223458096608781
parker	-1.1866581547558426	0.08671905158386994	0.575761878712981	-1.579597692615995	-0.9191249119378567	-0.5445048136973198	2.2249915963734024	-1.5228869711020974	-0.5977667404734428	-1.3778822237438173	0.74056088989729	-0.5945408522182378	-1.118135818275388	-1.944689283153797	0.7378561507942631
creative	-0.17715376347609357	-0.31283860338347513	-0.7860974741893145	0.4285250281196062	0.5238751371198864	1.196796727613991	-0.016744229842797664	-1.236779915399006	-0.8331117148590035	-0.7295679420288703	0.8673247768445225	0.697988555419284	-0.37930413545380004	-1.2046092790882714	-0.17433970934613796
...	0.5701794364483963	-0.2533479633898557	-1.4918404336079858	0.8524993377707806	-0.12745251474652053	-0.32410206243381373	-0.6626178138548484	-1.2040578988009378	0.16308484043792287	-0.1062692061733653	0.6729057534221258	-0.6961512495343365	-0.3102739409856575	0.08574476316261148	0.20610692501672528
lies	-0.5704014447924959	-0.48874837841137203	-1.9629579330492526	2.118944490788005	-0.1782953982419953	1.0716226931053814	1.7802250901051382	-1.9565366741129224	1.854445172012174	1.466315642646633	-0.7059995258885063	0.27056213415312885	-0.4037562491344917	0.02599656981950993	1.2206313407896148
utter	-0.378266934414659	1.3349898910504303	-2.122392259283517	0.6075788486895974	1.6861804769683006	1.0435121510805687	-0.19276816315704806	-1.9516109977063842	0.9826990238200954	-0.2817539800107858	0.23383680245279392	-1.0167146736705288	-0.05224549847046789	-0.5272306258798196	-0.6369099682416424
stuart	1.7711839936554665	1.0891299472721165	-2.62540459699649	2.0325832452066477	0.42217543310823075	-1.0333764445461662	-1.7791565051843532	-0.5278713473261625	-1.1282316990907184	0.20699750703373532	1.8974033759967195	0.23509627429464786	-0.7400093595421917	1.277867756285182	1.6666087384000914
very	0.9006721414849528	-0.06836247283222502	-0.40820507351642643	-0.4875957997986955	0.8839605324822174	-0.742660766845277	-0.7679944619349419	-0.5068223562033636	-1.1249950044776051	-0.5804299997049209	1.3479265478845797	-0.014885759411260954	1.4657876549319635	-0.29304430257475217	0.6959712817730366
path	-0.4697156030934049	-1.3313327342260948	-0.3424673507378295	0.04234609578890408	0.5939448783269157	0.8393730703039222	1.5591043443362342	-1.4578844422624073	1.3473106015957952	-1.8649859878820874	0.8195367237379756	-0.49378297054482145	0.1095181117590768	0.7423406121219853	0.6297068483981754
ice	-0.1445130977136656	-0.061367575330860014	-0.5092822779115171	0.8096968317561053	0.7433583545124314	0.9709811279899159	1.8988026171327204	-1.3597931807289454	0.745758921272847	-1.9540498855889774	2.7770602970336498	-2.0265390574855098	-0.39013530159003007	1.170915481207028	0.4518577629209658
age	-0.6370951783789502	-0.8953975678848711	-0.04736018117770879	1.2105364435294745	1.6731323533620415	1.2307775264867653	2.3556253713355257	-0.7791530053848538	-0.13511449407698511	-1.3947394520427792	1.799513407311083	-2.0672340475427395	0.5001534165703924	0.21778054614783376	0.4563042830169464
follows	-0.76709410843777	1.0902906734698767	-1.6851985995193857	0.5190946314404942	0.3991603675863324	-0.7010214186054897	0.46895157378715896	-1.7065711055054873	0.042382110092240244	-1.0714172191597653	0.003673874701254465	-1.3614401543525565	-2.380282667304893	-0.135737325080187	0.32055401710532383
closely	-0.5253849098772198	1.2390011917835457	0.7286838421750054	0.07809153908591152	0.5191988640327445	-0.4096585507573881	-1.385230579627682	-1.3836037544993707	-1.6409577454345539	-0.09771922117748477	2.485110699977674	-0.2980270771866619	-2.774750470477822	1.720892595235947	-1.1389473384623245
though	-1.0194517242592254	-0.9814548920362809	-0.3382038582624777	0.07277203093037998	-1.1967734442769284	-0.4456195048180552	-0.8547244238424629	-0.4038767101323964	-1.275472392621713	-0.2608729476464391	1.2969002449361662	-1.1727643831165062	0.06996109865201516	-0.4693071728840431	-0.4135847192071031
giant	0.48899371567263644	-0.64895889806667	-2.1033407555112036	-0.498987307681485	1.1688684219643801	1.1908836205903857	-0.42338478507920285	-0.5802285686320476	0.28461111212260953	0.03143484116116703	0.11533697265492915	1.327048032099166	-0.047567935492350694	-0.2161305115728855	1.1064352388213163
jones	-1.5285461507625024	0.9681929712687549	-1.5420436499939199	-0.411550902629248	-0.31545814025483215	0.859764505191887	-0.04211208304082209	-1.254615133307855	-0.687525382750672	0.04652134947808617	1.2393803613400927	0.06483533243096856	-0.8212298897171928	-4.170516272826154	0.3041699595417313
who	-1.5372266167006778	1.2196438485855485	0.5244676021945999	-0.06631750149296556	-1.8625135714189822	1.923538151472514	0.5415079842171956	-0.22340875823638362	0.16683543030990033	0.5463332367258825	0.8999457262869375	1.3664953811803053	-0.42053968424514754	-1.7376652701236015	0.6560344755630039
matter	0.030966272845361686	2.4487484818254224	-0.22887714915201984	-0.23885557719072176	1.0445188444833846	-0.7893969719231428	0.6700467132505028	-1.2074897720509234	0.7722432401159204	-0.5193707952504719	1.1617825137952986	-0.15591020290484797	-1.207772574684585	1.00158124361294	-0.4102524619478584
weeks	-0.9755812272404197	0.9085930425379736	-2.67169193384073	1.447786898106628	1.11859228763277	0.8560955841435922	-0.3674195374371984	1.5464903770363065	-0.2251184950808931	-1.0863637223593683	0.7400333078541433	0.8661669777530254	-0.5657313528992919	1.4300468667851427	0.2565726629725715
release	0.6483260286702948	-0.16375052956150327	-1.4262478511207992	-1.7350011219789163	0.1937695432033839	1.013008568305405	1.440988949255689	1.324748502677694	-0.7873072206911627	0.7754528036179846	-0.057135132666424226	0.010667372809220727	-0.16066696528262242	1.4751493892617147	1.27200430182617
humor	0.008667296509042743	-0.23056277843441325	-1.5283349802469093	0.945754023041769	0.9459198544356191	0.27241414361257676	0.645964608105033	-1.3094744042159785	-0.44708788585752895	-0.5746541585011493	0.35835045175759217	-0.4008418088127216	0.3971743020544278	-0.8483018563125446	-0.0015009591608220463
speak	-0.36542369905718886	0.20282494563739384	-0.7752299657005886	0.46515524047402634	-0.2188178546163309	0.8734025570628647	1.3952113694231079	-0.11505450528734706	-0.113123780749324	0.4638455516224772	1.1429908535755673	2.444101003898427	0.025027046066989883	-1.238985449314164	0.6057845797181443
after	-1.1306371266865103	-1.3849470597008728	-0.5627591700019481	-1.0500044949375968	0.3516148906029249	0.9786035780300308	-0.13898475041622815	0.9639075697653458	-1.2102781586837352	-1.4224245319665634	-0.11316123234523867	0.36606889132312137	-1.195761443144574	1.2940526447255984	0.26515709921430747
witty	-0.3649297379296097	-0.4086045430592511	-1.3046362208757274	-0.3116851549765032	-0.22776868736797146	-0.23849929475033804	-0.7170386725139384	-1.3748529148033835	-2.4104551335942226	-0.6506109602276371	0.0755259901807035	-0.4506433446251139	-0.5903319645709767	-0.7608659288547446	-2.01963297078751
silver	-0.6634960427399216	-1.6874512775368542	-3.8271211356736266	-1.130878644900591	0.6740209851406971	-0.054416979121889586	1.621242348327271	-0.2582783119313267	1.6603108003768683	0.582246202566992	-1.236611385384219	0.5204574202921448	0.1833121610860593	-1.680207162975094	1.047407974138694
replaced	-1.4243065542359759	-1.7634419303210729	-1.5951083590299056	-0.28999895504576423	-0.6162751864123549	0.005787762785678052	-1.5671935806678121	-2.1851550631906376	0.7624199589821334	1.5877362760329536	-0.12411690899137451	1.2339392183222704	-0.38209134978557296	-1.4883173573926183	-0.059339182899296405
cute	-0.9733012313010069	-0.13451859419728482	-1.1304469330503752	0.2294620731807261	0.8724475802256255	0.0509843844067544	-1.1445872488118596	-0.43706243861512506	-0.2378390589589937	-1.3237533772483192	1.0336463045527928	0.3440327365469307	-0.6053602802001125	-0.41269030686018254	-0.976279250998941
everyone	-0.06609053406709803	-0.37075039841128987	-0.13733729778011705	-1.076701384020689	-0.046323230698071205	-0.12005173859085438	1.37166322528409	0.4433778747874309	0.16542455407148615	-0.9974731781077077	1.1903994054033613	1.1356375066665834	-0.9271418941689921	-0.5267030908705217	1.1711012500863098
everything	-1.6305754037030715	0.5701276991833971	0.053686359565265795	-0.14002910330503893	-0.4553440983885372	-0.16883691967024356	0.33624409188996907	0.33172197105197765	0.5847583387488691	0.3524193392406343	2.071854043408606	0.9965316067119219	-0.5559566766087447	-0.28283617659161997	-0.23336510643709651
around	0.11346607708797748	-0.6099481212351988	-2.03283255056083	0.24085362077888425	-0.13171342022897514	-0.7283744877163932	0.9670064745640472	0.6067395627435719	0.27004275342021167	0.4485882715655272	0.39723683183940994	0.6618723268200837	0.49068932651521263	1.3632370723300797	1.2446542587279459
there	-0.8650061775617038	0.9994094959001031	0.6015259751014868	0.48598965423754914	-0.934532794308577	-1.4118252108302225	-0.661547080207662	-0.0945943967984636	0.05626060928887666	-0.4958955464959834	1.9432108950984563	-0.038665809569477905	-1.3832077748214864	-0.018764168942627224	0.28988783990760547
comes	-1.2718919483830877	-1.0506489146157185	-0.07047312364457436	0.2878428696055497	-0.08887172907823167	-0.2140326314641814	1.0609549896359993	-1.1516096514612286	0.8447513298068638	-0.30800752099949147	-0.23150909619399962	1.8197458189758593	-1.43371242823462	1.4838442580284608	-0.4734124139988758
from	0.17917960765731927	-1.083391779938236	-1.4870912601492163	-0.4522040877433156	0.3391236324698906	-0.18211413568607454	0.8162654233728264	0.22005679046731885	-0.4641701431126175	0.13547600099839963	-1.2174010024694915	1.2185096252601815	-0.17518734199300945	-0.775010032762113	0.26460745249029155
performances	-0.08951123247372494	-1.1007874046244575	-0.2666685153998192	-0.6695585275602176	0.2540275617662794	0.9452396067869309	-0.4729528363987462	-1.8307153588834524	-0.6971120995873725	-0.22931021100630317	-0.6612899785761388	0.519443546556987	-0.15501027172262344	-1.0820916500225484	-0.7722606597598296
lead	-0.5554737574888087	-1.2426286276949385	-0.25795907871625534	-1.442817396295056	0.5310800734662993	0.8490700153713742	0.18384952518962347	-1.9681788076685995	-1.3053312677884423	0.08736434345487712	0.4274075375480968	1.8255415151689873	-0.14826919165293195	-1.8142329926488552	0.17649582825838261
13	-1.6751977867037593	0.1897065350878231	-1.4597853467037272	0.3485318620532699	-1.1922366434207825	0.8320148600473941	-0.6749604367564528	1.772307067139152	1.1985513365638707	-0.5370095829140735	1.5098806623824612	0.5995813699924344	-2.4423246333238158	1.3868932449904938	2.7068945836182667
conversations	-0.590695547847413	1.0732421146491091	-0.6272798666025631	0.8900896218499867	0.23962341315050495	1.4669216861170027	-0.7815004984744472	0.972188177061677	0.7888568383689196	-1.4016960634016367	1.241691668294782	0.24683484840283493	-2.3988362362932474	0.5177869894859786	2.6758268881085314
holds	-0.4746321137350904	-0.3616899912785186	-0.4122471763706129	1.2434968137872098	0.10584368342424047	0.3559369096271239	1.0084875984487347	-0.5424047645257205	0.002516085771713139	-0.30540636467895793	0.9697746457690359	0.19258565606998823	-0.353357009490408	0.04507289657910138	0.6027211293067092
close	-1.7906946888871467	-0.4725540373371804	0.20024057959247532	-0.28759257957863504	0.18812667966181645	-0.8801955919450126	0.42642172672627515	0.03667703111252163	1.6995298497860605	-0.14471824907079842	1.4848713372730913	2.4212070219431103	0.8394899862141064	-0.21098370746520456	0.06069158744171099
relatively	0.631279483116156	0.8939231182783437	-1.8227358066499002	-0.4271268135251087	0.39044594042741965	-2.3778319196009168	-0.4208610242473941	-1.5037958965829237	0.4420239944259513	0.3413213069203949	1.9745743263027387	1.133985914232621	-0.7850013372700154	1.3414883399554656	-0.9874218304046644
slow	-0.3080392585535672	-1.0264250654449074	-0.9831853308358406	0.16288082381632008	0.20105427396613182	-0.5099058481321327	0.1915785377944551	-0.22303342331372394	-1.5445609359418995	-0.10968339365347571	1.748385209759173	0.4093553213822324	0.2892088247860847	1.0998779892354742	-1.0472641873204047
come	-1.0692391727467996	-1.4303346566377118	0.5931290354225801	0.08023235811063366	-0.46295396480197437	1.2296083785700138	0.8027472686039416	0.30173105142057155	0.824368200427751	0.7839196777971204	1.4892684351522916	1.8917123062683876	0.7846985600109679	-0.27183090469753907	0.21944506667617591
point	-0.2550681934734388	1.2534187373765282	-0.864811102601646	0.7621785715561205	1.2680248292777476	-0.4175504324579626	0.8362137308111024	-0.5693574755396806	1.4161781477424524	-0.17388854932792036	0.284108206120657	0.42606323313684735	-1.0803810648572296	1.3093913572606464	1.175277447702986
auto	-1.913896030385545	-0.9313034739429472	-3.588765316204869	0.5808530948728898	0.11221761454187434	-3.4722231739798595	-1.0363222354262747	2.2144817932760965	0.09039079810596418	-0.5371472248616758	2.189223166131553	1.093833092225718	-1.0844987238048343	0.8327516701126861	-0.71592895503161
focus	-1.160685623839588	0.18690091070863946	-2.089105933974175	0.19298942370321437	0.5094120877114432	-2.210340484315255	0.0024911683929813577	-0.007712939588630174	0.036127566597408234	-0.3058357454806867	1.0302499246408012	1.5533383668349265	-1.2701749781258886	0.7319358239676671	-0.07555012296953095
works	-0.3478765511529102	-0.8678678139940561	-1.007969836052588	-0.2447240262458788	-0.019783269598207504	0.03300281419797935	-0.38227871356631393	-1.0079856604764084	-0.040704512543341446	0.020629282146116534	-0.10025644987924276	0.45231044132761167	-1.5128248325757725	0.5704433862395034	0.09911387204307248
unusual	-0.8606764841275999	1.0342385991603233	-0.23024774829099703	-1.5193144762607311	-0.2834668474511822	-0.006258392481956476	1.1427955584706866	-0.9128532779368326	-1.8723170980484998	0.5905559831958215	0.9680213443431729	-1.5217496464568796	-1.2828227784242188	0.45492650941247714	-0.1476074440204299
biopic	0.8908107079927352	0.25746420643463064	-1.4588508613066158	-1.211808132747368	-0.5603399113585714	1.051939144066556	-0.26621353702519496	0.20048169502673713	-2.4807702853598013	1.2042582661163066	1.5025265526020206	-0.6140955736726286	0.3027305755321056	-0.39669034475118947	0.3950360954609821
document	0.9021142955566281	-0.24711654549253803	0.12248193968853605	-0.8710531869278667	1.177909538341644	0.4483469005709299	0.2686493444326502	-1.9797810918589218	-0.9682609089670524	0.8396420151294625	0.4637291275539097	1.778657728078143	-0.5054606876428946	0.6370218575685727	0.08369230512429604
male	0.04397001300145997	-1.8841874519955892	0.07095347894378301	-0.8056058425304813	1.9673300926439654	1.5979432656380992	0.6003796078601149	-1.5832222894099723	-1.2160432817027087	0.4146325613444355	-0.8835107173898388	-0.5405953801936634	-1.2179013640917842	-0.871207102816731	1.039604108659768
era	0.7612562158825483	-0.2672606913697635	-1.1532307659724184	-0.0039116633586087635	0.7679629180176065	0.9046358665278784	0.9548858951446294	-1.3845649209948097	-0.3415224870857778	0.842997201263373	-0.8764712849505975	-0.40658276199589305	0.17769663685021592	0.7361146517711482	0.7758167655318147
mr.	-1.5806461201729969	-0.40769711557304145	-1.8005119037742987	-2.449586868388733	0.006704167098158728	-1.5724258091053889	-0.18373626983613195	-0.21403293762364678	0.31440334403683956	-1.4919490002363003	-0.2543186487341734	-0.31394342059800084	-2.189811468036994	-1.0790939229186298	0.12339508386954368
zhang	-2.7899841483264574	0.21308939602976362	-0.2478716289751215	-3.179722117519429	0.02639511435956321	-1.5730641580911495	0.6069194254869097	-0.6602456047567141	-0.43081089273978057	-1.0988155743617354	0.3948386587650774	0.6090286470767245	-3.287563868756278	-1.147298063888628	0.7759040452288923
subject	-0.17123992696212287	0.7260200927703626	-1.1571177118051281	0.4129826520362915	1.0421382818718954	-0.04659215553943308	0.9529179863445439	-1.795548682555064	-0.0925052096042821	-1.2635436884686133	0.6778969773865557	0.2333930690120256	-0.602897922718594	0.3530016149811937	-1.0350713027038085
degree	1.4277964117203752	0.5882932661745396	-1.0497980828299385	-0.3161814696071521	0.8455971631343647	1.1853316225426083	-0.11430885428105453	-2.4987613458772944	0.550310137098564	0.5904220304983815	1.0914906781668712	1.2329227735340385	-0.19487522574942123	0.12755447930660074	-0.0025874056785266664
least	-0.6231291584465202	-0.9839049850760511	-1.6059778881716036	-1.6811178248371466	1.184373190784074	-0.7521105760212603	0.497689051367177	0.651230750779933	0.13500046584083994	-1.165156629988893	1.410730481953643	0.383155809913804	-1.4053014237894363	1.4997234826402965	-1.258384796355643
