<unk>	0.13526995583530815	0.45369852626347074	0.23321687497447582	0.2118500779609664	-0.19939386114092744	0.039009364633715626	-0.10290265925764625	0.0996235305262563	-0.18793771522809952	0.12850858467884518	-0.07165803132045828	0.4289086199390098	0.34472720722523253	-0.29585172601458587	-0.20244164157167888
the	-2136237854351.4504	-2136237854351.3604	-2136237854351.4185	-2136237854351.2812	-2136237854351.4065	-2136237854351.2534	-2136237854351.4475	-2136237854351.4	-2136237854351.587	-2136237854351.175	-2136237854351.3325	-2136237854351.3745	-2136237854351.5054	-2136237854351.2148	-2136237854351.3755
rock	-20825141087.19774	-20825141086.922523	-20825141087.46757	-20825141087.020615	-20825141086.574997	-20825141086.73306	-20825141087.304543	-20825141086.98197	-20825141086.81617	-20825141087.23185	-20825141087.00908	-20825141087.012444	-20825141087.355103	-20825141086.620865	-20825141087.001522
is	-2569625638787.8135	-2569625638787.852	-2569625638787.764	-2569625638788.0776	-2569625638787.928	-2569625638787.783	-2569625638787.854	-2569625638787.49	-2569625638787.623	-2569625638788.0024	-2569625638787.6665	-2569625638788.1533	-2569625638788.316	-2569625638787.9956	-2569625638787.885
to	-4320866712666.2485	-4320866712666.422	-4320866712666.309	-4320866712666.2104	-4320866712666.5234	-4320866712666.5605	-4320866712666.2715	-4320866712665.992	-4320866712666.4907	-4320866712666.335	-4320866712666.3345	-4320866712666.5146	-4320866712666.5244	-4320866712666.0645	-4320866712666.079
be	-1276144813508.7744	-1276144813508.7007	-1276144813508.981	-1276144813508.8813	-1276144813508.8853	-1276144813508.5405	-1276144813509.0286	-1276144813508.7778	-1276144813509.2998	-1276144813508.7654	-1276144813508.9077	-1276144813508.7373	-1276144813508.9414	-1276144813508.9111	-1276144813509.129
21st	-16847728090.807125	-16847728090.72475	-16847728090.634407	-16847728090.545341	-16847728090.78639	-16847728090.66689	-16847728090.803497	-16847728090.985733	-16847728090.862782	-16847728090.909542	-16847728091.251133	-16847728090.707977	-16847728090.7142	-16847728091.019192	-16847728090.632751
century	-42110804697.77201	-42110804697.66138	-42110804697.52599	-42110804698.04054	-42110804698.01503	-42110804697.784134	-42110804698.15451	-42110804697.529205	-42110804697.527245	-42110804697.55054	-42110804697.80887	-42110804697.7313	-42110804697.940506	-42110804697.493614	-42110804697.66106
's	-5780068604803.777	-5780068604803.855	-5780068604803.803	-5780068604803.799	-5780068604803.796	-5780068604803.783	-5780068604803.398	-5780068604803.657	-5780068604804.051	-5780068604804.055	-5780068604803.621	-5780068604803.909	-5780068604804.062	-5780068604804.128	-5780068604803.651
new	-559847459463.9529	-559847459463.6863	-559847459463.2673	-559847459463.8542	-559847459463.3383	-559847459463.5283	-559847459463.5872	-559847459463.5745	-559847459463.8619	-559847459463.5273	-559847459463.6978	-559847459463.3157	-559847459463.8618	-559847459463.8591	-559847459463.4614
``	-902364047094.6067	-902364047094.9417	-902364047095.0991	-902364047094.8738	-902364047094.5698	-902364047095.322	-902364047094.7898	-902364047094.6803	-902364047095.3508	-902364047094.9652	-902364047095.1375	-902364047094.7268	-902364047094.7646	-902364047094.8789	-902364047095.0325
''	-1026162160723.8691	-1026162160723.9171	-1026162160724.3174	-1026162160724.1497	-1026162160724.1047	-1026162160724.1641	-1026162160724.3793	-1026162160724.0156	-1026162160723.982	-1026162160723.9387	-1026162160724.352	-1026162160723.6653	-1026162160724.1953	-1026162160723.5421	-1026162160723.9801
and	-17807235052809.844	-17807235052810.195	-17807235052809.465	-17807235052809.41	-17807235052809.938	-17807235052809.836	-17807235052809.465	-17807235052809.734	-17807235052809.926	-17807235052809.684	-17807235052809.766	-17807235052809.65	-17807235052809.8	-17807235052809.65	-17807235052809.96
that	-9202352990820.23	-9202352990819.607	-9202352990819.465	-9202352990819.805	-9202352990819.656	-9202352990820.078	-9202352990820.209	-9202352990820.305	-9202352990819.951	-9202352990819.826	-9202352990820.023	-9202352990820.158	-9202352990819.83	-9202352990820.3	-9202352990819.98
he	-1204925946993.0137	-1204925946993.0913	-1204925946993.0615	-1204925946993.3013	-1204925946992.8906	-1204925946993.3274	-1204925946992.8992	-1204925946992.6294	-1204925946993.02	-1204925946992.7944	-1204925946992.876	-1204925946992.6816	-1204925946993.4014	-1204925946992.9487	-1204925946993.1682
going	-401388792231.13293	-401388792230.90356	-401388792231.2323	-401388792230.93164	-401388792231.1554	-401388792230.964	-401388792230.902	-401388792230.8838	-401388792230.97736	-401388792231.41705	-401388792231.0801	-401388792230.9378	-401388792231.36523	-401388792230.7137	-401388792230.975
make	-1325398422421.587	-1325398422421.1963	-1325398422421.3557	-1325398422421.6357	-1325398422421.704	-1325398422421.4639	-1325398422421.5518	-1325398422421.3086	-1325398422421.2563	-1325398422421.371	-1325398422421.959	-1325398422421.8025	-1325398422421.2275	-1325398422421.8735	-1325398422421.821
a	-26303275790617.098	-26303275790617.043	-26303275790617.117	-26303275790617.13	-26303275790617.28	-26303275790616.805	-26303275790616.793	-26303275790617.16	-26303275790617.082	-26303275790616.668	-26303275790616.848	-26303275790617.164	-26303275790616.96	-26303275790616.957	-26303275790617.04
even	-1619139312261.2195	-1619139312261.569	-1619139312261.1526	-1619139312261.486	-1619139312261.815	-1619139312261.5898	-1619139312261.6357	-1619139312261.4175	-1619139312261.2773	-1619139312261.2183	-1619139312261.3318	-1619139312261.6538	-1619139312261.3977	-1619139312261.757	-1619139312261.3274
than	-3555020209220.324	-3555020209220.426	-3555020209220.529	-3555020209220.4414	-3555020209220.066	-3555020209220.368	-3555020209220.485	-3555020209220.3105	-3555020209220.574	-3555020209220.257	-3555020209220.328	-3555020209220.0835	-3555020209220.2363	-3555020209220.045	-3555020209220.4785
arnold	-81750519367.23773	-81750519366.8623	-81750519367.05664	-81750519366.86426	-81750519367.12949	-81750519366.58678	-81750519366.73438	-81750519366.8566	-81750519366.91989	-81750519367.10226	-81750519367.16772	-81750519367.3194	-81750519367.26712	-81750519366.63348	-81750519367.07545
schwarzenegger	-63477152213.953735	-63477152214.01792	-63477152214.315865	-63477152214.39516	-63477152214.10861	-63477152213.90349	-63477152213.816444	-63477152213.99141	-63477152214.249344	-63477152213.90958	-63477152214.1145	-63477152214.134834	-63477152213.777855	-63477152214.29822	-63477152214.36588
,	-52435777169103.98	-52435777169103.61	-52435777169104.04	-52435777169104.06	-52435777169104.14	-52435777169103.71	-52435777169103.31	-52435777169103.46	-52435777169103.85	-52435777169104.01	-52435777169103.625	-52435777169103.83	-52435777169103.86	-52435777169103.66	-52435777169103.75
van	-89991954642.78511	-89991954642.80893	-89991954642.89153	-89991954642.74149	-89991954642.63382	-89991954642.86325	-89991954642.47368	-89991954642.48184	-89991954642.87662	-89991954643.06947	-89991954642.5735	-89991954642.98822	-89991954642.56082	-89991954642.46274	-89991954642.6218
or	-3488198526090.5117	-3488198526090.6772	-3488198526090.57	-3488198526090.746	-3488198526090.3394	-3488198526090.4873	-3488198526090.3433	-3488198526090.589	-3488198526090.765	-3488198526090.9863	-3488198526090.602	-3488198526090.6426	-3488198526090.5913	-3488198526090.6885	-3488198526091.0034
steven	-211504075150.8855	-211504075151.0166	-211504075151.1587	-211504075150.68536	-211504075151.1399	-211504075151.17352	-211504075151.03955	-211504075150.71503	-211504075150.90778	-211504075151.02466	-211504075150.8305	-211504075151.2727	-211504075151.0705	-211504075150.8631	-211504075151.02377
.	-10134931712692.717	-10134931712692.979	-10134931712692.998	-10134931712692.701	-10134931712692.656	-10134931712692.752	-10134931712692.754	-10134931712692.883	-10134931712692.588	-10134931712692.479	-10134931712692.734	-10134931712692.584	-10134931712692.947	-10134931712692.725	-10134931712692.95
gorgeously	-66832132013.0479	-66832132013.36072	-66832132013.80276	-66832132013.015625	-66832132013.425476	-66832132013.2957	-66832132013.28366	-66832132013.35634	-66832132013.56648	-66832132013.38339	-66832132013.463	-66832132013.31653	-66832132013.60829	-66832132013.24527	-66832132013.12073
elaborate	-109769723839.36917	-109769723839.37122	-109769723839.52426	-109769723839.28662	-109769723839.39157	-109769723839.19424	-109769723839.2644	-109769723839.101	-109769723839.67453	-109769723839.43857	-109769723839.36008	-109769723839.3219	-109769723839.4357	-109769723839.59488	-109769723839.37958
of	-42872012543977.12	-42872012543977.1	-42872012543976.66	-42872012543976.734	-42872012543977.17	-42872012543976.984	-42872012543976.93	-42872012543977.19	-42872012543977.16	-42872012543977.086	-42872012543976.83	-42872012543976.914	-42872012543976.74	-42872012543977.09	-42872012543977.1
rings	-98935360817.96344	-98935360818.15991	-98935360818.22919	-98935360817.94339	-98935360818.39948	-98935360818.14813	-98935360818.21153	-98935360818.14201	-98935360818.31023	-98935360818.42781	-98935360817.99496	-98935360818.1098	-98935360817.9511	-98935360818.0192	-98935360817.62082
so	-4673365840020.969	-4673365840021.066	-4673365840020.604	-4673365840020.988	-4673365840020.874	-4673365840021.244	-4673365840020.406	-4673365840021.141	-4673365840020.732	-4673365840021.0625	-4673365840020.466	-4673365840021.305	-4673365840021.071	-4673365840020.685	-4673365840020.916
huge	-271979423252.28485	-271979423252.69153	-271979423252.63208	-271979423252.6887	-271979423252.45255	-271979423252.44904	-271979423252.75836	-271979423252.79684	-271979423252.33435	-271979423252.4147	-271979423252.68808	-271979423252.51886	-271979423252.77524	-271979423252.60327	-271979423252.62152
words	-381423815906.26733	-381423815906.4997	-381423815906.8181	-381423815906.2162	-381423815906.312	-381423815906.3526	-381423815906.53217	-381423815906.3079	-381423815906.20264	-381423815906.30554	-381423815906.42535	-381423815906.3784	-381423815906.0488	-381423815906.1761	-381423815906.47095
can	-3352306016389.9116	-3352306016390.198	-3352306016389.8574	-3352306016389.743	-3352306016390.1685	-3352306016390.1772	-3352306016390.242	-3352306016389.8457	-3352306016390.0215	-3352306016390.1445	-3352306016390.169	-3352306016390.2153	-3352306016389.6904	-3352306016389.801	-3352306016389.7266
not	-7668763538244.117	-7668763538244.255	-7668763538243.936	-7668763538244.263	-7668763538243.642	-7668763538243.749	-7668763538243.579	-7668763538243.694	-7668763538243.841	-7668763538244.088	-7668763538243.56	-7668763538244.015	-7668763538244.406	-7668763538244.04	-7668763538244.112
describe	-143672273912.05383	-143672273912.42825	-143672273912.40912	-143672273912.13452	-143672273912.28226	-143672273912.5322	-143672273912.541	-143672273912.12442	-143672273912.18277	-143672273912.50137	-143672273912.58466	-143672273912.47406	-143672273912.37717	-143672273912.40143	-143672273912.18192
peter	-232538836674.15588	-232538836674.45917	-232538836674.5947	-232538836674.1234	-232538836674.39227	-232538836673.92535	-232538836674.40915	-232538836674.32526	-232538836674.54205	-232538836674.21875	-232538836674.13354	-232538836674.407	-232538836674.16846	-232538836674.19376	-232538836674.289
jackson	-245867650524.67926	-245867650524.62823	-245867650524.7263	-245867650524.85413	-245867650524.8459	-245867650524.7972	-245867650525.10175	-245867650524.62744	-245867650524.78473	-245867650524.79184	-245867650524.64578	-245867650524.45215	-245867650524.82285	-245867650525.0101	-245867650524.76843
vision	-403573716369.2537	-403573716369.1572	-403573716369.02985	-403573716369.1852	-403573716369.41675	-403573716368.9619	-403573716369.036	-403573716368.95276	-403573716368.92053	-403573716368.84247	-403573716369.2449	-403573716368.6848	-403573716369.0896	-403573716369.2907	-403573716369.2223
adams	-123105749779.10089	-123105749779.25533	-123105749779.37653	-123105749779.33234	-123105749779.42935	-123105749779.24214	-123105749779.32883	-123105749779.24634	-123105749779.12823	-123105749778.67563	-123105749779.1986	-123105749778.88524	-123105749778.90085	-123105749779.47107	-123105749778.60307
songs	-223974155499.56613	-223974155500.0518	-223974155499.68732	-223974155499.52307	-223974155499.75592	-223974155499.73785	-223974155499.7685	-223974155499.63232	-223974155500.01666	-223974155499.50397	-223974155499.8457	-223974155499.7306	-223974155499.82098	-223974155500.2251	-223974155500.1452
--	-8506204593694.51	-8506204593694.518	-8506204593694.789	-8506204593694.326	-8506204593694.661	-8506204593694.597	-8506204593694.436	-8506204593694.654	-8506204593694.863	-8506204593694.573	-8506204593694.732	-8506204593694.807	-8506204593694.82	-8506204593694.729	-8506204593694.723
few	-1828398142768.4011	-1828398142768.2358	-1828398142768.397	-1828398142768.1616	-1828398142768.1873	-1828398142768.4324	-1828398142768.2683	-1828398142768.5234	-1828398142768.1636	-1828398142768.3755	-1828398142768.4617	-1828398142768.331	-1828398142768.5781	-1828398142768.2603	-1828398142768.4895
potential	-430897510239.55444	-430897510239.13885	-430897510239.3801	-430897510239.4845	-430897510239.4728	-430897510239.5258	-430897510239.2893	-430897510239.453	-430897510239.31213	-430897510239.386	-430897510239.5653	-430897510239.2418	-430897510239.49585	-430897510239.29144	-430897510239.35986
hits	-251935362326.63705	-251935362327.00885	-251935362327.19403	-251935362326.72473	-251935362326.7586	-251935362326.9439	-251935362326.87372	-251935362327.0232	-251935362327.00592	-251935362326.85205	-251935362326.85867	-251935362327.21597	-251935362327.13287	-251935362326.94254	-251935362326.9795
more	-8772350415442.703	-8772350415442.889	-8772350415442.57	-8772350415442.683	-8772350415442.936	-8772350415442.883	-8772350415442.732	-8772350415442.814	-8772350415442.928	-8772350415443.008	-8772350415442.746	-8772350415443.057	-8772350415442.751	-8772350415443.189	-8772350415442.924
simply	-1114322522025.4155	-1114322522026.1523	-1114322522025.5198	-1114322522026.1265	-1114322522025.613	-1114322522025.6978	-1114322522025.7327	-1114322522025.9077	-1114322522025.9858	-1114322522026.1084	-1114322522025.3987	-1114322522025.5813	-1114322522025.3193	-1114322522025.822	-1114322522025.499
story	-5790388899422.861	-5790388899423.52	-5790388899423.148	-5790388899423.211	-5790388899423.091	-5790388899422.777	-5790388899423.339	-5790388899423.159	-5790388899423.357	-5790388899423.061	-5790388899423.054	-5790388899422.867	-5790388899422.853	-5790388899423.362	-5790388899423.327
but	-20593642919117.332	-20593642919117.766	-20593642919117.36	-20593642919117.703	-20593642919117.516	-20593642919117.734	-20593642919117.68	-20593642919117.14	-20593642919117.605	-20593642919117.824	-20593642919117.383	-20593642919117.35	-20593642919117.39	-20593642919117.203	-20593642919117.652
whole	-1022964198658.2048	-1022964198657.8865	-1022964198658.0112	-1022964198658.0269	-1022964198657.9856	-1022964198658.0051	-1022964198657.792	-1022964198658.2083	-1022964198657.8787	-1022964198657.9886	-1022964198657.9579	-1022964198658.256	-1022964198658.0818	-1022964198658.0397	-1022964198658.2471
certainly	-1019553062692.816	-1019553062692.9087	-1019553062692.4446	-1019553062692.7444	-1019553062692.7563	-1019553062692.9497	-1019553062692.6995	-1019553062692.8608	-1019553062692.761	-1019553062692.8654	-1019553062692.8105	-1019553062693.1128	-1019553062692.861	-1019553062692.573	-1019553062692.8982
captures	-553410951756.699	-553410951756.667	-553410951756.5575	-553410951756.8507	-553410951756.8517	-553410951756.5037	-553410951756.6355	-553410951756.5447	-553410951756.6726	-553410951756.2391	-553410951756.7107	-553410951756.6313	-553410951756.6361	-553410951756.4414	-553410951756.8351
intended	-422010743158.4158	-422010743158.3513	-422010743158.6521	-422010743158.444	-422010743158.53015	-422010743158.9287	-422010743158.9751	-422010743158.8982	-422010743158.829	-422010743158.84247	-422010743158.78186	-422010743158.6721	-422010743158.629	-422010743158.93384	-422010743159.1686
spirit	-807673041233.6066	-807673041233.8732	-807673041234.0166	-807673041233.5791	-807673041233.6735	-807673041234.0377	-807673041233.8326	-807673041234.2242	-807673041234.1407	-807673041234.1277	-807673041233.7573	-807673041234.1183	-807673041234.0476	-807673041233.9731	-807673041234.1227
piece	-1341724884677.7285	-1341724884678.0928	-1341724884678.1094	-1341724884677.917	-1341724884678.1155	-1341724884678.2358	-1341724884677.9146	-1341724884678.149	-1341724884678.403	-1341724884678.227	-1341724884677.9988	-1341724884677.6	-1341724884678.2996	-1341724884677.9478	-1341724884677.7437
you	-16080533232885.021	-16080533232884.545	-16080533232884.463	-16080533232884.494	-16080533232884.64	-16080533232884.555	-16080533232884.908	-16080533232884.494	-16080533232884.512	-16080533232884.344	-16080533232884.904	-16080533232884.29	-16080533232884.64	-16080533232884.383	-16080533232884.582
'd	-1229208860342.7234	-1229208860342.666	-1229208860342.3936	-1229208860342.3923	-1229208860342.6816	-1229208860342.138	-1229208860342.3481	-1229208860342.3198	-1229208860342.233	-1229208860342.201	-1229208860342.3389	-1229208860342.661	-1229208860342.4248	-1229208860342.4026	-1229208860342.1675
think	-1728076832530.0645	-1728076832529.8804	-1728076832529.6836	-1728076832529.904	-1728076832530.2705	-1728076832530.1646	-1728076832529.9932	-1728076832529.7593	-1728076832530.1284	-1728076832530.015	-1728076832530.337	-1728076832529.975	-1728076832530.2402	-1728076832530.4097	-1728076832529.9246
by	-11397822667833.752	-11397822667833.059	-11397822667833.379	-11397822667833.518	-11397822667833.658	-11397822667833.344	-11397822667833.373	-11397822667833.184	-11397822667833.262	-11397822667833.535	-11397822667833.73	-11397822667833.621	-11397822667833.059	-11397822667833.422	-11397822667833.457
now	-1009934983392.1301	-1009934983392.4407	-1009934983392.0251	-1009934983392.1531	-1009934983392.1116	-1009934983391.8887	-1009934983391.9011	-1009934983392.1621	-1009934983391.9775	-1009934983392.2239	-1009934983391.7671	-1009934983391.927	-1009934983391.9329	-1009934983392.2424	-1009934983391.9264
america	-565988483934.0664	-565988483934.414	-565988483933.7932	-565988483933.9717	-565988483934.1333	-565988483933.8412	-565988483934.3599	-565988483934.0217	-565988483934.249	-565988483934.46	-565988483934.3394	-565988483934.1053	-565988483933.9331	-565988483934.2488	-565988483934.4781
would	-4690573880500.645	-4690573880500.471	-4690573880500.344	-4690573880500.302	-4690573880500.498	-4690573880500.402	-4690573880500.747	-4690573880500.242	-4690573880500.547	-4690573880500.584	-4690573880500.439	-4690573880500.71	-4690573880500.258	-4690573880500.176	-4690573880500.743
have	-11372014590385.426	-11372014590385.625	-11372014590385.045	-11372014590384.994	-11372014590385.129	-11372014590384.988	-11372014590385.37	-11372014590385.469	-11372014590384.88	-11372014590385.3	-11372014590385.156	-11372014590385.314	-11372014590385.371	-11372014590385.271	-11372014590384.988
had	-2295335888910.01	-2295335888910.078	-2295335888910.1494	-2295335888910.2114	-2295335888910.2603	-2295335888910.0674	-2295335888909.6357	-2295335888910.0435	-2295335888909.7695	-2295335888909.773	-2295335888910.115	-2295335888909.9355	-2295335888909.9746	-2295335888910.073	-2295335888910.4546
enough	-4623824821278.991	-4623824821279.192	-4623824821279.424	-4623824821279.079	-4623824821278.937	-4623824821278.904	-4623824821278.637	-4623824821279.0205	-4623824821279.438	-4623824821278.83	-4623824821279.049	-4623824821279.112	-4623824821279.021	-4623824821279.221	-4623824821278.932
british	-528243044868.6509	-528243044868.24817	-528243044868.597	-528243044868.66284	-528243044868.4523	-528243044868.57556	-528243044868.2203	-528243044868.7013	-528243044868.42737	-528243044868.65784	-528243044868.78186	-528243044868.34265	-528243044868.2691	-528243044868.5835	-528243044868.3734
with	-26274868952791.184	-26274868952791.05	-26274868952791.344	-26274868952791.34	-26274868952791.406	-26274868952791.65	-26274868952790.94	-26274868952791.17	-26274868952791.434	-26274868952791.383	-26274868952790.844	-26274868952791.32	-26274868952791.387	-26274868952790.977	-26274868952791.742
hearts	-331226906030.81824	-331226906031.3315	-331226906030.86633	-331226906030.5091	-331226906030.9658	-331226906030.9624	-331226906031.0342	-331226906030.734	-331226906031.20715	-331226906030.92773	-331226906031.32227	-331226906031.102	-331226906030.91077	-331226906030.98584	-331226906031.02686
yet	-2554695745070.497	-2554695745070.6157	-2554695745070.221	-2554695745070.377	-2554695745070.4365	-2554695745070.4644	-2554695745070.0815	-2554695745070.6772	-2554695745070.133	-2554695745069.9507	-2554695745070.094	-2554695745070.7153	-2554695745070.615	-2554695745070.16	-2554695745070.8
act	-877612444356.7803	-877612444356.9072	-877612444356.8595	-877612444356.9388	-877612444356.9678	-877612444356.8391	-877612444356.7031	-877612444356.9146	-877612444357.2552	-877612444356.8679	-877612444356.9698	-877612444356.6644	-877612444356.7968	-877612444356.8586	-877612444357.1648
still	-3581823879290.135	-3581823879289.9346	-3581823879290.004	-3581823879290.1113	-3581823879290.342	-3581823879290.12	-3581823879290.1387	-3581823879290.084	-3581823879290.151	-3581823879289.9834	-3581823879289.945	-3581823879290.2617	-3581823879290.133	-3581823879290.212	-3581823879290.0
charming	-1145652582361.4854	-1145652582362.0342	-1145652582361.8008	-1145652582361.5676	-1145652582361.3267	-1145652582361.6052	-1145652582361.5645	-1145652582362.0354	-1145652582361.7327	-1145652582361.8943	-1145652582361.6052	-1145652582361.8677	-1145652582361.9553	-1145652582361.8296	-1145652582361.8643
here	-2726127463906.155	-2726127463906.0557	-2726127463906.2314	-2726127463906.0	-2726127463906.11	-2726127463906.035	-2726127463906.045	-2726127463905.8394	-2726127463905.92	-2726127463906.001	-2726127463906.255	-2726127463906.033	-2726127463905.905	-2726127463906.1943	-2726127463906.1904
whether	-1107954312879.9705	-1107954312880.2192	-1107954312880.2349	-1107954312879.791	-1107954312880.181	-1107954312880.0325	-1107954312880.2605	-1107954312879.739	-1107954312879.967	-1107954312880.069	-1107954312879.664	-1107954312879.919	-1107954312879.5955	-1107954312879.8796	-1107954312880.1675
're	-4077157530737.8433	-4077157530738.1157	-4077157530738.1963	-4077157530737.784	-4077157530738.0483	-4077157530737.8564	-4077157530738.0107	-4077157530738.3223	-4077157530737.8667	-4077157530737.7573	-4077157530738.1406	-4077157530737.707	-4077157530737.7827	-4077157530737.8965	-4077157530738.1074
any	-5517993470324.63	-5517993470324.945	-5517993470324.566	-5517993470324.745	-5517993470325.101	-5517993470324.893	-5517993470324.756	-5517993470324.726	-5517993470324.885	-5517993470324.633	-5517993470324.624	-5517993470324.902	-5517993470324.691	-5517993470325.029	-5517993470325.093
on	-18038221323522.695	-18038221323522.69	-18038221323522.14	-18038221323522.25	-18038221323522.953	-18038221323522.637	-18038221323522.715	-18038221323522.926	-18038221323522.305	-18038221323522.89	-18038221323522.523	-18038221323522.492	-18038221323522.44	-18038221323522.96	-18038221323522.805
other	-3954328775092.7837	-3954328775092.6357	-3954328775092.5625	-3954328775093.1113	-3954328775093.007	-3954328775092.8237	-3954328775092.884	-3954328775093.1133	-3954328775092.892	-3954328775092.6475	-3954328775092.7153	-3954328775092.8047	-3954328775092.5654	-3954328775092.415	-3954328775093.0576
an	-23495318932956.156	-23495318932956.453	-23495318932957.047	-23495318932956.535	-23495318932956.543	-23495318932957.035	-23495318932956.44	-23495318932956.65	-23495318932956.375	-23495318932956.7	-23495318932956.535	-23495318932956.516	-23495318932956.27	-23495318932956.47	-23495318932957.047
undeniably	-411806790258.03064	-411806790258.4251	-411806790258.2	-411806790258.30457	-411806790258.1564	-411806790257.83655	-411806790258.0944	-411806790258.1575	-411806790257.90643	-411806790257.6411	-411806790258.13745	-411806790257.82983	-411806790258.30225	-411806790257.8014	-411806790257.96747
fascinating	-2061575909557.8247	-2061575909558.0928	-2061575909557.8472	-2061575909557.6753	-2061575909557.8013	-2061575909557.559	-2061575909557.879	-2061575909557.8857	-2061575909557.4292	-2061575909557.808	-2061575909557.896	-2061575909557.6616	-2061575909557.7534	-2061575909557.3213	-2061575909557.8218
playful	-479496083126.10706	-479496083126.35297	-479496083126.78046	-479496083126.43054	-479496083126.44116	-479496083126.6979	-479496083126.34863	-479496083126.3705	-479496083126.393	-479496083126.8215	-479496083126.1389	-479496083126.2825	-479496083126.08356	-479496083126.3484	-479496083126.37976
fellow	-256221616918.5534	-256221616918.57098	-256221616918.71106	-256221616918.2659	-256221616918.36206	-256221616918.0667	-256221616918.61386	-256221616918.58588	-256221616918.75073	-256221616918.45312	-256221616918.56207	-256221616918.57605	-256221616918.40765	-256221616918.43365	-256221616918.1556
just	-9402362141317.412	-9402362141317.297	-9402362141317.271	-9402362141317.209	-9402362141317.436	-9402362141317.809	-9402362141317.262	-9402362141317.166	-9402362141317.232	-9402362141317.316	-9402362141317.094	-9402362141317.148	-9402362141317.031	-9402362141317.424	-9402362141317.133
involved	-629479158094.9849	-629479158095.1163	-629479158094.9891	-629479158095.4314	-629479158094.7725	-629479158095.0215	-629479158094.9572	-629479158094.9832	-629479158095.3726	-629479158095.0415	-629479158094.8423	-629479158095.3367	-629479158094.9502	-629479158095.1508	-629479158095.2029
in	-56026769590589.05	-56026769590588.91	-56026769590588.92	-56026769590588.875	-56026769590588.68	-56026769590588.84	-56026769590589.07	-56026769590589.0	-56026769590588.85	-56026769590588.945	-56026769590589.336	-56026769590588.87	-56026769590589.38	-56026769590588.86	-56026769590588.984
creating	-507639689922.8216	-507639689922.84216	-507639689923.04834	-507639689923.311	-507639689923.1179	-507639689923.34766	-507639689922.9424	-507639689923.2583	-507639689923.11914	-507639689923.15186	-507639689923.09973	-507639689923.07556	-507639689922.8545	-507639689923.2737	-507639689923.53015
imagery	-508476575365.79474	-508476575365.9996	-508476575365.4626	-508476575365.7433	-508476575365.6814	-508476575366.0172	-508476575365.99695	-508476575365.88	-508476575365.6201	-508476575365.67	-508476575365.8492	-508476575365.7027	-508476575365.89154	-508476575365.76184	-508476575365.4437
this	-26679015151455.324	-26679015151455.508	-26679015151455.207	-26679015151455.543	-26679015151455.867	-26679015151455.395	-26679015151455.38	-26679015151455.113	-26679015151455.42	-26679015151455.434	-26679015151455.285	-26679015151455.55	-26679015151455.445	-26679015151455.133	-26679015151455.61
madness	-364751273016.0338	-364751273016.0624	-364751273016.2566	-364751273015.89496	-364751273015.8003	-364751273015.8655	-364751273015.64825	-364751273016.1513	-364751273015.9323	-364751273015.9949	-364751273015.86285	-364751273016.04846	-364751273015.9309	-364751273016.0171	-364751273016.1089
light	-1419233464918.9692	-1419233464918.355	-1419233464918.1785	-1419233464918.9434	-1419233464918.7065	-1419233464918.604	-1419233464918.8796	-1419233464918.4502	-1419233464918.4893	-1419233464918.973	-1419233464918.2703	-1419233464918.7888	-1419233464918.4653	-1419233464918.6147	-1419233464918.6416
astonishing	-307799127552.0582	-307799127552.1924	-307799127551.90234	-307799127552.3512	-307799127551.97424	-307799127552.29803	-307799127551.9003	-307799127552.4437	-307799127551.9355	-307799127551.80054	-307799127551.98364	-307799127552.3565	-307799127552.0578	-307799127551.9028	-307799127552.251
part	-2304005239231.1177	-2304005239231.043	-2304005239231.2275	-2304005239231.026	-2304005239231.081	-2304005239231.3076	-2304005239231.388	-2304005239231.336	-2304005239230.9785	-2304005239231.379	-2304005239231.166	-2304005239230.976	-2304005239231.2866	-2304005239231.223	-2304005239230.825
charm	-1495727189919.1072	-1495727189919.2441	-1495727189919.4883	-1495727189919.483	-1495727189919.3374	-1495727189918.8855	-1495727189919.2864	-1495727189919.1865	-1495727189919.0278	-1495727189919.1724	-1495727189919.4778	-1495727189918.974	-1495727189919.2485	-1495727189919.3916	-1495727189918.974
rouge	-201607959394.73242	-201607959395.2056	-201607959394.89346	-201607959394.97772	-201607959394.74805	-201607959395.17493	-201607959394.7342	-201607959395.1177	-201607959394.8866	-201607959395.15802	-201607959395.26764	-201607959395.23254	-201607959394.8604	-201607959395.36502	-201607959394.96872
it	-63277669209192.48	-63277669209192.97	-63277669209192.26	-63277669209192.49	-63277669209192.55	-63277669209192.51	-63277669209192.62	-63277669209192.53	-63277669209192.53	-63277669209192.35	-63277669209192.54	-63277669209192.74	-63277669209192.625	-63277669209192.516	-63277669209192.734
avoids	-307193406821.61096	-307193406821.9136	-307193406821.81793	-307193406822.0264	-307193406821.8598	-307193406822.13135	-307193406822.1122	-307193406822.1272	-307193406821.77997	-307193406821.9025	-307193406822.2362	-307193406821.8069	-307193406822.2003	-307193406821.9403	-307193406821.98987
obvious	-1716557958026.2173	-1716557958026.1433	-1716557958025.9866	-1716557958026.4697	-1716557958026.2573	-1716557958026.3704	-1716557958026.1763	-1716557958026.0735	-1716557958025.9595	-1716557958026.103	-1716557958026.2856	-1716557958026.3867	-1716557958026.2622	-1716557958026.3645	-1716557958026.412
humour	-537115842561.5423	-537115842561.60004	-537115842561.3487	-537115842561.4066	-537115842561.41473	-537115842561.6865	-537115842561.4613	-537115842561.9192	-537115842562.0556	-537115842561.5287	-537115842561.26733	-537115842561.4292	-537115842561.7186	-537115842561.57416	-537115842561.6492
screenplay	-2049317658179.0007	-2049317658179.1416	-2049317658179.473	-2049317658179.2065	-2049317658178.9421	-2049317658179.021	-2049317658179.1997	-2049317658179.0244	-2049317658178.8093	-2049317658178.6238	-2049317658178.6404	-2049317658179.1401	-2049317658178.9053	-2049317658179.395	-2049317658179.1973
constructed	-540964058058.77734	-540964058058.7013	-540964058058.1781	-540964058058.58765	-540964058058.41943	-540964058058.782	-540964058058.3524	-540964058058.63245	-540964058058.61816	-540964058058.7605	-540964058058.629	-540964058058.91235	-540964058058.7189	-540964058058.3717	-540964058058.82983
extreme	-847938438969.2991	-847938438969.1533	-847938438968.9523	-847938438969.0536	-847938438968.7877	-847938438969.3215	-847938438969.3518	-847938438968.9497	-847938438969.3464	-847938438969.2317	-847938438968.8582	-847938438969.0061	-847938438968.7781	-847938438969.331	-847938438968.9421
expectations	-399211919050.01227	-399211919049.9095	-399211919049.86835	-399211919050.23755	-399211919050.1782	-399211919049.8773	-399211919049.7394	-399211919049.82837	-399211919049.647	-399211919050.19006	-399211919050.0565	-399211919050.1128	-399211919049.923	-399211919049.67566	-399211919050.0043
good	-10757584137937.62	-10757584137937.535	-10757584137937.164	-10757584137937.426	-10757584137937.127	-10757584137937.309	-10757584137937.291	-10757584137937.55	-10757584137937.57	-10757584137937.578	-10757584137937.336	-10757584137937.426	-10757584137937.098	-10757584137937.074	-10757584137937.533
fun	-3993736693674.3486	-3993736693674.3013	-3993736693674.2065	-3993736693673.921	-3993736693674.222	-3993736693674.3486	-3993736693674.018	-3993736693674.229	-3993736693673.9907	-3993736693673.703	-3993736693674.066	-3993736693674.149	-3993736693674.3325	-3993736693673.926	-3993736693674.0225
action	-5268054411045.801	-5268054411046.009	-5268054411046.247	-5268054411046.506	-5268054411046.034	-5268054411045.861	-5268054411046.16	-5268054411046.219	-5268054411046.455	-5268054411045.678	-5268054411046.195	-5268054411046.395	-5268054411046.49	-5268054411046.424	-5268054411046.554
acting	-3263221310702.329	-3263221310702.8477	-3263221310702.5	-3263221310702.732	-3263221310702.577	-3263221310702.49	-3263221310702.6846	-3263221310702.7363	-3263221310702.591	-3263221310702.691	-3263221310702.256	-3263221310702.3145	-3263221310702.466	-3263221310702.3003	-3263221310702.4316
dialogue	-3228497778970.2554	-3228497778970.536	-3228497778970.0977	-3228497778970.0576	-3228497778970.3604	-3228497778970.1675	-3228497778970.378	-3228497778970.0513	-3228497778970.491	-3228497778970.4033	-3228497778970.07	-3228497778970.0913	-3228497778970.0537	-3228497778970.1846	-3228497778969.779
pace	-943952505870.0151	-943952505869.5992	-943952505870.1354	-943952505869.2844	-943952505869.7953	-943952505869.666	-943952505869.4961	-943952505869.6934	-943952505869.5896	-943952505870.0236	-943952505869.8953	-943952505870.0625	-943952505869.5549	-943952505869.5757	-943952505869.8464
cinematography	-761494750294.3662	-761494750294.1077	-761494750294.0034	-761494750293.8892	-761494750294.4257	-761494750293.5537	-761494750293.7505	-761494750294.3538	-761494750294.0491	-761494750293.9814	-761494750293.9194	-761494750293.9313	-761494750293.7809	-761494750294.1072	-761494750293.9539
should	-5922221841782.837	-5922221841782.895	-5922221841782.779	-5922221841782.8955	-5922221841782.754	-5922221841782.974	-5922221841782.482	-5922221841782.825	-5922221841782.87	-5922221841782.468	-5922221841782.947	-5922221841783.244	-5922221841783.091	-5922221841782.85	-5922221841782.716
pay	-918970222871.481	-918970222870.7573	-918970222871.1588	-918970222870.7834	-918970222871.5051	-918970222871.0009	-918970222871.1531	-918970222871.2405	-918970222871.3148	-918970222871.1655	-918970222871.4895	-918970222871.3134	-918970222871.0125	-918970222871.6237	-918970222871.2727
bucks	-327044771958.55615	-327044771958.56177	-327044771958.4568	-327044771958.02594	-327044771958.13904	-327044771958.02734	-327044771958.2676	-327044771958.48035	-327044771958.3153	-327044771958.4424	-327044771958.719	-327044771958.4235	-327044771958.6185	-327044771958.4204	-327044771958.3052
for	-41273602156279.44	-41273602156279.34	-41273602156278.766	-41273602156279.195	-41273602156279.5	-41273602156278.95	-41273602156279.16	-41273602156278.8	-41273602156278.68	-41273602156279.37	-41273602156279.37	-41273602156279.08	-41273602156279.32	-41273602156279.52	-41273602156279.14
:	-7251540045997.965	-7251540045998.018	-7251540045997.498	-7251540045998.021	-7251540045997.783	-7251540045998.289	-7251540045998.071	-7251540045997.904	-7251540045998.051	-7251540045998.084	-7251540045997.535	-7251540045998.236	-7251540045998.296	-7251540045997.975	-7251540045997.818
because	-5004137047723.039	-5004137047723.259	-5004137047723.096	-5004137047723.765	-5004137047723.656	-5004137047723.336	-5004137047723.448	-5004137047723.5205	-5004137047723.191	-5004137047723.59	-5004137047723.336	-5004137047723.311	-5004137047723.625	-5004137047723.75	-5004137047722.961
hear	-450210434207.18445	-450210434207.0447	-450210434207.2001	-450210434207.7129	-450210434207.37463	-450210434207.3716	-450210434207.303	-450210434207.4298	-450210434207.30505	-450210434207.4612	-450210434207.3325	-450210434207.4033	-450210434207.2865	-450210434207.32367	-450210434207.2787
about	-23782906613985.938	-23782906613985.766	-23782906613985.914	-23782906613985.496	-23782906613985.746	-23782906613985.96	-23782906613986.008	-23782906613985.89	-23782906613986.273	-23782906613985.516	-23782906613985.96	-23782906613985.863	-23782906613985.883	-23782906613985.79	-23782906613985.67
suffering	-425494219363.4646	-425494219363.4761	-425494219363.8196	-425494219364.219	-425494219363.7539	-425494219363.84564	-425494219363.7893	-425494219363.9313	-425494219363.5521	-425494219363.907	-425494219364.1689	-425494219363.4989	-425494219364.21094	-425494219364.22455	-425494219364.1301
news	-604012888007.5642	-604012888007.7761	-604012888008.1298	-604012888008.2817	-604012888007.967	-604012888007.8066	-604012888007.6644	-604012888008.025	-604012888008.3733	-604012888008.0891	-604012888008.042	-604012888007.6245	-604012888008.3691	-604012888008.3821	-604012888008.2158
dramas	-342028849423.5756	-342028849423.786	-342028849423.4623	-342028849423.56287	-342028849423.68115	-342028849423.5561	-342028849423.7926	-342028849423.31274	-342028849423.63995	-342028849423.63904	-342028849423.50336	-342028849423.94836	-342028849423.43677	-342028849423.2385	-342028849423.6869
like	-20637664592026.297	-20637664592026.266	-20637664592026.64	-20637664592026.3	-20637664592026.508	-20637664592026.547	-20637664592026.883	-20637664592026.336	-20637664592026.473	-20637664592026.594	-20637664592026.67	-20637664592026.555	-20637664592026.496	-20637664592026.43	-20637664592026.105
human	-3810035882499.544	-3810035882499.921	-3810035882500.0244	-3810035882499.2197	-3810035882499.3	-3810035882499.7676	-3810035882499.4824	-3810035882499.62	-3810035882499.456	-3810035882499.508	-3810035882499.495	-3810035882499.6533	-3810035882499.706	-3810035882499.3857	-3810035882499.5845
ride	-1456950461410.6746	-1456950461410.479	-1456950461410.9666	-1456950461410.569	-1456950461410.79	-1456950461410.7747	-1456950461410.8105	-1456950461411.169	-1456950461410.872	-1456950461410.7153	-1456950461410.6885	-1456950461410.87	-1456950461410.6836	-1456950461410.4053	-1456950461410.8096
at	-23003699737074.52	-23003699737074.676	-23003699737074.523	-23003699737074.934	-23003699737074.633	-23003699737074.707	-23003699737074.535	-23003699737074.46	-23003699737074.645	-23003699737074.723	-23003699737074.664	-23003699737075.105	-23003699737074.832	-23003699737074.336	-23003699737074.137
first	-5719205532780.2	-5719205532780.207	-5719205532779.961	-5719205532779.93	-5719205532779.816	-5719205532779.916	-5719205532779.922	-5719205532779.926	-5719205532780.045	-5719205532779.647	-5719205532780.003	-5719205532780.064	-5719205532779.809	-5719205532780.143	-5719205532779.748
quiet	-1317886416520.579	-1317886416520.1807	-1317886416520.589	-1317886416520.2383	-1317886416520.3716	-1317886416520.486	-1317886416520.4458	-1317886416520.3147	-1317886416520.2852	-1317886416520.204	-1317886416520.46	-1317886416520.079	-1317886416520.288	-1317886416520.5574	-1317886416520.478
pure	-1205405794369.41	-1205405794370.065	-1205405794369.7012	-1205405794369.918	-1205405794369.2427	-1205405794369.7744	-1205405794369.545	-1205405794369.5059	-1205405794369.2769	-1205405794369.9966	-1205405794369.7507	-1205405794369.6768	-1205405794369.3625	-1205405794369.5947	-1205405794369.3599
are	-24428530907462.42	-24428530907462.547	-24428530907462.453	-24428530907462.473	-24428530907462.77	-24428530907462.63	-24428530907462.367	-24428530907462.055	-24428530907462.43	-24428530907462.152	-24428530907462.22	-24428530907462.652	-24428530907462.562	-24428530907462.46	-24428530907462.58
far	-5332365405401.492	-5332365405401.304	-5332365405400.939	-5332365405401.068	-5332365405400.886	-5332365405400.702	-5332365405401.013	-5332365405401.299	-5332365405401.016	-5332365405400.628	-5332365405401.354	-5332365405401.201	-5332365405401.028	-5332365405401.211	-5332365405400.958
between	-5169519434838.836	-5169519434839.2295	-5169519434839.24	-5169519434839.264	-5169519434839.612	-5169519434839.624	-5169519434838.797	-5169519434839.244	-5169519434839.354	-5169519434839.336	-5169519434838.969	-5169519434839.1	-5169519434839.191	-5169519434838.78	-5169519434838.876
;	-5859627026315.779	-5859627026314.979	-5859627026315.5625	-5859627026315.501	-5859627026315.406	-5859627026315.753	-5859627026315.31	-5859627026315.19	-5859627026315.338	-5859627026315.36	-5859627026315.165	-5859627026315.392	-5859627026315.369	-5859627026315.527	-5859627026314.995
their	-11279556045455.2	-11279556045455.28	-11279556045455.95	-11279556045455.645	-11279556045455.752	-11279556045455.555	-11279556045455.727	-11279556045455.197	-11279556045455.719	-11279556045455.41	-11279556045455.572	-11279556045455.77	-11279556045455.23	-11279556045455.795	-11279556045455.543
otherwise	-1824118696274.207	-1824118696274.3696	-1824118696273.8975	-1824118696274.6245	-1824118696274.0854	-1824118696274.2937	-1824118696274.2896	-1824118696273.8245	-1824118696274.4248	-1824118696273.854	-1824118696273.7974	-1824118696274.041	-1824118696273.9187	-1824118696274.4666	-1824118696274.463
respectable	-551473616202.3739	-551473616202.1162	-551473616201.5159	-551473616202.2183	-551473616201.8181	-551473616202.1085	-551473616201.9305	-551473616201.979	-551473616201.8597	-551473616201.7456	-551473616201.8625	-551473616202.126	-551473616201.9935	-551473616202.3705	-551473616202.3363
flick	-2787365584228.794	-2787365584228.795	-2787365584229.089	-2787365584229.1797	-2787365584229.0728	-2787365584228.639	-2787365584229.091	-2787365584228.9697	-2787365584228.7334	-2787365584229.432	-2787365584229.0454	-2787365584229.241	-2787365584229.2637	-2787365584228.9204	-2787365584228.9194
some	-11883784717226.234	-11883784717226.61	-11883784717226.688	-11883784717226.402	-11883784717226.434	-11883784717226.53	-11883784717226.523	-11883784717226.264	-11883784717226.635	-11883784717226.953	-11883784717226.441	-11883784717226.748	-11883784717226.719	-11883784717226.625	-11883784717226.688
truly	-2272654906532.045	-2272654906532.153	-2272654906532.5522	-2272654906532.1865	-2272654906532.2637	-2272654906532.295	-2272654906532.296	-2272654906532.6743	-2272654906532.208	-2272654906532.451	-2272654906532.539	-2272654906532.794	-2272654906532.232	-2272654906532.2656	-2272654906532.177
excellent	-1619799016792.9502	-1619799016793.2642	-1619799016793.0557	-1619799016793.2148	-1619799016793.0386	-1619799016792.915	-1619799016793.0698	-1619799016793.3696	-1619799016793.4116	-1619799016793.228	-1619799016793.2427	-1619799016793.082	-1619799016793.0422	-1619799016793.1372	-1619799016793.0225
sequences	-1645907651256.642	-1645907651256.985	-1645907651256.961	-1645907651256.7156	-1645907651256.7498	-1645907651257.2742	-1645907651256.8174	-1645907651256.6025	-1645907651257.0596	-1645907651256.7273	-1645907651256.9507	-1645907651257.404	-1645907651257.4155	-1645907651256.5942	-1645907651257.1592
john	-2279413811073.2734	-2279413811072.8193	-2279413811072.849	-2279413811073.146	-2279413811072.7285	-2279413811072.945	-2279413811072.989	-2279413811072.699	-2279413811073.1504	-2279413811072.6045	-2279413811073.0127	-2279413811073.159	-2279413811073.334	-2279413811072.8574	-2279413811072.834
english	-649904755903.8185	-649904755904.064	-649904755903.7263	-649904755903.5635	-649904755903.6538	-649904755903.6243	-649904755903.7068	-649904755903.3341	-649904755903.5809	-649904755903.238	-649904755903.4982	-649904755903.4584	-649904755903.4489	-649904755903.9426	-649904755903.6663
terrific	-1874409362897.6768	-1874409362897.8481	-1874409362897.9146	-1874409362897.377	-1874409362897.2646	-1874409362897.7285	-1874409362897.9106	-1874409362897.7231	-1874409362897.479	-1874409362897.7666	-1874409362897.5928	-1874409362898.0283	-1874409362897.733	-1874409362897.3914	-1874409362897.6794
effort	-2451300599895.5635	-2451300599895.644	-2451300599895.8555	-2451300599895.239	-2451300599895.503	-2451300599895.3887	-2451300599895.5884	-2451300599895.614	-2451300599895.7104	-2451300599895.863	-2451300599895.284	-2451300599895.6484	-2451300599895.616	-2451300599895.3423	-2451300599895.8384
energy	-2748326117416.5957	-2748326117417.1123	-2748326117417.034	-2748326117416.9634	-2748326117417.2373	-2748326117417.221	-2748326117417.3037	-2748326117417.4233	-2748326117417.337	-2748326117417.056	-2748326117416.9727	-2748326117417.0376	-2748326117417.044	-2748326117416.999	-2748326117416.952
walk	-737637530567.6805	-737637530567.4814	-737637530567.697	-737637530567.3413	-737637530567.7932	-737637530567.5024	-737637530567.52	-737637530567.5228	-737637530567.545	-737637530567.609	-737637530567.4303	-737637530567.7129	-737637530567.4899	-737637530567.9066	-737637530567.7266
out	-17213156751312.46	-17213156751312.912	-17213156751312.59	-17213156751312.775	-17213156751312.54	-17213156751312.242	-17213156751312.363	-17213156751312.84	-17213156751312.613	-17213156751312.688	-17213156751312.55	-17213156751312.484	-17213156751312.945	-17213156751312.238	-17213156751312.902
girl	-2078009139077.7625	-2078009139077.543	-2078009139078.2676	-2078009139077.8281	-2078009139077.8289	-2078009139078.0503	-2078009139077.7227	-2078009139077.8015	-2078009139077.7185	-2078009139078.0112	-2078009139077.434	-2078009139077.9663	-2078009139077.5354	-2078009139077.4692	-2078009139077.7551
mixed	-944030775939.4744	-944030775939.3176	-944030775939.6477	-944030775939.5546	-944030775939.3575	-944030775939.2458	-944030775939.688	-944030775939.2034	-944030775939.2505	-944030775939.1165	-944030775939.5902	-944030775939.8228	-944030775939.1522	-944030775939.562	-944030775939.7748
emotions	-1562789048379.1367	-1562789048378.8118	-1562789048378.8723	-1562789048378.5752	-1562789048378.7275	-1562789048378.9072	-1562789048379.0444	-1562789048378.9597	-1562789048379.3374	-1562789048378.9956	-1562789048379.0728	-1562789048379.0833	-1562789048378.7563	-1562789048378.934	-1562789048378.9956
combined	-575078628050.1737	-575078628050.1533	-575078628049.9613	-575078628050.5844	-575078628050.2207	-575078628050.6548	-575078628050.3528	-575078628050.1958	-575078628050.338	-575078628049.9746	-575078628049.9285	-575078628049.9783	-575078628050.0508	-575078628050.0889	-575078628050.2166
understanding	-740637768900.31	-740637768900.0981	-740637768899.9651	-740637768900.0427	-740637768900.286	-740637768900.3738	-740637768899.5125	-740637768900.3328	-740637768900.1897	-740637768900.1982	-740637768899.9456	-740637768899.9415	-740637768900.1792	-740637768899.9679	-740637768900.4113
her	-8526448537060.32	-8526448537060.326	-8526448537060.549	-8526448537060.074	-8526448537060.402	-8526448537059.8545	-8526448537059.8545	-8526448537060.262	-8526448537060.345	-8526448537059.918	-8526448537060.262	-8526448537060.182	-8526448537060.125	-8526448537060.051	-8526448537059.998
philosophical	-998424829274.1896	-998424829274.4297	-998424829274.5681	-998424829274.4639	-998424829274.0542	-998424829274.84	-998424829274.3557	-998424829274.4277	-998424829274.4037	-998424829274.4243	-998424829274.1688	-998424829274.4431	-998424829274.4539	-998424829274.5024	-998424829274.1385
message	-2301573569473.8857	-2301573569473.6787	-2301573569474.0996	-2301573569474.049	-2301573569474.2036	-2301573569474.206	-2301573569474.3896	-2301573569473.791	-2301573569473.6523	-2301573569474.168	-2301573569473.8486	-2301573569473.952	-2301573569474.0366	-2301573569474.209	-2301573569474.181
personal	-2206240010991.093	-2206240010991.259	-2206240010991.1924	-2206240010991.0776	-2206240010990.6787	-2206240010991.079	-2206240010990.99	-2206240010991.1226	-2206240010991.121	-2206240010991.051	-2206240010990.8438	-2206240010991.005	-2206240010990.8394	-2206240010990.79	-2206240010990.8794
freedom	-491915709288.14355	-491915709287.93164	-491915709288.21954	-491915709287.9695	-491915709288.5912	-491915709288.70654	-491915709288.2742	-491915709288.1673	-491915709288.0404	-491915709288.0122	-491915709288.4634	-491915709288.2661	-491915709288.05725	-491915709288.3777	-491915709288.2533
might	-7390141100700.785	-7390141100700.658	-7390141100700.794	-7390141100701.111	-7390141100700.954	-7390141100700.936	-7390141100700.789	-7390141100700.549	-7390141100700.945	-7390141100700.574	-7390141100701.004	-7390141100700.557	-7390141100700.725	-7390141100700.818	-7390141100701.277
as	-71898490278531.53	-71898490278531.78	-71898490278531.84	-71898490278531.73	-71898490278531.81	-71898490278531.88	-71898490278532.03	-71898490278531.78	-71898490278531.78	-71898490278531.31	-71898490278531.97	-71898490278532.16	-71898490278532.06	-71898490278531.88	-71898490278531.52
absorbing	-1093005708505.081	-1093005708505.1584	-1093005708505.2263	-1093005708504.9679	-1093005708504.6633	-1093005708504.9537	-1093005708504.8303	-1093005708505.3853	-1093005708504.9869	-1093005708504.7854	-1093005708504.7987	-1093005708505.3457	-1093005708505.0769	-1093005708505.2393	-1093005708504.8918
character	-7463427053121.628	-7463427053122.32	-7463427053122.203	-7463427053122.299	-7463427053122.053	-7463427053122.217	-7463427053122.316	-7463427053122.064	-7463427053122.081	-7463427053122.313	-7463427053122.073	-7463427053122.309	-7463427053122.055	-7463427053122.108	-7463427053122.064
study	-3361330242759.5527	-3361330242759.157	-3361330242759.5767	-3361330242759.752	-3361330242759.246	-3361330242759.8066	-3361330242759.6016	-3361330242759.7812	-3361330242759.6953	-3361330242759.5483	-3361330242759.699	-3361330242759.6157	-3361330242759.609	-3361330242759.5127	-3361330242759.711
if	-17894415150070.14	-17894415150070.0	-17894415150069.984	-17894415150070.17	-17894415150069.973	-17894415150069.906	-17894415150069.453	-17894415150069.94	-17894415150069.805	-17894415150069.914	-17894415150069.992	-17894415150069.94	-17894415150069.688	-17894415150069.98	-17894415150069.9
love	-11123955200493.652	-11123955200493.51	-11123955200493.572	-11123955200493.986	-11123955200493.842	-11123955200494.262	-11123955200494.13	-11123955200493.906	-11123955200493.88	-11123955200493.922	-11123955200493.943	-11123955200493.621	-11123955200493.79	-11123955200493.918	-11123955200493.826
reading	-710417768939.97	-710417768940.3772	-710417768939.9438	-710417768940.0073	-710417768940.0874	-710417768939.9438	-710417768939.7429	-710417768940.0082	-710417768940.1288	-710417768940.0576	-710417768939.5756	-710417768939.7983	-710417768939.9226	-710417768939.8076	-710417768940.1627
poetry	-1244192752685.4229	-1244192752685.5186	-1244192752684.979	-1244192752685.3882	-1244192752685.2188	-1244192752685.0493	-1244192752685.0159	-1244192752684.8342	-1244192752685.1333	-1244192752685.2095	-1244192752684.8232	-1244192752685.3066	-1244192752685.0166	-1244192752685.102	-1244192752685.2737
then	-5301888002202.869	-5301888002202.378	-5301888002202.807	-5301888002202.421	-5301888002202.812	-5301888002203.047	-5301888002202.613	-5301888002202.787	-5301888002202.784	-5301888002202.473	-5301888002202.777	-5301888002203.15	-5301888002202.551	-5301888002202.712	-5301888002202.629
all	-26942609482010.23	-26942609482010.414	-26942609482010.453	-26942609482010.375	-26942609482009.887	-26942609482010.094	-26942609482010.07	-26942609482010.008	-26942609482010.453	-26942609482009.82	-26942609482010.234	-26942609482009.785	-26942609482010.227	-26942609482010.125	-26942609482010.188
means	-1341570931787.6162	-1341570931787.5535	-1341570931787.9355	-1341570931787.3672	-1341570931787.23	-1341570931787.7295	-1341570931787.5952	-1341570931787.5562	-1341570931787.5361	-1341570931787.837	-1341570931787.4888	-1341570931787.6973	-1341570931787.6099	-1341570931787.6006	-1341570931787.647
check	-917131043259.1299	-917131043259.4512	-917131043258.9875	-917131043259.0073	-917131043259.2744	-917131043258.8369	-917131043259.1941	-917131043258.9705	-917131043259.1897	-917131043259.1399	-917131043258.7126	-917131043258.8049	-917131043259.3901	-917131043258.9697	-917131043259.2153
'll	-6066282334829.291	-6066282334829.223	-6066282334829.322	-6066282334829.084	-6066282334828.896	-6066282334829.494	-6066282334829.231	-6066282334829.346	-6066282334829.141	-6066282334829.406	-6066282334829.008	-6066282334829.223	-6066282334829.1045	-6066282334829.18	-6066282334829.287
probably	-4204297828485.108	-4204297828485.1055	-4204297828484.916	-4204297828484.9697	-4204297828485.3315	-4204297828485.0767	-4204297828485.3584	-4204297828485.2866	-4204297828485.5234	-4204297828485.297	-4204297828484.9727	-4204297828485.0137	-4204297828484.8975	-4204297828485.2227	-4204297828485.2544
frailty	-577478848319.7129	-577478848319.6344	-577478848319.3889	-577478848319.7871	-577478848319.8859	-577478848319.4688	-577478848319.9194	-577478848319.5227	-577478848319.8121	-577478848319.939	-577478848319.5023	-577478848319.6167	-577478848319.6733	-577478848319.747	-577478848319.9485
has	-31262661406269.887	-31262661406270.344	-31262661406270.625	-31262661406269.96	-31262661406270.156	-31262661406270.594	-31262661406270.266	-31262661406270.387	-31262661406270.203	-31262661406270.57	-31262661406270.22	-31262661406269.875	-31262661406270.17	-31262661406270.17	-31262661406270.336
been	-13567020575919.957	-13567020575920.377	-13567020575919.916	-13567020575920.129	-13567020575920.37	-13567020575920.197	-13567020575920.006	-13567020575920.303	-13567020575920.314	-13567020575919.975	-13567020575919.91	-13567020575919.883	-13567020575919.766	-13567020575920.05	-13567020575919.826
written	-2230137884947.64	-2230137884947.593	-2230137884947.2827	-2230137884947.3965	-2230137884947.4	-2230137884947.595	-2230137884947.079	-2230137884947.248	-2230137884947.5967	-2230137884947.183	-2230137884947.5317	-2230137884947.2593	-2230137884947.388	-2230137884947.5596	-2230137884947.347
well	-10096342453579.43	-10096342453579.602	-10096342453579.316	-10096342453579.918	-10096342453579.545	-10096342453579.75	-10096342453579.117	-10096342453579.607	-10096342453579.348	-10096342453579.29	-10096342453579.512	-10096342453579.908	-10096342453579.387	-10096342453579.156	-10096342453579.77
simple	-2079087544778.8726	-2079087544779.0303	-2079087544778.9548	-2079087544778.9294	-2079087544778.8813	-2079087544779.3286	-2079087544778.8384	-2079087544779.1187	-2079087544779.291	-2079087544779.114	-2079087544778.9082	-2079087544778.9526	-2079087544779.2402	-2079087544779.2188	-2079087544778.8374
!	-2332723863759.5127	-2332723863759.563	-2332723863759.3213	-2332723863759.193	-2332723863759.214	-2332723863759.24	-2332723863759.1743	-2332723863759.7095	-2332723863759.4785	-2332723863759.0054	-2332723863759.2603	-2332723863759.105	-2332723863759.6904	-2332723863759.1636	-2332723863759.1865
near	-1229302017527.8364	-1229302017528.0012	-1229302017528.0264	-1229302017528.3406	-1229302017527.7654	-1229302017527.7827	-1229302017528.2285	-1229302017527.9956	-1229302017528.0125	-1229302017528.1992	-1229302017527.732	-1229302017528.088	-1229302017527.9014	-1229302017528.1	-1229302017528.2852
end	-7000530193327.297	-7000530193327.26	-7000530193327.209	-7000530193326.898	-7000530193327.518	-7000530193327.053	-7000530193327.111	-7000530193326.991	-7000530193327.518	-7000530193327.613	-7000530193327.494	-7000530193327.524	-7000530193327.585	-7000530193327.367	-7000530193327.562
takes	-4984556454817.487	-4984556454817.666	-4984556454818.141	-4984556454817.633	-4984556454817.378	-4984556454817.477	-4984556454817.35	-4984556454817.834	-4984556454817.283	-4984556454817.873	-4984556454818.059	-4984556454817.918	-4984556454817.837	-4984556454818.121	-4984556454817.494
meaning	-1027199361201.3265	-1027199361201.7787	-1027199361201.572	-1027199361201.4917	-1027199361201.5574	-1027199361201.5145	-1027199361201.4387	-1027199361201.7593	-1027199361201.8071	-1027199361201.3787	-1027199361201.6703	-1027199361201.5509	-1027199361201.3473	-1027199361201.435	-1027199361201.8416
bringing	-733019282448.1501	-733019282448.3633	-733019282448.1089	-733019282447.9718	-733019282448.4229	-733019282447.988	-733019282448.1152	-733019282448.2911	-733019282448.0647	-733019282447.9738	-733019282448.4167	-733019282448.2473	-733019282448.0974	-733019282448.0979	-733019282447.8229
unforced	-616669745982.1562	-616669745982.1624	-616669745982.3809	-616669745982.2808	-616669745982.1519	-616669745982.2532	-616669745981.9827	-616669745981.8625	-616669745982.0918	-616669745981.6643	-616669745982.2368	-616669745981.9078	-616669745982.0	-616669745982.0056	-616669745981.8566
delivery	-1174336182354.016	-1174336182353.877	-1174336182354.2195	-1174336182353.9028	-1174336182353.8477	-1174336182353.999	-1174336182354.2517	-1174336182353.9272	-1174336182353.7656	-1174336182354.019	-1174336182353.858	-1174336182353.9531	-1174336182353.9717	-1174336182353.5496	-1174336182354.2253
toback	-515464416530.74866	-515464416530.96924	-515464416531.4244	-515464416531.3739	-515464416531.18555	-515464416531.3155	-515464416531.0469	-515464416531.01556	-515464416531.40186	-515464416531.23193	-515464416530.92163	-515464416530.9813	-515464416531.2384	-515464416531.42737	-515464416531.49164
-	-9216215350762.234	-9216215350762.426	-9216215350762.047	-9216215350762.38	-9216215350762.262	-9216215350761.879	-9216215350762.355	-9216215350762.227	-9216215350762.36	-9216215350762.713	-9216215350762.072	-9216215350761.928	-9216215350762.293	-9216215350762.188	-9216215350762.098
film	-68493161354397.7	-68493161354397.586	-68493161354398.28	-68493161354397.92	-68493161354397.94	-68493161354397.875	-68493161354397.86	-68493161354397.766	-68493161354397.47	-68493161354397.89	-68493161354397.75	-68493161354397.6	-68493161354397.984	-68493161354398.15	-68493161354398.11
festival	-1513326837084.961	-1513326837085.0542	-1513326837085.2124	-1513326837084.6138	-1513326837085.1206	-1513326837085.0752	-1513326837084.9966	-1513326837085.3389	-1513326837085.4646	-1513326837085.336	-1513326837085.0664	-1513326837084.94	-1513326837084.7012	-1513326837084.9204	-1513326837084.9482
become	-3437157037668.4653	-3437157037668.5435	-3437157037668.2754	-3437157037668.7285	-3437157037668.5044	-3437157037668.2344	-3437157037668.5107	-3437157037668.407	-3437157037668.4546	-3437157037668.2705	-3437157037668.8438	-3437157037668.7305	-3437157037668.778	-3437157037668.773	-3437157037668.8716
fans	-3825597650558.5938	-3825597650558.346	-3825597650558.587	-3825597650558.442	-3825597650558.737	-3825597650558.112	-3825597650558.3486	-3825597650558.2646	-3825597650558.2764	-3825597650558.3516	-3825597650558.2666	-3825597650558.1104	-3825597650558.1797	-3825597650558.5117	-3825597650558.8115
upon	-1835563312662.5833	-1835563312662.75	-1835563312662.9136	-1835563312662.775	-1835563312662.936	-1835563312662.6743	-1835563312662.3682	-1835563312663.0762	-1835563312662.4102	-1835563312662.4717	-1835563312663.0173	-1835563312662.563	-1835563312662.968	-1835563312662.595	-1835563312662.851
each	-3826113391873.176	-3826113391873.1133	-3826113391872.5894	-3826113391872.676	-3826113391872.9673	-3826113391872.8906	-3826113391872.7275	-3826113391872.709	-3826113391872.8896	-3826113391872.935	-3826113391873.116	-3826113391872.916	-3826113391872.7754	-3826113391873.178	-3826113391873.01
next	-3264480537942.05	-3264480537941.93	-3264480537941.909	-3264480537941.6777	-3264480537941.882	-3264480537942.068	-3264480537941.941	-3264480537941.994	-3264480537941.9766	-3264480537941.7236	-3264480537942.0146	-3264480537941.6387	-3264480537942.069	-3264480537942.0137	-3264480537942.452
great	-9608843813056.648	-9608843813056.496	-9608843813056.775	-9608843813056.584	-9608843813056.324	-9608843813056.852	-9608843813056.504	-9608843813056.451	-9608843813056.668	-9608843813056.5	-9608843813056.21	-9608843813056.674	-9608843813056.285	-9608843813056.41	-9608843813056.312
thing	-7869211726677.923	-7869211726678.044	-7869211726677.727	-7869211726678.328	-7869211726677.9	-7869211726678.504	-7869211726677.941	-7869211726677.942	-7869211726677.733	-7869211726677.945	-7869211726678.151	-7869211726677.976	-7869211726677.907	-7869211726677.805	-7869211726678.076
`	-17876193192333.695	-17876193192334.086	-17876193192333.484	-17876193192333.727	-17876193192334.133	-17876193192333.94	-17876193192333.445	-17876193192334.08	-17876193192333.734	-17876193192333.414	-17876193192333.65	-17876193192333.707	-17876193192333.79	-17876193192333.6	-17876193192333.625
'	-24594446114687.984	-24594446114688.492	-24594446114688.2	-24594446114688.203	-24594446114688.21	-24594446114688.633	-24594446114688.027	-24594446114688.277	-24594446114688.094	-24594446114688.574	-24594446114688.15	-24594446114688.17	-24594446114688.31	-24594446114688.43	-24594446114687.863
was	-13481945195921.762	-13481945195921.785	-13481945195921.904	-13481945195922.121	-13481945195921.994	-13481945195921.645	-13481945195921.824	-13481945195922.008	-13481945195922.066	-13481945195922.293	-13481945195921.99	-13481945195921.99	-13481945195922.234	-13481945195922.307	-13481945195921.668
one	-36661949807143.9	-36661949807144.0	-36661949807144.08	-36661949807144.25	-36661949807143.68	-36661949807144.08	-36661949807143.89	-36661949807143.71	-36661949807144.07	-36661949807144.36	-36661949807144.086	-36661949807143.61	-36661949807143.91	-36661949807143.73	-36661949807143.74
films	-9820854972500.916	-9820854972500.764	-9820854972500.473	-9820854972501.102	-9820854972500.828	-9820854972500.992	-9820854972500.55	-9820854972500.219	-9820854972501.105	-9820854972500.6	-9820854972500.791	-9820854972500.318	-9820854972500.795	-9820854972500.89	-9820854972500.68
year	-5189252623164.631	-5189252623164.387	-5189252623164.631	-5189252623164.371	-5189252623164.711	-5189252623164.688	-5189252623164.423	-5189252623164.529	-5189252623164.8125	-5189252623164.592	-5189252623164.529	-5189252623164.352	-5189252623164.631	-5189252623164.998	-5189252623164.455
really	-12308838074238.21	-12308838074238.27	-12308838074238.018	-12308838074237.768	-12308838074237.867	-12308838074238.4	-12308838074238.438	-12308838074237.92	-12308838074238.305	-12308838074237.842	-12308838074238.047	-12308838074238.027	-12308838074238.16	-12308838074238.316	-12308838074238.121
pretty	-5236690617109.684	-5236690617109.598	-5236690617110.46	-5236690617110.142	-5236690617109.719	-5236690617109.772	-5236690617109.719	-5236690617109.976	-5236690617110.189	-5236690617109.971	-5236690617109.778	-5236690617109.886	-5236690617110.389	-5236690617109.931	-5236690617110.31
actors	-6066539440479.973	-6066539440479.771	-6066539440480.322	-6066539440479.889	-6066539440480.283	-6066539440480.163	-6066539440479.678	-6066539440480.515	-6066539440480.398	-6066539440480.119	-6066539440480.17	-6066539440480.18	-6066539440479.857	-6066539440480.416	-6066539440480.086
fantastic	-1116797330374.3691	-1116797330373.9688	-1116797330374.399	-1116797330374.3843	-1116797330374.3032	-1116797330374.247	-1116797330374.1316	-1116797330374.0977	-1116797330374.1958	-1116797330374.5872	-1116797330374.258	-1116797330373.8435	-1116797330374.3337	-1116797330374.182	-1116797330374.1309
they	-16146879578003.246	-16146879578003.715	-16146879578003.781	-16146879578003.559	-16146879578003.094	-16146879578003.398	-16146879578003.242	-16146879578003.41	-16146879578003.05	-16146879578003.428	-16146879578003.25	-16146879578003.434	-16146879578003.164	-16146879578003.5	-16146879578003.79
what	-22144396141592.477	-22144396141592.336	-22144396141592.336	-22144396141592.793	-22144396141592.754	-22144396141592.676	-22144396141592.33	-22144396141592.48	-22144396141592.434	-22144396141593.0	-22144396141592.63	-22144396141592.375	-22144396141592.727	-22144396141592.61	-22144396141592.895
makes	-14301140326169.559	-14301140326169.773	-14301140326169.676	-14301140326169.873	-14301140326170.008	-14301140326169.613	-14301140326169.87	-14301140326170.086	-14301140326169.488	-14301140326169.887	-14301140326169.799	-14301140326170.309	-14301140326170.053	-14301140326169.75	-14301140326170.303
worth	-7142816022598.244	-7142816022598.008	-7142816022598.357	-7142816022598.088	-7142816022598.223	-7142816022598.048	-7142816022598.468	-7142816022598.492	-7142816022598.156	-7142816022598.3955	-7142816022598.391	-7142816022598.102	-7142816022598.123	-7142816022598.125	-7142816022598.049
trip	-1459829739144.0664	-1459829739143.9136	-1459829739144.0713	-1459829739144.0986	-1459829739143.8442	-1459829739143.8364	-1459829739143.6682	-1459829739144.1086	-1459829739143.3682	-1459829739143.4072	-1459829739143.8696	-1459829739143.4656	-1459829739143.3335	-1459829739144.0103	-1459829739143.9624
theatre	-1031555381378.0006	-1031555381377.5419	-1031555381377.7842	-1031555381377.7854	-1031555381377.8933	-1031555381377.5583	-1031555381377.9534	-1031555381377.8606	-1031555381377.5411	-1031555381377.7632	-1031555381377.4224	-1031555381377.6511	-1031555381377.8301	-1031555381377.5876	-1031555381377.7759
-lrb-	-22045234530020.734	-22045234530020.387	-22045234530020.516	-22045234530020.3	-22045234530020.477	-22045234530020.523	-22045234530020.773	-22045234530020.76	-22045234530020.164	-22045234530020.207	-22045234530020.613	-22045234530020.68	-22045234530020.4	-22045234530020.47	-22045234530020.492
-rrb-	-29323633843537.29	-29323633843537.35	-29323633843537.598	-29323633843537.39	-29323633843537.297	-29323633843537.26	-29323633843537.473	-29323633843537.32	-29323633843537.336	-29323633843537.28	-29323633843537.3	-29323633843537.63	-29323633843536.92	-29323633843537.156	-29323633843537.332
idea	-4890336946330.102	-4890336946330.115	-4890336946330.081	-4890336946330.216	-4890336946330.154	-4890336946330.069	-4890336946330.1875	-4890336946330.426	-4890336946329.756	-4890336946330.254	-4890336946330.187	-4890336946330.467	-4890336946329.859	-4890336946330.414	-4890336946330.13
making	-6421916145461.745	-6421916145461.748	-6421916145461.822	-6421916145461.724	-6421916145461.154	-6421916145461.604	-6421916145461.424	-6421916145461.749	-6421916145461.949	-6421916145461.451	-6421916145461.766	-6421916145461.506	-6421916145461.414	-6421916145461.352	-6421916145461.76
kahlo	-593745247718.3728	-593745247718.5942	-593745247718.2664	-593745247718.3136	-593745247718.0276	-593745247718.209	-593745247718.3955	-593745247718.4387	-593745247718.2651	-593745247718.0854	-593745247718.5769	-593745247718.4513	-593745247718.341	-593745247718.279	-593745247718.4318
art	-4872315410606.086	-4872315410606.137	-4872315410605.537	-4872315410605.449	-4872315410605.973	-4872315410606.228	-4872315410605.771	-4872315410606.086	-4872315410605.984	-4872315410605.399	-4872315410606.069	-4872315410605.96	-4872315410606.182	-4872315410605.668	-4872315410605.674
living	-1670086038822.022	-1670086038821.7258	-1670086038822.166	-1670086038821.8452	-1670086038822.355	-1670086038821.9697	-1670086038822.29	-1670086038822.2476	-1670086038821.8567	-1670086038821.8755	-1670086038821.966	-1670086038821.8882	-1670086038822.061	-1670086038822.0142	-1670086038822.034
movie	-68764163208253.914	-68764163208254.04	-68764163208254.33	-68764163208253.63	-68764163208253.83	-68764163208254.0	-68764163208253.95	-68764163208253.984	-68764163208254.016	-68764163208253.875	-68764163208253.94	-68764163208253.734	-68764163208253.875	-68764163208254.35	-68764163208254.03
often	-9280097289146.072	-9280097289146.076	-9280097289146.344	-9280097289146.271	-9280097289145.857	-9280097289145.7	-9280097289145.914	-9280097289145.758	-9280097289146.156	-9280097289145.818	-9280097289145.627	-9280097289145.885	-9280097289146.066	-9280097289146.244	-9280097289145.834
artist	-2352280573127.1475	-2352280573127.4683	-2352280573127.154	-2352280573127.249	-2352280573127.199	-2352280573127.6167	-2352280573127.3457	-2352280573127.034	-2352280573127.175	-2352280573127.545	-2352280573127.4434	-2352280573127.0264	-2352280573127.3643	-2352280573126.959	-2352280573127.198
into	-25683901722183.97	-25683901722184.41	-25683901722183.926	-25683901722184.367	-25683901722183.707	-25683901722184.008	-25683901722184.164	-25683901722184.008	-25683901722184.438	-25683901722183.99	-25683901722184.312	-25683901722183.812	-25683901722184.074	-25683901722183.887	-25683901722184.094
own	-11626516075650.027	-11626516075650.143	-11626516075650.123	-11626516075650.312	-11626516075650.027	-11626516075650.031	-11626516075649.898	-11626516075650.467	-11626516075649.941	-11626516075650.516	-11626516075650.047	-11626516075649.992	-11626516075650.008	-11626516075650.045	-11626516075649.967
work	-14044014639713.043	-14044014639713.102	-14044014639712.912	-14044014639713.006	-14044014639713.027	-14044014639713.172	-14044014639713.229	-14044014639712.809	-14044014639713.307	-14044014639713.113	-14044014639713.242	-14044014639713.219	-14044014639712.926	-14044014639713.076	-14044014639713.06
n't	-62207493850178.734	-62207493850179.05	-62207493850178.92	-62207493850178.94	-62207493850179.32	-62207493850179.125	-62207493850179.09	-62207493850179.19	-62207493850179.28	-62207493850178.7	-62207493850178.89	-62207493850178.9	-62207493850178.89	-62207493850179.17	-62207493850179.305
done	-4765218647886.722	-4765218647886.775	-4765218647886.657	-4765218647886.619	-4765218647886.231	-4765218647886.542	-4765218647886.734	-4765218647886.721	-4765218647886.54	-4765218647886.346	-4765218647886.549	-4765218647886.191	-4765218647886.466	-4765218647886.575	-4765218647886.438
before	-7379604537287.758	-7379604537287.627	-7379604537287.221	-7379604537287.242	-7379604537287.27	-7379604537287.525	-7379604537287.506	-7379604537287.6	-7379604537287.391	-7379604537286.969	-7379604537287.621	-7379604537287.309	-7379604537287.498	-7379604537287.639	-7379604537287.609
never	-18566357362342.883	-18566357362342.89	-18566357362343.15	-18566357362343.18	-18566357362343.117	-18566357362343.266	-18566357362343.32	-18566357362342.86	-18566357362343.24	-18566357362343.29	-18566357362343.04	-18566357362343.062	-18566357362343.258	-18566357362343.176	-18566357362343.152
vividly	-1311726271349.8774	-1311726271349.795	-1311726271349.9746	-1311726271350.0862	-1311726271350.4224	-1311726271350.2188	-1311726271349.7295	-1311726271349.7974	-1311726271349.6885	-1311726271349.9692	-1311726271349.7244	-1311726271349.5972	-1311726271349.8118	-1311726271350.0557	-1311726271349.9895
much	-23895863255420.633	-23895863255420.395	-23895863255420.71	-23895863255420.168	-23895863255420.33	-23895863255420.59	-23895863255420.586	-23895863255420.754	-23895863255420.594	-23895863255420.438	-23895863255420.707	-23895863255420.348	-23895863255420.406	-23895863255420.42	-23895863255420.53
passion	-2990807649671.591	-2990807649670.913	-2990807649670.7485	-2990807649671.454	-2990807649670.8545	-2990807649671.254	-2990807649671.1846	-2990807649671.1943	-2990807649671.326	-2990807649670.892	-2990807649671.2754	-2990807649671.041	-2990807649671.0117	-2990807649671.1963	-2990807649671.252
take	-8343305373096.898	-8343305373096.875	-8343305373096.396	-8343305373096.492	-8343305373096.569	-8343305373096.543	-8343305373096.736	-8343305373096.816	-8343305373096.807	-8343305373096.611	-8343305373096.607	-8343305373096.83	-8343305373096.682	-8343305373096.795	-8343305373096.926
care	-5337282348358.236	-5337282348357.864	-5337282348357.845	-5337282348357.6	-5337282348357.834	-5337282348357.997	-5337282348357.853	-5337282348357.852	-5337282348358.068	-5337282348358.147	-5337282348358.005	-5337282348358.286	-5337282348358.249	-5337282348357.762	-5337282348358.032
my	-7653518385554.269	-7653518385553.602	-7653518385554.119	-7653518385553.874	-7653518385553.898	-7653518385553.832	-7653518385553.916	-7653518385553.955	-7653518385553.797	-7653518385553.661	-7653518385553.762	-7653518385553.854	-7653518385553.609	-7653518385554.041	-7653518385554.306
cat	-767552998416.022	-767552998416.1215	-767552998416.2155	-767552998416.4001	-767552998415.7761	-767552998415.9762	-767552998415.6387	-767552998415.9843	-767552998416.1038	-767552998415.9232	-767552998416.0458	-767552998415.9337	-767552998416.0623	-767552998416.031	-767552998416.019
honestly	-1067824763443.8541	-1067824763443.5472	-1067824763443.8187	-1067824763443.5453	-1067824763443.5015	-1067824763443.8677	-1067824763443.744	-1067824763443.977	-1067824763443.9202	-1067824763443.8634	-1067824763443.7793	-1067824763443.7513	-1067824763444.042	-1067824763443.456	-1067824763444.0082
nice	-2762741183885.925	-2762741183885.5957	-2762741183885.613	-2762741183886.001	-2762741183886.035	-2762741183885.5625	-2762741183885.8535	-2762741183885.605	-2762741183885.6885	-2762741183885.662	-2762741183885.9443	-2762741183886.1973	-2762741183885.658	-2762741183885.996	-2762741183885.5283
little	-20570992509245.723	-20570992509245.53	-20570992509245.58	-20570992509245.547	-20570992509245.594	-20570992509245.62	-20570992509245.38	-20570992509245.445	-20570992509245.133	-20570992509245.4	-20570992509245.36	-20570992509245.54	-20570992509245.56	-20570992509245.37	-20570992509245.535
us	-16786043866122.633	-16786043866122.428	-16786043866121.9	-16786043866122.055	-16786043866122.605	-16786043866122.2	-16786043866122.492	-16786043866122.195	-16786043866122.049	-16786043866122.336	-16786043866122.504	-16786043866122.348	-16786043866121.83	-16786043866121.941	-16786043866122.184
examination	-2676837564833.6787	-2676837564834.322	-2676837564834.202	-2676837564834.09	-2676837564834.355	-2676837564834.1123	-2676837564833.7197	-2676837564834.268	-2676837564833.8994	-2676837564834.2734	-2676837564833.8594	-2676837564833.843	-2676837564833.9893	-2676837564834.188	-2676837564833.8057
young	-7478669088343.105	-7478669088343.043	-7478669088343.334	-7478669088343.145	-7478669088342.946	-7478669088343.233	-7478669088343.02	-7478669088343.057	-7478669088343.338	-7478669088343.516	-7478669088343.497	-7478669088343.039	-7478669088343.398	-7478669088343.158	-7478669088342.834
adult	-1457709112094.4897	-1457709112094.4233	-1457709112094.5952	-1457709112094.3806	-1457709112094.2363	-1457709112094.187	-1457709112094.1213	-1457709112094.6907	-1457709112094.7512	-1457709112094.2559	-1457709112094.569	-1457709112094.6958	-1457709112094.0503	-1457709112094.8481	-1457709112094.3271
life	-13829554257310.0	-13829554257310.076	-13829554257310.16	-13829554257309.855	-13829554257310.34	-13829554257309.883	-13829554257310.176	-13829554257309.695	-13829554257310.314	-13829554257309.77	-13829554257309.883	-13829554257309.723	-13829554257310.14	-13829554257310.32	-13829554257310.172
urban	-2017957793167.9854	-2017957793168.4436	-2017957793168.0493	-2017957793168.5	-2017957793168.2974	-2017957793168.7964	-2017957793168.0337	-2017957793168.148	-2017957793168.0122	-2017957793168.3816	-2017957793168.4512	-2017957793168.304	-2017957793168.6052	-2017957793168.3088	-2017957793168.2793
south	-1537910024745.708	-1537910024745.5718	-1537910024745.8325	-1537910024746.0608	-1537910024745.457	-1537910024746.1562	-1537910024745.838	-1537910024745.561	-1537910024745.8027	-1537910024745.5063	-1537910024746.0474	-1537910024745.8193	-1537910024746.1636	-1537910024745.9968	-1537910024745.9773
korea	-658110864167.9318	-658110864167.9949	-658110864167.9735	-658110864168.4048	-658110864168.1099	-658110864167.8918	-658110864168.3342	-658110864167.9623	-658110864168.3328	-658110864167.9729	-658110864167.9299	-658110864168.0013	-658110864167.9266	-658110864168.0664	-658110864167.9218
through	-14131643491229.758	-14131643491229.93	-14131643491229.969	-14131643491229.861	-14131643491229.674	-14131643491229.86	-14131643491229.543	-14131643491229.656	-14131643491230.305	-14131643491230.059	-14131643491230.336	-14131643491229.848	-14131643491230.074	-14131643491230.043	-14131643491229.77
minds	-837497949561.7936	-837497949561.7072	-837497949561.9938	-837497949561.655	-837497949561.9814	-837497949562.062	-837497949562.2177	-837497949562.2782	-837497949562.2633	-837497949561.8398	-837497949562.1086	-837497949561.8005	-837497949561.7491	-837497949562.1694	-837497949561.937
five	-2139553596713.917	-2139553596714.0142	-2139553596714.0596	-2139553596713.969	-2139553596714.186	-2139553596713.8354	-2139553596713.5813	-2139553596714.058	-2139553596714.0957	-2139553596713.766	-2139553596713.6272	-2139553596714.0474	-2139553596713.955	-2139553596713.9397	-2139553596713.6292
life-affirming	-1001042160412.3685	-1001042160412.3276	-1001042160412.3987	-1001042160412.0227	-1001042160411.8098	-1001042160412.1665	-1001042160412.3765	-1001042160412.3232	-1001042160412.6514	-1001042160411.9944	-1001042160412.2637	-1001042160412.4385	-1001042160412.3748	-1001042160412.2339	-1001042160412.6104
its	-83475537888041.56	-83475537888041.53	-83475537888041.94	-83475537888042.0	-83475537888041.45	-83475537888041.56	-83475537888041.53	-83475537888041.53	-83475537888041.61	-83475537888041.9	-83475537888041.27	-83475537888041.75	-83475537888041.67	-83475537888041.64	-83475537888041.75
vulgar	-1362565533258.725	-1362565533258.8906	-1362565533259.101	-1362565533258.609	-1362565533259.128	-1362565533258.9863	-1362565533259.0767	-1362565533258.7656	-1362565533258.5688	-1362565533258.625	-1362565533258.6226	-1362565533258.7515	-1362565533258.8252	-1362565533259.0034	-1362565533259.1404
mean	-2363968814427.413	-2363968814426.9824	-2363968814426.799	-2363968814426.7285	-2363968814426.989	-2363968814427.057	-2363968814426.8535	-2363968814426.607	-2363968814426.945	-2363968814427.042	-2363968814427.188	-2363968814426.9863	-2363968814427.0312	-2363968814426.947	-2363968814426.897
i	-32005478791903.188	-32005478791903.39	-32005478791903.508	-32005478791903.574	-32005478791903.35	-32005478791903.22	-32005478791903.195	-32005478791902.996	-32005478791903.016	-32005478791903.46	-32005478791903.22	-32005478791903.656	-32005478791902.984	-32005478791902.793	-32005478791903.12
liked	-1790545798678.5176	-1790545798678.3555	-1790545798678.274	-1790545798678.4675	-1790545798678.1926	-1790545798678.3357	-1790545798678.3555	-1790545798678.4844	-1790545798678.6216	-1790545798678.4414	-1790545798678.5073	-1790545798678.404	-1790545798678.4727	-1790545798678.3171	-1790545798678.473
empire	-920956627819.2847	-920956627819.3364	-920956627819.2751	-920956627819.0903	-920956627819.5144	-920956627819.4576	-920956627819.3308	-920956627818.8992	-920956627819.1306	-920956627819.4525	-920956627819.3235	-920956627819.2583	-920956627819.1993	-920956627819.384	-920956627819.178
lacks	-4614370726800.703	-4614370726800.572	-4614370726801.176	-4614370726800.756	-4614370726800.994	-4614370726800.709	-4614370726801.1875	-4614370726800.724	-4614370726800.826	-4614370726800.695	-4614370726800.711	-4614370726801.42	-4614370726800.997	-4614370726800.791	-4614370726800.987
depth	-2241596637418.1113	-2241596637418.292	-2241596637417.717	-2241596637418.093	-2241596637417.581	-2241596637417.8027	-2241596637417.987	-2241596637418.0396	-2241596637418.0044	-2241596637418.2773	-2241596637418.0454	-2241596637418.0894	-2241596637418.2905	-2241596637417.973	-2241596637417.6714
up	-28125055412160.53	-28125055412160.434	-28125055412160.31	-28125055412160.5	-28125055412160.258	-28125055412160.043	-28125055412160.297	-28125055412160.113	-28125055412160.344	-28125055412160.36	-28125055412160.44	-28125055412160.625	-28125055412160.47	-28125055412160.543	-28125055412160.39
heart	-8210594632933.968	-8210594632934.416	-8210594632934.264	-8210594632934.477	-8210594632934.195	-8210594632934.365	-8210594632934.149	-8210594632934.189	-8210594632934.273	-8210594632934.028	-8210594632934.144	-8210594632934.168	-8210594632934.256	-8210594632934.041	-8210594632934.361
silly	-5731263765796.486	-5731263765796.34	-5731263765796.504	-5731263765796.589	-5731263765796.686	-5731263765796.662	-5731263765796.41	-5731263765796.318	-5731263765796.393	-5731263765796.738	-5731263765796.354	-5731263765795.926	-5731263765796.403	-5731263765796.59	-5731263765796.461
photographed	-1009883633326.1489	-1009883633326.3987	-1009883633326.4832	-1009883633326.025	-1009883633326.2596	-1009883633326.1683	-1009883633326.4226	-1009883633326.5261	-1009883633326.1044	-1009883633326.367	-1009883633325.752	-1009883633325.93	-1009883633326.2233	-1009883633325.8486	-1009883633326.4272
rather	-9945470725514.719	-9945470725515.062	-9945470725515.186	-9945470725515.416	-9945470725515.133	-9945470725514.768	-9945470725514.738	-9945470725515.164	-9945470725515.117	-9945470725515.047	-9945470725514.742	-9945470725515.244	-9945470725515.258	-9945470725514.941	-9945470725514.89
time	-20746324420571.18	-20746324420571.254	-20746324420570.76	-20746324420571.53	-20746324420571.098	-20746324420571.39	-20746324420571.36	-20746324420571.285	-20746324420571.117	-20746324420571.125	-20746324420571.098	-20746324420570.93	-20746324420570.766	-20746324420571.164	-20746324420571.53
always	-6320214874842.297	-6320214874842.32	-6320214874842.28	-6320214874842.0	-6320214874842.121	-6320214874842.383	-6320214874842.121	-6320214874841.963	-6320214874842.121	-6320214874841.734	-6320214874841.885	-6320214874841.757	-6320214874841.803	-6320214874842.021	-6320214874842.0625
most	-29198819147295.79	-29198819147295.76	-29198819147295.664	-29198819147295.33	-29198819147295.895	-29198819147295.613	-29198819147295.86	-29198819147295.79	-29198819147295.79	-29198819147295.86	-29198819147295.562	-29198819147295.816	-29198819147295.945	-29198819147295.53	-29198819147295.8
wilde	-1161027194658.6719	-1161027194658.5598	-1161027194658.7275	-1161027194659.103	-1161027194658.898	-1161027194659.046	-1161027194659.1665	-1161027194659.062	-1161027194658.755	-1161027194659.2107	-1161027194658.963	-1161027194659.246	-1161027194658.7349	-1161027194658.8035	-1161027194659.0464
droll	-774592431815.7004	-774592431816.0042	-774592431815.6262	-774592431815.9058	-774592431815.8508	-774592431816.2356	-774592431815.6343	-774592431816.4656	-774592431815.8564	-774592431815.57	-774592431816.3456	-774592431816.0781	-774592431815.9133	-774592431816.2805	-774592431815.7542
whimsy	-732138165776.4363	-732138165776.6122	-732138165776.3372	-732138165776.4125	-732138165775.9745	-732138165776.6937	-732138165776.4862	-732138165776.1003	-732138165776.1516	-732138165776.2009	-732138165776.5435	-732138165776.5728	-732138165776.6831	-732138165776.1958	-732138165776.5957
helps	-1131809735647.9336	-1131809735648.045	-1131809735647.5483	-1131809735647.519	-1131809735647.8708	-1131809735648.2407	-1131809735647.7922	-1131809735647.7268	-1131809735647.6218	-1131809735647.8103	-1131809735647.9321	-1131809735647.8523	-1131809735647.6602	-1131809735647.8032	-1131809735647.96
being	-13537220346251.504	-13537220346252.133	-13537220346251.934	-13537220346251.73	-13537220346252.035	-13537220346251.715	-13537220346251.998	-13537220346251.871	-13537220346251.707	-13537220346251.676	-13537220346251.75	-13537220346251.555	-13537220346251.996	-13537220346251.611	-13537220346251.615
earnest	-3414063559243.243	-3414063559242.828	-3414063559243.3496	-3414063559243.044	-3414063559242.996	-3414063559242.964	-3414063559242.6406	-3414063559243.1753	-3414063559243.136	-3414063559242.8584	-3414063559243.1436	-3414063559243.027	-3414063559243.023	-3414063559242.9155	-3414063559242.8486
overcome	-2199584898587.148	-2199584898586.6807	-2199584898586.6895	-2199584898587.132	-2199584898587.4814	-2199584898587.048	-2199584898587.392	-2199584898586.8213	-2199584898587.1494	-2199584898586.8687	-2199584898587.296	-2199584898586.7954	-2199584898587.2754	-2199584898587.11	-2199584898587.0986
parker	-1407973843766.5276	-1407973843766.7168	-1407973843766.826	-1407973843766.3198	-1407973843766.0784	-1407973843766.2803	-1407973843766.3662	-1407973843766.4844	-1407973843766.3687	-1407973843766.1562	-1407973843766.6433	-1407973843766.5977	-1407973843766.0605	-1407973843766.475	-1407973843766.5283
creative	-2843950106560.1025	-2843950106559.84	-2843950106559.8027	-2843950106559.981	-2843950106559.7104	-2843950106560.049	-2843950106560.302	-2843950106559.7188	-2843950106559.8623	-2843950106560.0254	-2843950106560.1494	-2843950106560.0127	-2843950106560.287	-2843950106560.217	-2843950106559.953
...	-43720827002869.375	-43720827002868.85	-43720827002869.16	-43720827002869.09	-43720827002868.836	-43720827002868.984	-43720827002869.06	-43720827002868.92	-43720827002869.09	-43720827002869.23	-43720827002869.086	-43720827002869.36	-43720827002869.336	-43720827002869.516	-43720827002869.61
lies	-1477602373302.1443	-1477602373302.3865	-1477602373301.7031	-1477602373302.0176	-1477602373301.9072	-1477602373301.7026	-1477602373302.0042	-1477602373302.094	-1477602373302.0566	-1477602373302.164	-1477602373301.9236	-1477602373302.0596	-1477602373301.915	-1477602373301.8386	-1477602373302.1174
utter	-1122335305868.672	-1122335305869.039	-1122335305868.9736	-1122335305868.9055	-1122335305869.2466	-1122335305869.117	-1122335305869.0808	-1122335305868.9	-1122335305869.3872	-1122335305869.2468	-1122335305869.128	-1122335305869.1467	-1122335305869.1025	-1122335305868.896	-1122335305868.7764
stuart	-1107126518037.9417	-1107126518038.2512	-1107126518038.4502	-1107126518038.3555	-1107126518038.505	-1107126518038.3	-1107126518038.1035	-1107126518038.1924	-1107126518038.2593	-1107126518037.9858	-1107126518038.0977	-1107126518038.0137	-1107126518038.2654	-1107126518038.1396	-1107126518038.2012
very	-22060450571432.414	-22060450571432.785	-22060450571432.945	-22060450571432.64	-22060450571432.875	-22060450571432.797	-22060450571432.89	-22060450571432.82	-22060450571432.664	-22060450571432.9	-22060450571432.438	-22060450571432.625	-22060450571432.617	-22060450571432.67	-22060450571432.992
path	-1092839774768.3047	-1092839774768.9365	-1092839774768.6854	-1092839774768.5181	-1092839774768.4606	-1092839774768.7297	-1092839774769.0377	-1092839774768.7744	-1092839774768.356	-1092839774768.7817	-1092839774768.5315	-1092839774768.2761	-1092839774768.6328	-1092839774768.7496	-1092839774768.8374
ice	-1863793819664.524	-1863793819664.0662	-1863793819664.218	-1863793819664.7075	-1863793819664.534	-1863793819664.2163	-1863793819664.2483	-1863793819664.3826	-1863793819664.2664	-1863793819664.2083	-1863793819664.3962	-1863793819664.3423	-1863793819664.6353	-1863793819664.6548	-1863793819664.3354
age	-2580822838349.772	-2580822838350.1367	-2580822838350.286	-2580822838349.9414	-2580822838350.24	-2580822838350.1523	-2580822838349.713	-2580822838350.2715	-2580822838350.045	-2580822838349.9365	-2580822838350.0312	-2580822838349.6123	-2580822838349.8906	-2580822838350.0137	-2580822838349.835
follows	-1316312545403.4966	-1316312545403.719	-1316312545403.5796	-1316312545403.3225	-1316312545403.5693	-1316312545403.734	-1316312545403.7861	-1316312545403.6997	-1316312545403.3442	-1316312545403.5146	-1316312545403.6062	-1316312545403.17	-1316312545403.0967	-1316312545403.2998	-1316312545403.016
closely	-1040172554769.748	-1040172554769.8542	-1040172554769.5913	-1040172554769.325	-1040172554769.4639	-1040172554769.7542	-1040172554769.281	-1040172554769.9019	-1040172554769.1924	-1040172554769.3989	-1040172554769.6963	-1040172554769.2335	-1040172554769.6873	-1040172554769.6299	-1040172554769.4033
though	-9721329687543.922	-9721329687543.8	-9721329687543.71	-9721329687544.248	-9721329687543.883	-9721329687543.844	-9721329687544.13	-9721329687543.996	-9721329687544.125	-9721329687543.91	-9721329687544.316	-9721329687543.938	-9721329687544.174	-9721329687543.998	-9721329687544.207
giant	-1364644550749.5432	-1364644550749.1995	-1364644550749.0027	-1364644550749.5547	-1364644550749.5305	-1364644550749.342	-1364644550749.563	-1364644550749.1196	-1364644550749.0889	-1364644550749.559	-1364644550749.644	-1364644550749.121	-1364644550749.3806	-1364644550749.266	-1364644550749.352
jones	-1147767376295.9185	-1147767376295.9014	-1147767376296.1348	-1147767376295.692	-1147767376296.1316	-1147767376295.812	-1147767376295.998	-1147767376295.8938	-1147767376296.0298	-1147767376296.4126	-1147767376296.422	-1147767376296.1624	-1147767376296.116	-1147767376295.8723	-1147767376295.9048
who	-35585017731653.94	-35585017731654.19	-35585017731653.62	-35585017731653.85	-35585017731653.984	-35585017731653.67	-35585017731653.79	-35585017731653.92	-35585017731653.75	-35585017731653.91	-35585017731653.79	-35585017731653.984	-35585017731653.59	-35585017731654.195	-35585017731653.83
matter	-7102606318353.574	-7102606318353.611	-7102606318353.461	-7102606318353.107	-7102606318353.128	-7102606318353.09	-7102606318352.871	-7102606318353.663	-7102606318353.529	-7102606318353.404	-7102606318353.445	-7102606318353.078	-7102606318353.17	-7102606318353.449	-7102606318352.904
weeks	-1014622913194.2195	-1014622913194.2626	-1014622913194.6334	-1014622913194.4952	-1014622913194.5422	-1014622913194.361	-1014622913194.0139	-1014622913194.522	-1014622913194.1357	-1014622913194.1327	-1014622913194.2662	-1014622913193.7539	-1014622913194.6389	-1014622913194.4183	-1014622913194.3197
release	-1781223097749.334	-1781223097749.3293	-1781223097749.1196	-1781223097748.9458	-1781223097749.1008	-1781223097748.9438	-1781223097748.857	-1781223097749.353	-1781223097749.064	-1781223097749.2358	-1781223097749.4478	-1781223097748.601	-1781223097748.8823	-1781223097749.1418	-1781223097749.2275
humor	-11071413997376.22	-11071413997376.041	-11071413997376.14	-11071413997376.285	-11071413997376.09	-11071413997376.035	-11071413997375.883	-11071413997376.104	-11071413997376.047	-11071413997376.527	-11071413997376.266	-11071413997376.326	-11071413997375.795	-11071413997375.926	-11071413997376.006
speak	-855832430609.7467	-855832430609.8848	-855832430610.0859	-855832430610.1582	-855832430610.2324	-855832430609.5139	-855832430610.1327	-855832430610.1005	-855832430610.1841	-855832430610.0571	-855832430610.1667	-855832430610.1895	-855832430609.9604	-855832430609.749	-855832430609.6458
after	-9935093357507.91	-9935093357507.494	-9935093357508.025	-9935093357507.86	-9935093357507.55	-9935093357507.479	-9935093357507.807	-9935093357507.39	-9935093357507.549	-9935093357507.39	-9935093357507.814	-9935093357507.904	-9935093357507.549	-9935093357507.516	-9935093357507.44
witty	-2607027714468.881	-2607027714468.7676	-2607027714469.3027	-2607027714469.004	-2607027714469.0664	-2607027714468.9717	-2607027714469.132	-2607027714469.218	-2607027714468.867	-2607027714468.7373	-2607027714469.0	-2607027714469.244	-2607027714469.012	-2607027714468.88	-2607027714469.134
silver	-1230049919903.1572	-1230049919903.3992	-1230049919903.5557	-1230049919903.1147	-1230049919903.576	-1230049919903.3315	-1230049919903.1548	-1230049919903.3535	-1230049919903.0806	-1230049919903.192	-1230049919903.3154	-1230049919903.175	-1230049919903.7798	-1230049919903.268	-1230049919903.6194
replaced	-1169372176727.9575	-1169372176728.1304	-1169372176728.2258	-1169372176728.1855	-1169372176728.241	-1169372176727.8818	-1169372176727.9912	-1169372176728.362	-1169372176727.767	-1169372176727.6338	-1169372176728.0781	-1169372176728.1958	-1169372176728.0703	-1169372176728.0056	-1169372176727.7175
cute	-2172628525260.9697	-2172628525260.826	-2172628525260.6848	-2172628525261.1184	-2172628525261.1453	-2172628525260.7734	-2172628525261.2024	-2172628525260.8887	-2172628525261.0552	-2172628525260.7397	-2172628525261.0073	-2172628525260.8245	-2172628525260.6177	-2172628525260.96	-2172628525261.3208
everyone	-4848272039717.964	-4848272039717.924	-4848272039717.966	-4848272039717.828	-4848272039717.494	-4848272039717.727	-4848272039717.847	-4848272039717.289	-4848272039717.552	-4848272039717.734	-4848272039717.964	-4848272039717.417	-4848272039717.72	-4848272039717.868	-4848272039717.605
everything	-5548652577589.849	-5548652577589.779	-5548652577589.526	-5548652577589.809	-5548652577589.66	-5548652577589.603	-5548652577589.833	-5548652577590.025	-5548652577589.806	-5548652577589.941	-5548652577589.885	-5548652577589.455	-5548652577589.461	-5548652577589.652	-5548652577589.771
around	-6388407168324.717	-6388407168324.797	-6388407168324.764	-6388407168325.104	-6388407168325.148	-6388407168324.724	-6388407168324.832	-6388407168325.021	-6388407168325.055	-6388407168324.505	-6388407168324.704	-6388407168324.912	-6388407168325.019	-6388407168324.527	-6388407168324.729
there	-25395952167456.83	-25395952167456.96	-25395952167457.188	-25395952167456.742	-25395952167456.79	-25395952167456.664	-25395952167456.71	-25395952167456.64	-25395952167456.61	-25395952167456.617	-25395952167456.555	-25395952167456.727	-25395952167456.86	-25395952167456.8	-25395952167456.906
comes	-11848613649633.77	-11848613649634.139	-11848613649633.95	-11848613649634.023	-11848613649634.04	-11848613649634.0	-11848613649633.684	-11848613649634.08	-11848613649633.93	-11848613649634.21	-11848613649634.006	-11848613649633.793	-11848613649633.72	-11848613649634.34	-11848613649633.87
from	-54138614893905.33	-54138614893905.19	-54138614893905.58	-54138614893905.414	-54138614893905.5	-54138614893905.555	-54138614893905.53	-54138614893905.45	-54138614893905.664	-54138614893905.46	-54138614893905.45	-54138614893905.04	-54138614893905.33	-54138614893905.45	-54138614893905.44
performances	-13780803044704.668	-13780803044704.725	-13780803044705.074	-13780803044705.107	-13780803044704.527	-13780803044704.686	-13780803044705.164	-13780803044704.969	-13780803044704.734	-13780803044705.006	-13780803044705.154	-13780803044705.053	-13780803044704.777	-13780803044704.785	-13780803044705.246
lead	-3184298639361.9565	-3184298639362.1074	-3184298639361.9385	-3184298639361.9395	-3184298639362.0938	-3184298639361.8325	-3184298639362.365	-3184298639361.9404	-3184298639362.366	-3184298639362.208	-3184298639362.11	-3184298639361.948	-3184298639362.125	-3184298639362.17	-3184298639362.4043
13	-753080871457.2644	-753080871456.893	-753080871456.7661	-753080871456.8096	-753080871456.8894	-753080871457.0862	-753080871457.0287	-753080871456.8733	-753080871457.0842	-753080871456.7523	-753080871457.2136	-753080871457.0793	-753080871456.8807	-753080871456.8966	-753080871456.6173
conversations	-1196149436878.2827	-1196149436878.8613	-1196149436878.1223	-1196149436878.3047	-1196149436878.3926	-1196149436878.7183	-1196149436878.3599	-1196149436878.4585	-1196149436878.5574	-1196149436878.3083	-1196149436878.3374	-1196149436878.5317	-1196149436877.9553	-1196149436878.2446	-1196149436878.1897
holds	-2267509008237.2637	-2267509008237.342	-2267509008236.834	-2267509008236.989	-2267509008236.754	-2267509008236.8125	-2267509008237.112	-2267509008237.291	-2267509008236.8164	-2267509008236.9263	-2267509008236.8984	-2267509008237.1357	-2267509008237.252	-2267509008237.1567	-2267509008236.7734
close	-3780324626537.1514	-3780324626537.5767	-3780324626537.5264	-3780324626537.664	-3780324626537.391	-3780324626537.742	-3780324626537.496	-3780324626537.1787	-3780324626537.1094	-3780324626537.6787	-3780324626537.2505	-3780324626537.3584	-3780324626537.657	-3780324626537.4385	-3780324626537.083
relatively	-1868454759998.79	-1868454759998.8298	-1868454759999.3335	-1868454759998.69	-1868454759998.9202	-1868454759999.2808	-1868454759999.0698	-1868454759998.6426	-1868454759998.873	-1868454759998.5994	-1868454759999.0537	-1868454759999.2085	-1868454759999.0542	-1868454759998.895	-1868454759999.3113
slow	-4148462644764.16	-4148462644763.8936	-4148462644763.908	-4148462644764.1187	-4148462644764.152	-4148462644764.4316	-4148462644764.036	-4148462644763.848	-4148462644763.5513	-4148462644764.1934	-4148462644764.13	-4148462644763.7803	-4148462644764.2085	-4148462644764.299	-4148462644763.894
come	-11130654473146.271	-11130654473146.633	-11130654473146.299	-11130654473145.928	-11130654473146.46	-11130654473146.777	-11130654473146.635	-11130654473146.656	-11130654473146.377	-11130654473146.16	-11130654473146.643	-11130654473146.113	-11130654473146.203	-11130654473146.559	-11130654473146.023
point	-7812139178231.74	-7812139178231.847	-7812139178231.461	-7812139178231.477	-7812139178231.537	-7812139178231.9	-7812139178231.666	-7812139178231.797	-7812139178231.678	-7812139178231.574	-7812139178231.207	-7812139178231.621	-7812139178231.76	-7812139178231.812	-7812139178231.578
auto	-787984986711.4878	-787984986710.9028	-787984986711.2382	-787984986711.0017	-787984986710.9802	-787984986710.6282	-787984986711.1233	-787984986711.1975	-787984986711.2109	-787984986711.2998	-787984986711.0574	-787984986711.3662	-787984986710.7648	-787984986711.0571	-787984986710.9985
focus	-2136006811918.6914	-2136006811918.5215	-2136006811918.6938	-2136006811918.8833	-2136006811919.0588	-2136006811919.024	-2136006811918.7695	-2136006811918.9502	-2136006811919.0776	-2136006811918.7183	-2136006811918.7915	-2136006811918.7734	-2136006811918.8691	-2136006811918.8433	-2136006811918.536
works	-8694075695988.422	-8694075695987.956	-8694075695987.883	-8694075695988.301	-8694075695987.87	-8694075695988.223	-8694075695988.011	-8694075695987.876	-8694075695988.111	-8694075695987.743	-8694075695988.013	-8694075695987.938	-8694075695988.131	-8694075695988.184	-8694075695987.748
unusual	-1958853267186.766	-1958853267187.21	-1958853267187.2397	-1958853267186.977	-1958853267187.5967	-1958853267187.48	-1958853267187.476	-1958853267187.2803	-1958853267187.392	-1958853267187.1968	-1958853267187.3716	-1958853267186.9893	-1958853267187.1484	-1958853267187.3032	-1958853267187.2803
biopic	-1030286510576.1713	-1030286510576.0066	-1030286510575.896	-1030286510576.241	-1030286510576.3273	-1030286510576.2097	-1030286510576.1415	-1030286510576.4365	-1030286510576.3275	-1030286510576.4253	-1030286510575.969	-1030286510576.0686	-1030286510576.4908	-1030286510576.297	-1030286510576.1958
document	-2317872321565.3994	-2317872321565.1084	-2317872321565.427	-2317872321564.908	-2317872321565.626	-2317872321564.798	-2317872321565.0483	-2317872321565.0312	-2317872321565.5137	-2317872321565.2583	-2317872321565.565	-2317872321565.5127	-2317872321564.8184	-2317872321565.219	-2317872321565.117
male	-1892364648264.5225	-1892364648264.2437	-1892364648264.9478	-1892364648264.5376	-1892364648264.6492	-1892364648264.435	-1892364648264.4836	-1892364648265.0222	-1892364648264.531	-1892364648264.3062	-1892364648264.4585	-1892364648264.9758	-1892364648264.8345	-1892364648264.9492	-1892364648264.5264
era	-2798691524169.743	-2798691524169.958	-2798691524170.1475	-2798691524170.278	-2798691524169.77	-2798691524169.9053	-2798691524169.843	-2798691524169.692	-2798691524170.209	-2798691524169.952	-2798691524169.6357	-2798691524170.167	-2798691524169.7783	-2798691524170.2812	-2798691524169.8203
mr.	-5854092214333.627	-5854092214334.135	-5854092214333.564	-5854092214333.861	-5854092214333.6	-5854092214334.18	-5854092214333.844	-5854092214334.117	-5854092214334.117	-5854092214333.654	-5854092214334.064	-5854092214333.543	-5854092214334.191	-5854092214334.045	-5854092214333.707
zhang	-915893242844.0112	-915893242843.7834	-915893242843.7087	-915893242843.6416	-915893242843.6113	-915893242843.458	-915893242843.6863	-915893242843.5706	-915893242843.7467	-915893242844.1619	-915893242843.3746	-915893242843.8738	-915893242843.9832	-915893242843.607	-915893242843.9937
subject	-8877056752711.67	-8877056752711.605	-8877056752712.082	-8877056752711.86	-8877056752711.889	-8877056752712.045	-8877056752712.012	-8877056752711.814	-8877056752711.555	-8877056752711.91	-8877056752712.002	-8877056752711.76	-8877056752711.818	-8877056752711.879	-8877056752711.988
degree	-1679450916984.753	-1679450916984.7634	-1679450916984.7131	-1679450916984.9214	-1679450916984.7651	-1679450916985.0547	-1679450916984.9824	-1679450916984.4324	-1679450916984.6548	-1679450916984.5151	-1679450916984.524	-1679450916984.8738	-1679450916984.79	-1679450916984.7393	-1679450916984.477
least	-9865875949047.146	-9865875949046.953	-9865875949046.863	-9865875949046.617	-9865875949047.012	-9865875949046.791	-9865875949047.152	-9865875949046.844	-9865875949046.883	-9865875949047.078	-9865875949047.05	-9865875949047.23	-9865875949046.824	-9865875949047.027	-9865875949046.812
american	-10234028549210.947	-10234028549210.258	-10234028549210.58	-10234028549210.582	-10234028549210.613	-10234028549210.521	-10234028549210.494	-10234028549210.562	-10234028549210.742	-10234028549210.586	-10234028549210.92	-10234028549211.023	-10234028549210.945	-10234028549211.121	-10234028549210.97
his	-55157207215177.57	-55157207215177.92	-55157207215177.945	-55157207215177.766	-55157207215177.61	-55157207215177.81	-55157207215177.766	-55157207215177.766	-55157207215177.84	-55157207215177.484	-55157207215177.32	-55157207215177.87	-55157207215177.73	-55157207215177.8	-55157207215178.27
approach	-3386889037216.5713	-3386889037217.071	-3386889037216.783	-3386889037216.536	-3386889037216.547	-3386889037216.915	-3386889037216.8506	-3386889037216.6963	-3386889037217.0156	-3386889037216.5654	-3386889037216.871	-3386889037216.8613	-3386889037216.3994	-3386889037216.8975	-3386889037216.719
storytelling	-4924334312902.945	-4924334312902.922	-4924334312903.234	-4924334312902.811	-4924334312902.996	-4924334312903.354	-4924334312903.514	-4924334312903.311	-4924334312903.091	-4924334312902.627	-4924334312903.201	-4924334312902.907	-4924334312902.613	-4924334312902.757	-4924334312903.023
called	-3079701204633.8975	-3079701204633.8936	-3079701204634.4307	-3079701204634.129	-3079701204634.0063	-3079701204634.031	-3079701204633.9116	-3079701204633.7305	-3079701204633.8125	-3079701204634.2295	-3079701204634.099	-3079701204634.127	-3079701204633.8623	-3079701204633.9146	-3079701204633.909
