<unk>	0.13526995583530815	0.45369852626347074	0.23321687497447582	0.2118500779609664	-0.19939386114092744	0.039009364633715626	-0.10290265925764625	0.0996235305262563	-0.18793771522809952	0.12850858467884518	-0.07165803132045828	0.4289086199390098	0.34472720722523253	-0.29585172601458587	-0.20244164157167888
the	-1.2128048875994315	0.3787009651382525	-0.34273307036625694	0.4441692407201512	0.28823735308187115	-0.30166630802622846	0.1904275677024042	-0.1439684718187053	-0.055309690306307266	-0.2379516476302445	-0.24988553674187536	0.04915705462468323	0.26072451427454624	0.6181624227881213	-0.3370904920429258
rock	-1.1777913198243295	1.8912625348336651	-0.5395421782888267	0.5842760648270636	0.4741851534471697	-0.13105516459966826	-1.4643693662069306	-0.01270879168429769	-1.0050416348091937	-1.8079318325019522	-1.0537215360802266	0.1993188470610715	-0.3839753204647067	1.2962898880296594	0.039330632296832035
is	0.5102085768452801	-0.7604119080742351	0.2813911664705214	-0.9957307210647689	-0.2884692960154371	1.0487026493266594	0.5943852661789871	0.27319058241233213	0.4032668369087785	-0.5897434245216826	-0.02571060798875361	0.06551736722759455	0.22555510891430539	0.2504755844222839	0.5963538874230774
to	0.5200389775261742	-0.6084301919367976	0.3467707261114745	0.2027914092448166	0.9936963878591536	1.7206350803234622	-0.4524921004931759	0.20021697664059276	-0.22772098280880437	0.041072207365560054	1.0521534383103928	0.913539235330706	-0.2508334241478534	-0.3231274274158038	-0.7237601223858677
be	0.09419039638636595	0.9346335922684874	-0.09314190258631458	0.10512636396935926	-0.311545433493858	2.013563484548058	-0.7652386894650994	0.9484918161926479	-0.49452392397917616	1.4212938583685053	0.9941371102259199	-0.2715021155325117	-0.5625761773684694	-0.3110152828009016	-0.557309136718219
21st	-2.3679593284271507	2.725874227316246	1.2711385822333923	1.1168691483720028	0.41672946411686296	0.7070476091440742	0.49103672088151123	0.9314929079206965	-1.5704453947101147	1.826692074922438	1.7604026350573347	0.3731874840680637	2.1542305110316846	1.4813170305608168	1.518709017159043
century	-1.8812167097926673	2.5015511668675314	1.2375116685652645	0.046057222750458066	1.3879484504433988	-0.35841042063093176	0.7407142848104292	0.08937393703098312	-1.3971321421210063	0.1138919543981946	1.0044403473987171	0.5097542238509463	1.7786796558263793	2.4704283747704285	1.6206642983008517
's	-0.71418904134148	-0.20347823670961712	0.23484299685946386	-0.1972260065762444	1.3327236497447879	0.2189252178946588	-0.30269653736510305	0.9410700234373681	1.596375541961086	-0.6493867743078026	-0.2428307753516193	-0.2010181091037322	-0.8306646849827595	0.5231992856606681	0.7855080540998416
new	0.2238043234620835	0.6377456365896192	-0.3042197641264335	1.29633819411718	0.2595635611957667	0.7509489453693283	-0.6397525044445964	1.5590728668066522	-0.49028466295490547	-0.7492001145029044	-0.7538681446236091	-0.028233100578913373	1.344878323477681	0.8647991494897602	0.5643422078921176
``	1.2882349348884894	0.6318790312932867	0.1533206665097816	1.7585445034365406	0.7420489453297624	0.7667744068273676	0.7964499158033649	-0.2182431238569591	0.5524274238131963	-1.5449880940178708	-2.6948454388912566	0.9636358214906735	-1.4017102185645354	2.090166364616507	-0.06503963391119527
''	1.1700705763178443	1.024578223643458	-0.3025333764980306	1.2718453456206427	0.5148884724377559	1.2975423963311372	-0.36177788671866307	-0.6132613778100949	0.9889214648105092	-1.467264773982317	-1.0718543695090585	0.15157818344419538	-1.9468822666356707	1.6526887234059287	0.2405062050767569
and	-0.40320718370191044	-1.4377067556686263	0.0926034157446961	0.03095604196287345	-0.016808317361506786	1.045076095878549	-0.08915158645315424	-0.5093658463442627	-0.11585500542525135	-0.7793015199150961	0.3030953244232422	0.07931554269434318	0.7398759747792972	-0.10543393809240265	-0.4539138393354075
that	-0.14859222341390615	-0.05951308717215397	0.6279338255871856	-0.8420913984068669	0.015489851507588775	0.32340259154665074	-1.0340851786644079	0.05871488796937269	0.33802868732671776	0.8458673217642504	0.9585152839686508	1.0510744736042978	-0.3405714301137333	0.7028369046365516	-0.3753609240637124
he	0.042376593967969556	-0.7529724572040895	0.23608293746510256	-0.9379944041690349	0.7381625935222728	1.7830187590257713	-1.1945341136336112	0.22521762634442277	1.1838059448627494	-0.2784000920877504	-0.658951511762436	0.022956668771976274	-1.388120448532208	0.050274217154247625	-0.2980492482948671
going	-0.11390542592433339	1.464869407130075	0.5263428403570023	0.001146788203373772	0.09324194547812203	1.8141332928919738	0.6410190633656232	0.9341755768481849	-0.02936299819888885	0.3672815830990226	0.6836547986034367	-0.23081200785793243	-1.4738770450317575	0.6545488103908977	-1.058716666595149
make	0.7870004784581461	-0.6220683425054359	0.8881966921738292	-0.5967244428867295	-0.11024296004955048	1.4064697151184609	0.19821570481750184	1.4434655415402833	-0.7153946314249743	0.7841414726705395	0.7631746046682393	0.2291918924126085	-0.4813251726495484	1.011595899490694	-0.5811031468135281
a	-0.7093525008834782	-0.21749306756607636	-0.5510226911851808	0.028580023006481825	-0.4616079964599162	-0.19315660852110306	-0.42462866745094663	0.34580270888066833	0.62433752254623	-0.39002629219507867	1.2233421479597937	-0.47537476690126224	0.7410788055536941	0.3481162398595523	0.23840052748471047
even	0.13615660674489416	-0.9029508402713702	0.029072566046667192	-0.9325698819079923	-0.3686807163435451	0.0266878902595028	-1.6664688983598854	-1.2613294938237285	0.0658645619379957	-0.15908804984563166	-0.3218915176131628	0.7153760996897723	-1.3557000457544834	0.3748929962359474	0.7784401913958547
than	1.0261001221485073	-0.4186056419582773	-1.4873690016568515	0.08202919116248733	-0.5892812759035055	1.3211954506897032	0.22996021201988592	-0.8117279596892125	1.6116102354551762	1.2845813275591345	0.7750334568790546	0.6077469157726574	-0.6661471326462334	0.2332758392790356	0.3954898559963697
arnold	-0.5762600258894869	-2.352864704562936	1.18311920596306	2.003698001080542	0.3825767210564376	1.759834588952691	-1.896971483327802	0.5951200909428288	2.2463799445327792	0.04962397002728741	-1.2466592058873296	0.7571170276167278	0.7612992883257306	2.748716857104434	2.458435915346125
schwarzenegger	-0.8658136407756563	0.24461962536594278	0.4963009030923785	0.2477632694122161	-0.24330360840420373	0.2910524235994534	-0.7438332512154294	-0.21071248610051835	0.9181954468271463	-0.3995241791452687	-0.893649725444339	0.1299108071690248	0.21885385690401937	2.4639625645437193	3.3014286560704997
,	-0.1196987230439368	0.9601887006426583	0.1771666694048828	-0.2029125280694571	0.6159058672698157	-0.43020600835746325	-0.791203562508242	-0.3117099457018557	0.7345103371604922	-0.45632988261301277	-0.9808156348668222	0.35228456239442335	-0.020349383653100767	-0.24037851540723787	0.09080516106048714
van	0.7282965005086381	0.10086856377883108	0.8472653030401405	-0.5669431624766034	1.9987949065860486	1.969642178049433	-0.6885368749958043	0.9238574151112172	1.246985629053055	-2.3523826732946596	-1.4926327996402888	-0.4197785031997009	-2.866687528059334	0.2895048711984687	1.1456203028885241
or	-0.3386360760447433	0.0979533677578317	0.013194975244992413	0.04715819343209254	0.38378277312615294	-0.1163793807830571	0.5741384121022577	-0.8838898889231079	0.2521176887956269	0.3463012984277912	-1.1216246189201478	0.13766133074006426	-0.16897260604296593	0.39596407520550286	0.37180455228314885
steven	-0.028461606002174844	1.4254022996050646	-0.22130688014148642	-0.2988758752584506	2.776267231048028	-0.044693633146843714	-1.980464129605097	0.8901853413571958	1.9726978608509065	-1.3942303902261772	-1.0736288667891365	-0.6330901988080712	-1.2100946419830394	0.41621208871353876	0.598113502170492
.	0.27656033124555024	0.3878358132231051	-1.0041052678905162	0.386232898705564	0.14836014420241173	1.3055729141777852	-0.516830852118943	-0.8684358013347345	-0.944898008089426	0.2271442495271954	0.07886430812140555	0.6853516800261352	1.054726992998852	0.10304656375282839	0.9485029580617503
gorgeously	-1.0299672815882737	-0.391002956139099	-1.605037816000698	-1.0065400321588889	-1.8452139781190633	0.2454590905294744	-1.8903800342334571	1.3944483180439575	0.41918041597471317	-1.1599715946990905	1.7726866151390948	-0.032139520403241695	-0.10040997942674312	0.6569968928885074	0.49568887486360436
elaborate	-1.7400449280195582	-1.8708122347253275	-1.5374943913682233	-0.034785496121772896	-1.718723986889385	0.904303266793422	-0.039330017465757816	-0.5527138335523207	0.028381661520511747	0.20571136224175546	1.260456211420701	0.8237658163663105	-0.08700441975427345	0.8494157330162853	1.0583314031330833
of	0.5667964869438645	0.5609680339580837	0.14787026255202446	1.1864625893950633	0.302164352673837	-0.43356028183379586	0.19065227489472447	-0.17718231783811	0.33348279505496264	-0.599222051818943	0.9789312058141614	0.6672435170161172	0.3774186578480352	1.6554912443520298	0.68269637852667
rings	-1.0550730215730417	0.06506873610885155	-0.5271879920953058	0.2936084844828101	0.4542230304872276	-0.012429174152713496	0.6344015826181196	-0.8164007829424762	-0.31006267095570506	-0.17197259128216014	-0.3777298608536861	0.9533546687084031	-0.6994945083366941	2.1650481141123556	0.7074044554904797
so	0.6632648825585838	-0.10618842729940961	-0.4615371868886229	-0.9008775859927582	-0.1548679439062387	-0.103932573105316	-1.7831158489273558	-0.6614357454253619	-0.16116119406308477	0.4936115522065751	0.45678174752903167	-0.18183981489003773	-0.9184559088258222	0.2575196590432462	-0.3439666915128199
huge	0.028368838765980398	1.4665631332052502	-1.5778488266730697	0.5114645667576513	-0.6039285344463443	1.3030245495214317	-0.66269390403881	0.4670638306295364	-0.47838339266032637	-0.19935687628408294	2.569364181333576	-0.8358740982534151	-0.4238285784524829	1.311081019939377	0.43793515927033655
words	-0.32219270407161393	-0.018479214115740245	-0.043744977197371915	0.19503873160499527	1.5381464848416713	0.16131718297048492	-1.0992045213853716	-0.9306890997634186	0.0017150872945889267	-0.0611508857100736	-1.2870015883246437	1.050876137337454	-0.2669030748493729	0.21610228776006568	-0.9562942136981368
can	-1.044317761765954	0.5893446088497105	-0.20242970092607354	-1.4117509548018612	0.6226166924734529	1.093635368090756	-0.7393660129941433	-0.1890731273162795	-0.9588687473029628	0.983545619376793	-0.9621278127719166	0.27577102872480075	-0.4894286085677737	0.5618778908071065	-0.2515236437472552
not	0.2545262962116237	-1.211619873997558	0.6568743167384894	-0.8065501396250694	0.11224173522519665	1.342851223151164	-0.6445569189192039	-0.2285417383585252	-0.18238861959380254	0.49401051950477626	-0.07806523552798111	-0.6130380775803081	-0.4784579542645713	0.6830244029312521	0.3574125584547625
describe	-0.6642334411495796	1.1486899105087207	0.8528021572229457	-1.5216044409623355	-0.547028463632381	2.222176623922461	-0.789841935384046	1.4858330995287599	-1.13436175931817	-0.6515061520035665	0.9473344529582883	0.7363479322515148	-2.383338671764574	-0.5951554698717687	-0.2336271862469691
peter	-2.0390867528015906	0.1444049849427133	-0.18085795379170433	-1.2481846096943894	1.1454450269093015	1.2907218711220045	-2.077551966382195	1.8284369055714689	-0.34426780847760213	-1.0582905611900908	1.3278922031273968	0.405041114401587	0.6732322747253601	-0.8737173932019673	-0.8322580718205848
jackson	-0.638590332603368	-0.3834858269046122	-0.10811644680751378	-0.15900338204817568	0.563358530284094	0.34138637645547165	-2.1756722137623985	1.249490106447969	1.0806046724021174	-0.1445508871074947	0.94668720904454	0.979713108077653	0.10818288038695589	-0.4810660367946177	0.45305416011684707
vision	-1.0514886767817706	0.9112104839644972	-0.6972361146915537	-0.37398881094599395	0.4688594429385623	-0.3512049887970402	-0.5447937843079691	-0.426205116675236	0.4506611613938034	-1.207442298126468	1.0922518007114042	1.139011261796607	-0.07104657540802373	0.3444641306199301	0.3545955411018896
adams	-0.14669122620607278	-0.6899102443806067	-1.4644485299049357	-0.28144908983529837	0.041953302681741245	-0.5737117679536661	-2.2752623406897476	1.0970664629265618	1.686610296734637	-1.586227704154294	-0.5817447633405572	-0.29485667249616865	0.4946458732938377	0.8301248021550206	1.1604811710896419
songs	-0.7172026897538338	1.8189394955242655	-1.748742084753311	1.2579721963827324	0.7341341667636119	-0.05139748966531532	-0.26105780334356044	-0.6017071487153771	0.719684730299989	-2.098764284760481	1.6413831289883158	-0.7189288726085906	-0.791008737042503	-0.06800845319055226	1.7726360960063656
--	-0.17072129060090235	-0.6877434527007917	-0.058763582884501064	-0.3674453856972433	0.4719547723865988	1.0024795557452475	-0.07157709289288894	-1.2369437365557274	0.16079412639220325	0.029423738864870375	-0.03615922947218081	-0.034173633623257815	0.041686506096709486	-0.23904507687250343	0.044662878874649536
few	-0.5946405299533106	1.098876889400276	-0.6316272921437285	0.5489380534479815	0.31611539440594144	0.8483885470270384	-0.6324002106292241	-1.0560345345224402	0.332047234771439	0.7654123645604077	-0.4930744569067918	-0.4605087532840336	-0.41870773627610863	1.9411167897215877	-0.1371625454030615
potential	-0.6206870418143484	0.4700731957117805	-1.0449412771773345	0.5214168310585481	-0.38941767890465306	0.6110518685712854	-0.1625818196734915	-0.283975633017711	0.4013341880319083	-0.07618292432652451	-0.4900276861234133	0.6972982485041851	1.0997030802672447	1.4080731327045182	-0.25245615402807514
hits	-0.805088648513637	-0.15324739921055341	-0.39304012609978367	1.282989960495546	0.3634026438286123	0.48244790315352154	-1.732586835709926	-0.33141300003404056	0.48710252094269724	-0.6571460350137682	0.30811949463732446	-0.5205442471577083	-0.13146046587884086	-0.17595653184107163	0.6959268118503366
more	-0.12554305083563266	-0.4847320912121757	-0.6011440210341296	0.8975052840067955	-0.15696078724939647	0.2862311362125096	-0.24376435203949065	-1.5876618704812968	0.662953876140916	1.7008793844081	0.6848290246056168	0.3582592019861902	-0.8826405362084174	0.47403936231600896	0.6734199201222157
simply	-0.28911224744904296	-0.4648955846254326	0.039743037463712855	-0.3365041887960253	-0.4323986866617249	1.0409125166153363	-1.2865699834645687	-0.38166855566162605	0.48367853090410307	0.045849544132260944	0.18825304729927178	0.3511985321128858	-1.9889685991632615	0.8422407158693648	0.18759853633261492
story	-0.2561306994511592	-0.3664649345173881	-0.10538963560231546	0.28434493441120856	0.03442642668806861	0.6578686604301451	0.8380041179246875	-0.2807740423899959	-0.03333987993756553	-0.2926205434863719	0.6102774306584584	0.155057251420399	0.05571960513223559	0.03849036948840734	-0.13795446085375695
but	-0.39673167663284875	-0.5843156357468741	0.07889833996068496	-0.4705664248074444	-0.5832146851320931	0.6516665355513283	-0.7990913616548541	0.7477843825569449	1.2122143770624516	-0.8872494566419513	-0.32050470265709063	-1.0158269939954312	-0.109997665318607	0.6044202147825454	0.3106326611799363
whole	0.1920099866306587	0.9656713178817912	-0.4624929080209209	0.35590410254552685	0.08272922546230804	0.22625395328440823	-0.1897438928658599	0.07453708896889213	0.7763502200611335	1.385081910244712	1.1540769022665742	0.6001551630908246	-0.4787034806851148	2.691241093238156	-0.12482472695978913
certainly	0.3958243031062152	-0.3714505466206456	1.050428314426363	-0.7200559720493794	0.9013687399328772	1.1036628266205266	-0.8427769662951865	0.5540082135583784	0.36766554118483286	-0.2899374989259378	0.5509407142522227	0.38026927884493317	-1.0856661333103117	0.8131935445062253	-0.8028482635447265
captures	-2.0730283350414034	-0.2586491768665783	-1.072399525895116	-0.33872672105556995	1.0253966705209925	-0.6623132981977579	-0.3715389644806183	-0.08001300154806051	0.19171562339520015	-1.1418950561233259	0.5030477550966767	-1.1775127287263278	0.5299476120579579	0.9536473073626236	-0.3294404030296699
intended	-0.4731684137596759	-0.47120342144939503	0.08656467367380005	0.12386986883739806	0.7086106925990199	1.2183867060538993	-0.6607869973073489	0.7201569221873955	0.25774586302807573	-0.03023581300555811	1.0206203528275064	1.43151527001732	0.2643692768336029	0.49112508787971887	-0.11467822558837903
spirit	-1.0967229368915783	0.06797707597188901	-0.8504926267504369	1.1271614512951538	0.7139567371726854	0.20752461170877945	-0.019708373699738657	-0.9802323089222866	-0.3546569401617598	-0.8316695390416972	0.8834363775541756	0.4097294230152239	-0.38892465650694763	1.4275021621649653	-0.38632028832841114
piece	-0.04734079392195256	-0.5556416213756205	-0.9110661533346314	0.18362720197188453	-0.16694378523332254	-0.9660901683313713	-0.30093143175851284	0.1767537957427568	0.07500847354005144	-0.5836205068411782	2.201263775103363	0.2228930768015117	0.2735375128878948	1.3121857238950383	0.8344899765607997
you	-1.228790218450102	-0.17031397186338176	0.3553195756220694	0.26282267562800976	-0.7295683199318778	2.1631520327780906	-1.4314169994425257	-0.5544723182117125	-0.3511736050581623	1.3321908080227731	-0.47924484251261756	0.6964349203564361	-0.6366621904002633	0.11490555706282113	-0.6131211120750325
'd	-0.12843268477410597	-0.5486473370445927	0.28082443945993435	-0.3039069781039909	-1.0994768552822098	1.8359714260045257	-1.7908393911641634	0.22138636326448247	0.28193041476888925	3.4371929625354514	-1.2048614790130387	1.085426794692724	-0.4910399453211931	-0.38461093692386095	-0.2162552485416051
think	-0.3110276714187632	-0.1727731800050727	0.16822246650916817	-0.9794314292470836	-0.2500585681534291	1.2102401910942564	-1.5474923769770814	0.9928699212183377	-0.3869190983663972	1.8011340339653696	-1.2591710165577288	1.3541767762394028	-1.7426903461237087	0.4897730635649251	-0.720136921426832
by	-0.9875365705845257	-0.11998302791021526	-0.7533377454764669	0.7690645365675688	0.6166908585410307	0.024965703082461377	-0.21913047902964788	1.2200375838677657	0.4730778905142573	-0.5215305042909002	0.44453671260062055	-0.863088552843194	0.4168861191268471	-0.6333945791106105	0.15477317459135032
now	-1.2023761945756215	0.2046471919812417	-0.397500802892417	-0.07838751485805412	1.3662580610326787	0.1269107707938305	-1.0534766979103998	-1.0372112801959266	1.1054916427551933	0.23939173957542784	-0.3580579622896835	0.13893309071850202	-1.3204306203394736	0.8629405350462427	-0.6660901299966766
america	-1.3484393711448048	0.19229514502400738	-0.21538984676442488	-0.3160315767853062	0.7022168729575539	-0.05189934396475426	-0.5098488367427658	0.5771289872684789	-0.23767871274260716	-1.6407285275534589	0.16678002833606315	0.6388558314832029	0.41584771185598046	0.20103469499652094	1.40986474313567
would	-0.4095649733864063	-0.13680490081310176	0.30777228575848303	-0.2047803577938064	0.34064199408420714	1.397308822549211	-0.6244231540876997	1.0955582400509167	-0.14815493106074623	1.0269964277385277	0.6237326163645696	-0.1240883355419308	-0.7490348671818999	0.16904018185783487	-0.48143454325604446
have	1.624155038601677	0.12424594778850179	-0.06876959824162021	0.5440129976189547	0.4291964336088634	1.005199129934325	-1.071659988258167	1.3205208884902182	0.19544765512075668	1.4990214969269198	-0.07399039641179683	-0.3639792961891821	-0.41682893608560023	0.6959746692983959	-0.886485924877363
had	1.0032336162724806	0.135109403127334	-1.5471793198944634	0.16472644891384802	0.5998178912191963	0.7846427351622929	-2.0114228728187813	0.12389624653287584	0.8681470609899717	0.9840088008956509	0.17596788492026325	0.728984929114562	-1.0625512122455754	0.08184715296972972	-1.6562383617260599
enough	0.19723266751402768	-1.213885295377755	0.4277694170082251	0.258020975434872	-0.1593491325504069	2.5767305337046165	0.1814181654906375	-0.7114596744934172	-0.4451919500230712	0.09029114510161607	0.38735209880029065	0.6389255857350595	-1.4949788984055856	-0.2252699388746482	0.25295589687809966
british	1.3871559466404806	0.06614803031138028	-0.8545763030732381	0.892662532905667	0.8974022089874751	-0.5552466394880838	-2.474191675544407	-0.14897874693864116	-1.2376209368469038	-1.1852287303110396	0.17579568880647845	0.45591694043397746	0.4485311625545525	1.334366275409709	-0.23450409619428625
with	-0.8483783084003254	-0.2684383251301057	-0.6098589043910498	-0.21211464809108987	-0.4477843632722886	-0.23825976602675125	-0.17232253809025544	0.18547257324759614	-1.1468542320653938	-0.12223923176433504	1.348471453798545	-0.273310572102857	0.3520172659920078	0.33608989865827554	-0.2414275632656413
hearts	-1.5427895802891736	1.3126453619876937	-2.4213484430024295	1.0014006207909856	1.8122838050665917	0.6950213981211301	-0.3717249934241339	-0.21348601911549736	-1.3857774332964619	-0.6793218745740204	-0.3532494956456451	-0.22826288584987472	-0.004202292554684295	0.6432635112061655	-1.0086297826578954
yet	0.004671239582892728	-0.7841826114988033	0.4671903714376878	-0.34471171995608774	0.28702533034658156	0.6803292349741361	-0.29422036153615994	0.1795831517650534	0.2507294165103084	-1.2485346194239697	0.3731710250049436	0.8346477110785236	-0.6442913090987761	-0.19442847677961095	0.4591890081070076
act	0.3718354275382463	0.3183830580579208	0.2378136289240923	0.03297195241261003	1.303064439676851	0.5044735150288041	-0.5765001181742628	-0.35163139079712274	0.05082337398995333	-0.9462606783069465	-0.12483789937754351	1.0115079443007569	-0.6919223651387151	0.38413849604808403	0.23407745004767305
still	0.7240959341421142	-0.029202691199004094	1.4210040771687176	-0.0013530300557088037	-0.6264837884699264	1.705008124813062	-1.2335682276214928	0.7715787218695701	1.2566267059855392	0.8505715051829689	-0.4103420473087231	-0.49488173209576564	-0.06231279989496563	0.17300833774668645	-0.1268737567121504
charming	-0.24630979018909382	-1.8915670601773533	0.13776392452054734	-0.458539305609901	-0.34042660501834876	0.21074658865827467	-2.058324070577168	-1.6656901475807206	-0.08594158420380088	-1.692951351271259	0.4041433638885674	-1.1431248951322222	-0.493667050038346	-0.519312795032491	1.260151019005625
here	-0.0152242624542549	-1.1485558444197805	0.2867862529264263	-0.16662033618648925	0.6294186814358833	0.3357791834442693	-0.3849895505122005	0.07487384765490285	1.3145768345147608	-0.524505710745193	0.22493454237143223	-0.6216280238702674	-1.0272394971109184	0.621917721008787	-0.6530049171713163
whether	-1.0024347534382698	0.4183293578025965	0.08909866565570097	-0.6598632546701904	0.6087894114352395	2.026806158852332	-0.30115441954211575	1.1516809360202827	-0.7379277761814078	0.9530831940413539	-0.7828045229015377	0.37159310528780665	-1.2447552542320766	-0.12696938037049554	-1.2151972729980636
're	-1.5095897286413353	0.8463682331329487	1.538071496500095	-0.7432014129263388	0.26807523499604513	2.051313789539567	-1.4524655020929127	-0.5727431061491389	-0.1786603940826718	1.581015730075571	-0.5088839226139916	0.6189411958280875	-1.2069944134060053	-0.02955105343193487	-0.8544988544057814
any	0.679126443295352	-0.22070261449175926	-1.084080807255238	-0.07350217443406909	0.1321709783613299	0.7409179530945931	0.13806360724729172	0.39213603065153746	-0.06963267670143683	0.10002311234920275	-0.06900952045374995	0.45514102680178464	-0.33031633891514633	1.519265781112479	0.1667587822379391
on	-0.014548616144239246	1.1168797123707779	-0.8756894891814491	-0.3339573514970081	-0.389982998699935	0.5340410267134857	0.24541693229900952	0.27968754070039514	0.9587881181332546	0.4522609296002975	0.29290522358291593	0.7639384434530934	0.30461642835592345	-0.0158530166704276	-0.4981538422234763
other	-0.38575151126417584	0.9881244106477323	-1.0497034084857737	0.9424298149746768	0.2958743876408382	0.7292181002833774	0.4339016023002058	-1.2481653317175587	0.8687593565782635	0.5441619822844312	-0.8909527802153937	1.10803374839025	-0.49235344663147396	0.8996312923760815	-0.15062469585217853
an	-0.7813343777054458	-0.776398465365411	-0.5150947644232055	-0.3304369797978719	-0.7434867318080811	0.3068474192603029	0.17777357121509108	0.08190078306219878	-0.6865622980642683	-0.12446493717750196	0.5264940797064466	0.6815774164900705	-0.30421819271629813	0.21791730821785538	0.8290375731746776
undeniably	0.14649356390162782	-0.921076629221093	0.39758593495247246	-1.4629663938453956	0.35496057815397414	0.6327367406749753	-0.6911903612832262	0.023945026841673378	-0.46551381806694103	-0.6789552493144635	1.5895910852656485	1.5135756040830652	-1.0570155606113785	0.3127279715326683	1.7507685948448954
fascinating	0.2810870333383888	-1.2386470862985122	0.6163564493080033	-0.16756954046479078	-0.021164397806340607	0.39066613390045113	-1.5546555506451694	-1.2845918478948761	-0.4569215346071595	-0.7843480831799419	0.8843122901531114	0.9181157605341952	-0.5543592514345168	1.2407367037222379	0.39153546481507595
playful	0.6205871913358433	-0.3570134437738936	-0.8282513176604475	1.2281337924148101	-0.2993995455043539	-0.05301204999569009	-1.7373381710170759	-0.8516224516174066	-0.904497120140489	-0.5914177395795774	1.5503560837044719	-0.22831789697274216	0.36476921631454906	0.7802502701904513	1.0624603565554747
fellow	-1.2398464571733436	-0.5597372775301215	-0.895083588214272	0.6810141327260233	0.8519581864798799	1.2435808218163016	-1.476127565304321	-1.9743110672508277	-0.8945708288214658	-0.7443599687605787	0.07651221769117633	0.24642622976564138	-0.5805439758479569	-0.9461357893082208	-0.6256100614560185
just	-0.13200489683881306	-0.6604958498034306	0.5793421466402207	-1.3113891739937995	-0.9866529369188144	1.0034598926274245	-0.8715917837867411	0.22636429226987903	0.007935817270964568	0.10721178612784343	0.13842152054775553	0.9074480390741771	-0.5862740655312622	0.5015752980228473	-0.39450587651173646
involved	-0.44145043513547944	0.4743521193997636	0.31675057839067666	1.1290687776853594	1.8677306330940833	1.0879978551184877	0.446606314953612	-0.6275889774851031	-0.0730018598012892	0.5132591828548656	1.3962500482047926	0.3910825056195504	0.4179124748643242	1.3653799760233234	-0.730283926964849
in	-0.5018290268339269	0.42489154054655864	-0.9949949117984187	0.4846986564237729	1.000202365460618	0.09711717323627933	-0.15051025399073759	-0.13875579809728078	-0.5129398035777732	0.23224449082647664	-0.14791919985653262	0.6033293462444616	-0.23853757286063967	0.11411623582153674	-0.22661599870626026
creating	-0.9753469314730778	-0.13013126349611814	-0.9639023304548698	0.2223487423573799	-0.42677370957542293	0.583010736213613	0.3871517736213774	-1.3490465480814906	-0.1753413850673763	-0.5926123956247203	1.9061584432467193	0.9903198674861797	0.3680304902921928	1.433252925488754	0.429496026521886
imagery	-1.887406461646563	-1.526289168649276	-0.9588637659169592	0.9939407161827833	0.7024597162553381	0.13466917711955617	0.0876699367112973	0.23419938742050678	-0.24008319021747548	-0.45299420241058846	0.3609524849325789	-0.00834519170083275	0.6758589112028973	1.3620785803790456	-0.11343188334071919
this	-0.5572049327976989	-0.13229196218612604	0.17079423478884043	0.17066301868529682	-0.838908648832937	-0.3921569415523633	-0.751400781308871	0.2450593390069677	-0.3781565367014603	0.08068067500931042	0.29419234897264523	0.1928155002702118	0.21336228555765135	0.24810792923856118	0.43665620315702564
madness	-0.14761868558038072	-0.13480436491621453	0.002518142501945264	0.8002681163481464	0.2037666667719189	-0.1999590646865832	0.21520651414046832	-0.9094943858039105	-1.5063978119134618	-1.7422175948235126	-0.0014769442154555779	0.6304001516590818	0.23441937811210956	2.0502931237536197	0.6448486414049861
light	-0.6151262624619338	0.628090483557003	-0.04575776292844458	0.04324840307661226	0.5558849177724958	1.6144720624676292	0.08843862832324445	-0.2526961263350475	0.38493582132491727	-2.24031859760556	0.6131073111458343	-0.09308401643887562	-0.44670133516063704	0.9706412621348529	0.31444250085987985
astonishing	0.16392148850049892	-1.7526076550833456	-1.1736674106674767	1.4914747316177979	1.5406343906187674	0.81926638411259	-0.43072235634237666	0.8826371746502369	-0.6819748729423212	-1.9650904983525859	0.6964981942919856	1.8290879758853893	0.1349930934927549	1.5039525270700596	0.39190153681822626
part	-0.5090519000579481	-0.360782789138384	0.1410910312610817	-0.16159800754301515	0.25261245444341063	-0.2065186153440799	0.3828609720495443	0.6459293132308302	0.41229331427286703	-1.3307771126632135	0.3360663313823248	0.8734198089148051	0.6079798884168497	0.7458059048336363	0.4681653304770075
charm	-0.20668411806788467	-0.21997623888140017	-0.6046285770734767	0.25347876253541723	0.7605913316158799	0.10502691394880426	-0.7821688325642002	0.2015684669568435	0.5431513306050609	-0.528239662747813	0.7713296206974609	0.1652367790878464	0.03958249700579641	1.0692210758420424	-0.4016787682120787
rouge	0.06937704020042512	-0.9648654361103288	1.0170337152610496	-0.2794711119183444	0.4930590732421877	-0.1657266076713364	-0.9808636188559686	-0.8312287891569105	0.4591162725543949	-1.1795747586197474	1.0527985446323072	0.550911814776796	-1.1445128059503633	1.9479835070694063	0.1729970045242919
it	-0.14530941963470956	-0.28799245235311394	0.39346068977523235	-0.6576122577940632	-0.09964955076446702	0.9066077685653187	-0.6996591402798884	0.6610543821965527	1.1820536308515317	-0.009351702913512172	0.6104866432202021	0.09485464970986357	-1.248844754590128	0.2267171437019755	-1.1908636979076699
avoids	-0.6146310045121166	0.027689389043450557	0.022219539065112204	-1.8240490769500355	2.1191723938301896	-1.155275613781455	-0.9866886210428673	-0.5588255833274214	0.687613645816632	-2.763910827878651	0.8713293824784912	1.2041807275564014	-0.894440912376261	0.49696573280448725	0.004276018308544405
obvious	-0.8686331209081823	-0.19333368113528232	-0.5191331494517061	0.1420741026472108	0.5356676945811415	0.8456374597624128	-0.9588939822520545	-1.4120981074059025	0.6928278143266994	-0.6211804280019855	0.2980960333468374	1.1027166865546894	0.10781681455713193	-0.20240945697051727	0.0040251604084493575
humour	-1.0047861800832272	-0.04522866530576089	-0.40876918660478584	0.36359331478284096	0.9038119584431046	0.39696716733618764	-0.5166531994041625	-1.6967847349616823	0.8482406748777283	-1.9304478038086597	0.40124589283316947	-0.6167497944051441	-0.9128378320959607	-0.22236821267951223	0.9224673678580182
screenplay	0.15794482649142505	0.14230421708131208	-0.6275989700951957	-0.4937612188166648	0.8163255297982347	1.0011272468534647	-0.3731386345125501	0.016101860101442905	0.46992818155702365	-0.6318844070328133	1.822993477134705	-0.441791967063821	-0.3306680861969633	-0.16045972551460486	1.1135119217682803
constructed	0.3510792757431167	-0.466337861895846	0.11823094908159625	-0.5904535328463298	0.33556899224966663	0.8531293384355877	-1.573772801813193	-0.4486115125967967	0.9292914250079017	-1.0130655745052888	1.5809203040392097	-0.061451929403677	-0.408619812927351	0.06564278067203233	1.5112979018784014
extreme	-0.5851816032999934	0.04100700479404598	-1.296066712786276	0.08617643572682732	-0.486165710155834	-0.6255415541447215	-0.41037804083689	-1.2171441323168994	-0.41351202740424153	-0.49012997810138936	-1.0938545658361447	1.683313853180246	0.4520536214463967	2.413219417230696	0.5085300083351356
expectations	-1.6563853116106828	0.2890603979213737	-0.3146431507891535	0.4916023751338092	1.0215240913054244	0.7656282870891427	-1.1917793831548789	-0.21287033433054198	-0.9025215858961345	-0.4056524588178868	-0.8731726619400414	-1.4957911803878374	-0.7041422831135316	0.42977579934671295	-0.3900731795685709
good	0.4724501515452652	0.7469044335381745	0.20314649152173442	1.0338105717007382	0.5848088560099619	-0.07491588559734708	-0.6896812898389441	-0.10496154662443072	-0.3109441014880149	0.27843841777186	0.9691804447544448	-0.5991127827233376	0.23376063933128022	0.9546562496372937	0.9299237347390558
fun	-0.04029605404101999	0.2887575516702693	-0.2737122871814818	0.43768699871265565	-0.47059693630375876	-0.21242158943978418	-1.0511253338824365	0.10973469128321506	0.3431879922003201	1.403387680509434	0.29415082975624596	-0.6444065956155127	-0.031610363466656244	0.7177400457018992	0.4339476726221193
action	-0.6413423333681294	0.7101284597525624	0.4369771573025689	0.1091340380329054	0.23431634626195352	-1.1177940565220623	-1.5769449126877506	0.28729639053148454	-0.4693021575743329	-0.09546661153157995	0.5368372057168035	-1.0840823882595756	0.8335636764120817	1.4288919846187125	0.06031896910961804
acting	-0.4112211797928499	-0.4602960330953502	0.29651628190863655	1.3207370383294808	0.5779542709312365	0.5119679550070058	-0.9246590129101232	-1.5470296719553756	0.5350988898257886	-0.2669797765817705	0.6192224448164346	-0.34719647185328123	-0.6224258785523195	-0.028219464438633213	-0.04812086996428211
dialogue	-2.3048872256268442	-0.7008987817383036	0.8982472989942842	0.7164240674089182	0.0847136897607782	0.1583559583126608	-0.9483543411818294	-1.0055196442436727	-0.6859960553833263	-1.562538015682144	0.45363644228760513	-0.9402106207054863	0.5555309967409601	0.6446973939318572	0.07056509872530992
pace	-0.1965212957354523	0.8366607961642858	-1.0132554226767798	-0.06909603486641061	0.5554536738656053	0.489427365424698	0.17381375241276886	-0.9841950952479137	0.03173818966890257	-3.3276865574353005	0.6432513091493394	-1.3049415757409697	-1.3570322478626484	0.031083743379580753	1.0508746336267303
cinematography	-0.9919305830729936	-1.4338249821115183	-0.1272997890248332	0.6959795375919573	-0.24322575921807676	0.9418143536201544	-1.39394582918785	0.7556123940061177	0.09369061872856776	-0.6764757539997354	0.48344981881319943	-0.10397865594327055	-0.2540001446013884	0.7388694190089384	0.25807112304815605
should	-0.6006936755909988	0.8199292336780263	1.3249492253916657	-0.336316240764716	0.8146771746094629	1.6279939808182056	-0.9555319655336094	1.1695976660143435	0.13669800812248326	1.1114218391518325	0.4126513540218403	1.0741027042660527	-0.5273198203802122	-0.01012777863422698	-1.0415556816903195
pay	-1.506098047798337	0.7077074665438028	0.05679840458934925	-0.15743864557007062	0.10273667176940737	3.4049569550960546	0.6381620235556029	0.3180016665673368	0.7311124717839126	2.707765496586175	0.09505425524884126	0.7258819528835662	-0.0507850120511809	0.30470502098780694	-0.2970674156097356
bucks	-1.983846675190894	0.369470079548096	-0.3908716680949772	-0.6545122059156717	-1.5170737924724966	3.930911253269125	0.6095074364264684	-0.2602810028089758	0.41090235855384927	1.5124612086092553	-1.9568931100153706	1.5090700238569696	0.2537076639250526	1.928524642519814	0.2763904088758782
for	0.2482271880863769	0.3710718167552275	-0.5752011938768766	0.799786649837897	0.2833655053893015	1.077453854011488	-0.46149494226430543	0.20338773924925685	0.37297920086944314	0.25151813016076785	0.8593338310155128	0.09600084872484066	0.08656684597611111	0.33909322892188853	0.5089664928525892
:	0.31627227120087315	0.89547340758081	1.0460874446579773	0.20669120966633378	-0.00905774874372478	0.2992671620067987	-1.1294507025304645	1.3399397351321614	-0.2842201884589928	-0.8137956194437543	-1.4317569428264547	0.8261351018965714	-1.2867191645474576	2.1947500061920984	0.6515596125869164
because	-0.51674547688647	-0.5213033827635651	0.6067020182703501	-0.5955697937988367	0.661616919455951	1.1284138142602327	0.07648422834085478	0.2570242828869107	1.2787007243680966	-0.28620900027039603	-0.679607344991905	-0.17301541753089084	-0.8729359901342169	0.0060717045483471566	0.03807067532020908
hear	-1.2322525888107323	1.4993165877688166	-0.6464429991759022	-0.18035295434771026	0.9880089253837776	1.9277517997150295	-0.5032454566924369	1.5140651717516371	-1.0197231653841907	-0.11739360286778888	-2.277706952279509	1.7011249599675793	-1.6503467765051283	0.8267619940910755	-1.0466267478211617
about	0.39940487268839375	0.9013926380995291	0.18143188089387097	0.3677307012774885	0.23519753860919956	-0.29529711180376905	-0.5773197266003824	-1.6567294943040025	0.18853018441785008	-0.24104049865149646	0.9054761144327612	1.6204806245169041	-0.970558096936653	0.7812616794529569	0.24258706578901384
suffering	-0.6545537555444316	-0.6294838485315547	-0.7284796745744705	0.2238869435093973	0.12423749644888082	0.8932358607972072	-1.1335482867368136	1.0177324451740768	-0.7321962282665342	0.37735069425444756	-0.4312220090969302	1.637003909624824	0.23065225541790735	0.8147865158005936	0.6336805837489783
news	-0.7201236699929823	0.8197604668317069	-0.548666950394872	-0.47143673796718	1.7527281964070527	-0.18915617385313743	-0.008371515170766397	0.7795662193739049	1.6714557269729262	-0.868299912771215	0.523142840037764	0.8604229453042735	-0.9447626109452927	0.49897175452393117	-0.16277765915904963
dramas	-0.5554631084832651	1.2576343693520733	-0.3111401210625687	-0.9750484025667627	-0.19830614919207656	-0.22777046776824283	-1.7760398811155624	-0.3572945776798548	1.822581521098322	-0.256772834635602	0.9818934806994117	-0.8865259313838739	-0.35933545104291437	0.6044775331421872	1.2970929645460922
like	1.1875373095282802	1.4353368188879359	0.20701135635274892	0.48599682522134674	-0.27296781214743393	0.3210705236403208	-1.0808684795770032	-0.5273069992511422	-0.48330894004065084	0.19141872972096552	0.45989771931495144	0.45452836647342476	-0.6694383133890618	0.6113319727655507	0.7208004184881094
human	-0.18318340754209994	0.08266101037539038	-1.3503426524014637	1.1216378266129414	0.5868103871600524	0.09394606645080006	0.2746202025296326	-1.0856335496990965	-1.6887124459960483	-1.2414242698608864	1.345669264306323	0.3400338530101891	-0.13020213841380668	0.6712573906866104	0.20736062801294575
ride	0.1271149590897832	0.6867854516784704	0.03044425770061418	-0.1795301910183153	-0.2829542317124286	0.32179690931534644	-0.12900847138622185	0.33184250889774236	0.04575697048628047	-0.883557733640089	0.3774872414431355	-0.5055606143344067	-0.8253207548222813	1.4008738263727263	1.2209418612658496
at	-1.4548679564143487	1.5821539926736417	0.07276230668579148	0.8584542303179634	0.20861890826425405	1.474016333252469	0.41797457671385996	-0.8359323951329942	-0.06899181616668026	0.37973227338232185	-0.10139579671929994	0.03510642245545953	-0.2183908346757072	0.8283534238449468	0.6301059780516419
first	-1.6576128339429046	1.3925228485348575	-0.9518206887649006	1.386526293231143	0.30819322951298633	0.2836371095826963	-0.07577949672513162	-0.7210333880825397	0.7831048208678559	-0.4310655354039157	-0.28129272071160066	0.4419329716088251	-0.5385887242386753	0.1665427836293759	0.2337510364662958
quiet	0.04978194166312977	0.5017210437384306	-1.0461214310684939	0.9572805877882484	1.2920455394158605	-0.6167636393384935	0.3022651227569828	0.1833033048823445	-0.30795925972496896	-2.3534637222241535	0.37405667094731065	0.9197365917534414	0.35225503721489315	1.304771720577758	1.4838447405654356
pure	-0.2359010367571347	0.337987662027059	-0.9197291851238657	0.24829385010211152	0.7714581552671196	-0.40310464432502496	-1.1005636043798916	-0.9865841958960224	0.042030009993078946	-0.3461682108601625	0.9352157673363231	1.9861199624188024	-0.3920747587100901	0.09266797513015379	1.5235339108986963
are	-0.10821633529104357	-0.21410207884704618	-0.2823333370942995	0.6190753571922378	1.2708420073431836	-0.586059531407554	-1.4541864259617705	-1.2039235277653813	-0.054208626561274724	0.3076723968027694	0.12392096687281096	0.13218894353189242	-0.4371875977002412	0.2898532093949993	-0.41950770117557845
far	-0.18044099218464882	-0.4040671877316469	-0.12612394469611543	-0.759825987358388	-0.32192530745678744	0.6990170883566328	-0.5681207990141668	-1.0024770310585172	2.343967537709363	-0.4661789941141534	1.1189066649498334	0.5272229810893905	-0.6817310506304578	-1.093528187615056	1.264914261741645
between	-0.6277362530397039	-0.8994491657032289	-1.1733388194894574	2.257868606068066	1.516626085366554	-0.9679685196188696	-1.2530715719683363	-1.9764839456415877	-1.375433133809493	-0.19173467420627288	-0.48218133073437847	-0.24936433280670153	0.9050186646389409	0.6616306055076904	-0.50498718244395
;	-0.12872416342667203	0.005269347399593602	0.2648079419644798	-0.5344692444904258	0.2919122775674049	0.17743056703005078	0.3654883888058744	-1.1630445238713043	0.4547111388968984	-0.5069439785988856	0.5747814701103446	-0.47208245596173415	-0.3543236539761987	0.794767692046378	-0.6285824128786455
their	-1.099992515625949	0.23066892574559142	-0.8134442657792892	0.6266444738745687	1.0730473643172593	1.0291060352110233	-0.4138401546777778	-1.1664354232128522	-0.4554435551412178	0.06989394905066182	0.6526995554108082	0.0022083721189841143	-0.34421342541831146	0.2092734322792612	-1.1452607554924492
otherwise	-0.302919726075784	-1.3816527086970911	-0.6211968328114988	-0.7451827967685185	-0.15782491019461692	-0.922778949386926	-0.4987424568543094	-0.44156016975916745	0.1953214609313634	-0.5308769022907625	0.8150439471248732	1.2337754678770367	-0.025621007582070796	0.9613245330299844	0.4291816307285
respectable	-0.44106954759061223	-0.2521200042987206	0.32395323694436284	-0.3039288879333909	-0.8094978719023668	0.15013672497817487	-0.055583029095103154	2.742051390751592	0.11359476284958694	-0.5307243310741202	1.0597608946803236	0.9961506370668313	1.4535358467783648	2.8249383195241675	1.4096172737153014
flick	-1.5117685694572929	1.1574728377510188	-0.03767667030311933	-0.49605494917605103	-1.13616693076552	-0.9119060070614642	-2.236837191027357	1.2332913710501723	-0.5640473606261853	0.19023932376857255	-0.3188140044596096	-0.43239448292338367	1.009291003902586	2.3420103911234156	1.3505251225632762
some	-0.9948024185405618	-0.014515849147889559	0.21235279907042498	-0.122067934420497	0.5354396796578782	0.22861069425434422	-0.23284250918484106	-1.0117465842314315	-0.8007577315550257	-0.3580666976339958	0.8734840028010828	-0.835666863996265	0.037500550945350486	0.6526306222753306	-0.7389252856148505
truly	0.3508782665419672	0.5622671321137007	-0.35646301219540466	-0.056552923364101004	0.6933647432848886	1.091011863645972	-0.7978260046170734	-0.1239603249425529	-1.5137369634013982	-0.15939486732838304	0.8567900460308292	0.5325491145302905	-1.3457949395382145	1.0312767927261008	-0.4875895083534449
excellent	-0.19203559463995779	-0.6643326066210686	-0.4175596889799995	0.2053749468752122	0.9788603463989777	-0.016724700336857468	0.07047295919694563	-0.789037442074918	-0.36028938013589895	-1.1975610636643832	2.7748387727990833	0.5168732451263619	-0.46301641677704186	0.1854225688674065	0.29300657299458754
sequences	-1.4145686596697709	-0.19906024081236318	0.5356990509891326	0.3294907874790804	-0.3657358539773063	-0.9802947324859579	-2.870254235694194	-0.5800796537328046	-0.4624264643717273	0.39836155224444003	0.6228840455111828	-0.9902035035597223	0.03866578650682412	1.1112805614457628	0.48152232081512825
john	0.9686584300111514	1.8447884714766976	-1.069851836392404	0.3922116081384954	0.35885454247324045	-0.34002461826431435	-1.095878027188548	1.6461353185634455	1.5717358230043774	-2.0374298568199913	-0.23287781433035934	0.35988537697635414	-0.8347456731183646	-0.3433729676784928	1.125648743254993
english	-0.15522327856844786	-0.16945410569501196	-1.5698978560074903	1.3091115053118587	0.22585222028717378	0.7242936787994028	-1.4105248968068176	-0.9439152799279583	-0.9677874536495077	-0.16858299504256868	0.18041772092300318	1.2307535040451474	-0.9534988244802451	0.40717636148834757	0.1615283706806434
terrific	0.06257963413377254	-0.40600014239441506	0.4656509525098371	0.8609847939555872	0.12056826641918128	0.7864267270387094	-1.706339702459319	-0.5281453422994685	-0.6669122974524238	-1.2871915484325755	1.0465998831019978	-0.6870225011172062	-0.47563619137041757	0.6653030919307787	0.7205263749679327
effort	-0.3796483190395898	0.14755048932299686	0.10961909459631791	-0.13366483813579727	0.04763919876514533	0.9101440513364143	-1.1994458273862505	0.5299164030826395	-0.14888489166672697	-0.8802870865569928	0.3504551220343236	0.3958948622053545	0.6672023463791947	0.5850263904691033	1.285921295241944
energy	-0.28926631172366124	-0.11146348309847814	0.301317290782258	0.27045377141678556	-0.1591595660931756	0.578632961274548	-0.6786280982753718	0.3797466106653814	0.15885810113142956	-0.8489604748250958	0.8301865371947197	-0.24632644823861144	-0.004779529286352835	0.8788109728278887	0.07831892561741816
walk	0.23493220241284773	1.3360404588709534	-0.8051013132064793	0.8975918098108115	-0.2794375001257652	2.4570603362792176	-0.1548265304171874	0.5503765269516199	-0.7564473048717066	0.262268120381407	-0.3655841170037043	1.3354056218090553	-1.317129676656397	0.19820084291002438	0.28211906494184424
out	-1.2827240912685973	0.3383488560611376	0.09763175498487309	0.024694633097676444	0.4719283834919128	0.8496902931524902	-0.10565117185896211	0.509113887737751	0.2206120238032299	-0.2752119946837074	0.3230802308117666	0.06426116247742507	-0.7600152623105676	-0.10035566216249925	0.2414758474101351
girl	0.11985275871996348	1.8988021800772295	-0.03587347656047492	1.0557601733757096	0.6615607890329096	0.5676482345437245	-1.1489317313542842	-0.004471714166150446	0.05964759033542949	-1.7363047408686871	-0.07946995862240441	-0.7892183874681896	-0.2146993927426114	0.37664351254906303	0.49610832438210006
mixed	-0.25669121549431795	0.0642147644921235	0.2570607049897107	0.45042588083082896	1.3301007183072904	-0.030821110780927752	0.11603565327851739	-1.4985276431361512	-0.2863437267350184	-0.316245847539004	2.423316927165764	-1.7001689410159142	0.6434688953062396	1.908450143296689	0.20519032450118008
emotions	-1.6755545803944538	-1.4400886081590376	-0.4720344586147083	0.8423033291673743	-0.1732176461363375	0.27898176151395493	-1.0856999793106241	-1.0269919051459178	-0.08107925679007591	-0.33116617427019035	-0.4272876604825665	-0.47122184403661904	0.8779899792882803	1.2342388762738388	0.21317137937741126
combined	-1.0375647198389963	-0.10397636919595056	-0.8194020639147355	0.4237887609262436	-0.4367915319766785	-0.7527863037551693	-0.5818936725423951	-0.6743128917815382	-1.0514720972065832	-0.793680331231322	2.9012380618765032	-1.696915998287239	-0.08007997666480704	0.9672685289613674	-0.09203639441544054
understanding	-1.0205490064191265	-0.04853147844633576	-0.6702947214686193	0.08586373262796021	1.4020524740018914	0.8668714443579777	0.04622393291403937	1.0592415044976122	0.26043861461386586	-0.41737423774411275	1.8255163972109196	1.4692575142731252	-0.7220211895840758	0.4707994315213442	0.8000753395493989
her	-0.24656969178503824	0.01750253493152787	-0.4244205996801985	0.35214574743164384	1.099361174793116	1.0159707010379517	0.1297569102538999	0.21513241569701264	-0.3826364229867786	-1.2682119900421818	1.4851005119109244	0.753767084512497	-0.4460002114353724	-0.30540619426441623	0.26333386211503546
philosophical	-2.1313024187824023	-0.08970416858227832	-1.9132322657207017	-0.47424340895100575	-0.23213147539370405	0.09392605736194715	-0.35735935992438805	-1.0943101303170832	-0.18194267438493872	-0.8444763486526095	2.0253593030878276	-0.19780957199243693	0.36822670430981985	0.262945799099189	0.6689984383914521
message	-0.3788981670040753	0.23767237872702607	-0.5112067785084975	0.1746731684328215	0.2814321600231513	-0.016043102346947835	-0.14882930727730703	-0.2223345501132635	0.14126375014608608	-1.3037384029493437	1.0752070616905174	0.19758255306926373	-0.49911688794799114	1.5081776162994902	0.9437716595659397
personal	-1.0892690595538368	-0.9448068553538482	-1.202474809385178	1.0452435998252627	0.7320104354322975	0.10755109972836818	-0.5797399714092345	-0.1484691556425487	-1.1318113091507875	-0.8439985725526766	-0.03511854261522876	1.2057910197978459	-0.12442875238198964	0.5309913090225045	1.0572611708595463
freedom	0.33406460921937675	0.6369277008349603	-0.878593181964199	1.1182180206055632	-0.291428920383181	0.8554289379609399	0.42474397955917387	-0.25906885167381233	-0.2160623559611512	-0.6279036510882436	-0.7118530743793365	0.4410132052186453	-0.7599376589767757	2.4278165510672616	1.147759613620948
might	0.004055894608909094	0.7593282131394024	0.5136541934112548	-0.18857471108634688	-0.0019101986660702008	1.086458235177858	-1.0169323971392403	0.4348345464594022	-0.263990773171903	0.8147957895674345	-0.009641988191986667	0.16882166754447875	-0.8829780866422952	0.6094869476706413	-0.7013040879145676
as	-0.6095493033058514	0.8941226430505727	0.26851587231928953	-1.6355322031243713	-0.48006878417477694	-0.6169436687670914	-1.4567757859957817	0.05297869058856375	-0.14709929604531313	-1.0617382415277292	-0.20068492952971256	0.32547194081244607	-1.0377004373446395	-0.09058140693978356	1.1493053113444704
absorbing	-0.645296713689234	-0.7732503314641506	0.29308171366015395	-0.7349377406294285	-0.2731566635618591	0.6092501539839257	-1.2000789454365572	-0.5987414630222203	-0.9090970625394958	-0.6462182935225594	0.8818757719542438	-0.6288900693429046	0.25035462004769327	0.38296542477128637	1.0646092980703377
character	0.3592974894223557	-0.18273262038868532	0.7936929641621446	0.11546839756557967	0.6921109512939176	0.39609122594853796	-0.10394432521909913	-1.635323075781796	-0.9938607789818205	-0.7446433728796005	1.137510990303864	1.3277210618007123	-0.15267253991206414	-0.45999410815186226	1.1164582178137785
study	-0.5507117824145773	-0.41388400277724374	-0.4627074139665492	0.3678604843325505	0.11519561045445026	-0.5149226675974032	0.2913787532455576	-1.2840814463722823	-0.8222809177083942	-0.6736445820352671	1.4621548952658232	0.691617335607486	0.9980637024361927	1.5990653494923184	1.0004450525855926
if	-0.37519984881682433	-0.8688846787532724	1.2440556290810814	-0.6230357849831363	-0.5930838723526974	1.4830627384598085	-1.426208010080997	-0.22843676538902227	-0.034498468163710605	1.1852870499951422	-0.5653517123249914	0.30650890788248586	-2.6198520627378246	0.21352353182197648	-0.04029637265423752
love	-0.928895654172478	-0.39647796606765	-0.21882334435001566	-0.412845905192605	-0.2173742349057486	0.9404595134199482	0.3113514505587797	-1.2383259672605216	-1.5898650215643766	0.48499951470197034	0.31748524817306595	0.31778273892914355	0.31411067849413143	1.1259165620977682	-0.7053134823921248
reading	-0.21437560744927908	0.8451599378033627	0.24484516578422202	0.9797794305567283	0.0421200574689744	0.8638417142417387	-1.273294170927515	-1.078823989038809	-1.5169836193450752	0.6229039089292105	0.5613630037501627	0.19523158709717703	0.30675387428061873	1.2578426733605346	0.8411221953724555
poetry	-1.4727487731745676	-0.4917117314674333	-0.38459746640084347	1.4594456374829292	0.9614952391532281	-0.241824882436544	0.4507208441950611	-1.7101610456455134	-1.039587617689725	-0.6738844118167563	0.5484154511433084	-0.5350806565647206	-0.2102167642162967	0.8230122281591286	0.3055976679262415
then	-1.7153785082628779	-0.07463680148286983	0.03467942351879555	0.49146276215968426	-0.1994224098959269	0.7333129039402151	-1.2223056692692968	-0.7272343181168125	0.05541377979491363	0.10815030370813505	-0.9187718936356789	-0.7508169092385975	0.24690926157537763	-0.5155065478165127	-0.48420954286761
all	-0.3048719826900991	0.09184908540763834	-0.536917012203861	-0.30318699628369483	0.9009907914496277	0.21027664237632326	0.533996763582507	0.5454853879858894	0.1160081790338201	0.5554613995351394	0.6659087513520033	0.7052364844228056	-0.2884703020430065	0.8742442055238925	-1.0171124983542366
means	0.14608830005102902	0.10093606064126706	0.32396932674985723	-0.34668517956987993	0.9447358568082248	0.8271150520798115	-1.5188632557669606	0.7406976821988407	1.3593935830310557	0.08294369742966615	0.7868125446958739	0.5657572077293673	-0.47900298036905326	-0.16007123324679784	-0.46155707140698166
check	-2.6281822460201774	1.0818422721594292	-0.845873497095502	-0.6082808156510684	-0.7194310342211228	1.961649056564466	-0.3519321931304581	1.3932611853193841	0.14162120650777937	1.8447345994197417	0.09275147643554515	0.23037457474582068	-0.6736004929179521	0.16890232870626387	-0.4579481116912662
'll	-1.5880480898050808	1.1181897194492323	2.3332551247151088	-1.082013511150755	-0.2365558336052779	1.5186050744811153	-1.1393554867311664	0.09746195349821578	-0.4536073646008999	1.900899588573344	-0.5430283472871091	-0.24818391144219132	-1.711983047948325	0.8863455889151045	-0.14690148518255702
probably	-0.3283286901236003	1.367058617054711	0.6769130346685927	-0.4952510683017093	0.2702948439352486	1.600338127391193	-1.993637094928285	0.49397071103460566	-0.5274837120486985	1.5533082263897198	0.17195827034736877	-0.38511576148311666	-0.7294761036113484	1.3228861257056197	-0.22760864192312866
frailty	-0.21095939155829446	0.5471290126218215	0.03085692262130213	0.0843237620676241	0.37642407505070774	0.8155787251348001	0.41229927487830664	0.3059165253944773	0.2990664470605342	-0.624845375537755	-1.3927264565533364	-0.036616509336009004	-2.354583653076994	2.6081945172790078	-0.9374587376757696
has	0.1442297559542733	0.913464912086811	-0.6772633671724039	0.5550937306633879	0.9977389650670001	0.023329766740934677	-0.6423028103246334	1.0085499479442597	1.0996158605843287	-0.46316243127176626	1.1239707328831727	-0.5507825724067755	-0.20076577879953106	1.4928515661181712	-0.07549699918704039
been	0.611785585723325	0.5131796295091758	-1.003072230075644	0.008879911566770315	-0.10600895206922056	1.311352423871682	-1.8116559822084595	0.5114283755246781	1.2110569620684872	0.7924980420957554	1.1871799636576432	-0.0929907930542018	-0.5673133739251156	0.8942495179725116	-0.5847255771323092
written	1.3812742167504348	-0.552629223548093	-1.0302394318951864	0.292805117718293	0.0844598900017185	-0.5940043384563265	-2.55687888698528	0.09892686371043793	1.3525034584435116	0.5964201640295664	0.4966675272851224	-0.9647403857116966	-0.864943838287918	-0.2959238625932591	-0.7899807252987949
well	-0.8406227033091206	0.25287360297193406	-0.011784438088548115	-0.904024377488654	-0.45725497264099346	0.37815408741605916	-2.0190427731489984	0.48377284719392943	-0.1075674280488369	0.8945718021802612	-0.03500685470087128	-0.8015261912066333	-1.7396767021668276	-0.25004241013133066	0.8065408480688477
simple	-0.6082532220220289	-0.7252843742726406	0.003684760651706899	-0.16556199809434097	-0.652232999081156	0.5224906855158484	-0.8636449512801121	-0.1954222863759113	0.14946947825057313	-1.19272915980759	1.0670567935865496	-0.6523502411894038	-0.08609592004815392	0.8566779706875866	0.5214263477592993
!	-1.441457442347175	0.11328336551458482	-0.5524463913998919	-0.06336264493126116	0.9444030129817209	2.226444829162272	-1.2426820988363985	0.06883707504255715	0.038363161388572306	-0.9158783181058009	-0.4008166790356883	0.6448661306542951	-0.7253280796411118	2.268927283306412	0.8587099675611258
near	-0.98924589033208	1.5776519551172563	1.3851269883704642	-0.36812306833494707	0.8682477145636204	1.3640597154086924	-0.37059672920906495	-1.4998414859696263	-1.9552206728994954	-1.8484149489565378	-0.27977177130143654	-0.7049065739369077	-1.1022914327756868	0.3307125849425032	0.5009372195123644
end	-0.8333668356305691	0.32854894904802784	0.3029752587478387	0.023001613469085913	0.7097533087725174	0.10715072201999565	0.38690171299007947	-0.12002501470134819	-0.1239416956663213	-0.23498997571593194	-0.5234509772709355	0.39697094212427264	-0.17504758956141175	0.5548551263396898	-0.29312264169048197
takes	-1.1414911033287565	-0.12044550743374713	-0.3403872273805226	-1.2373987486873614	0.548714718934988	0.9274672653795889	-0.6289901570716057	0.6558951411385906	0.3617797027083763	-1.2841626135651594	-0.39438714074713166	0.6997388132098952	-0.24197888411538138	0.16485751550821304	0.7450187423278047
meaning	-1.8147300844758876	-0.6013697860368288	-1.1398693866850835	0.28741788435903515	0.8133937101388508	0.6848314892024913	0.14280089390557704	-0.5886731926220092	-0.8515559596233562	0.38875052040903857	0.13402395766361866	2.033162068551076	0.1043127311113624	0.68052367033691	-0.6887332501185632
bringing	-1.7438153832187053	-0.1296944716838821	-1.4201738440309377	0.5191077171162766	-0.6546198532888707	1.606174961408796	-0.9226686112922629	-0.30702843724707646	-0.4973551754369051	0.6709520942365725	1.4556665971071143	-0.6879126171608828	0.6546444340103743	-0.05506969284250318	0.007776862473674262
unforced	-1.0349424518448485	-1.725782526426173	-0.19137047528031836	-0.2054896623836229	0.7814355078846131	0.9286309180436064	-0.7330543483626338	-0.3098656349089637	-1.517814172998187	-1.5422463465475227	2.6658567768004056	0.005986902319817411	0.2547235165496076	-0.35103947982308337	0.2526543861026914
delivery	-1.8374388160716126	-1.0850941348040175	-0.04822847412009168	-0.0258868069101717	0.7545035551153515	0.6846635596273716	0.13959299526730945	0.8204023757947172	2.491169848071929	-1.5643110769317554	1.3393910388054486	-1.6514282016312576	0.1589053756642679	0.3983797953860978	0.41509024002608985
toback	-0.6940244147253448	0.9012557860816648	-0.6743400476514236	-0.13892909169055534	0.965210166669726	0.6380710495828174	-0.5445882419960734	1.6124141178202458	0.7423652246272378	-1.622506801025195	1.10242046535797	1.1497619754498327	0.7645467050370157	0.4486322385702481	0.451163961501556
-	-0.7418657678889675	-0.44024523703154983	0.32739333040068086	0.9555250345129322	-0.1542545567130495	0.5083907273151338	-0.480723353651473	0.44575182873354363	0.23117514812499312	-0.41701014362500977	-0.7843015059077949	0.5623148646228551	1.6061507358037495	1.5760489897530086	1.3800363944967002
film	-1.5913471218257567	0.01270537757621848	1.0002324857835103	-0.3561925062231531	-0.4117875063444797	-0.11242449961376022	0.3785547668349242	0.9002947917314552	0.33565272977086846	-0.31611674058100575	0.23931989956904595	-0.19758880241510976	-0.12863857570302611	0.6109913459692343	0.34724791913211506
festival	-0.669133464065136	1.521703662115204	0.3083708021007338	-1.1469517257221629	1.0059721708493867	-0.5289329755815956	0.43836690345880547	0.21642359345215978	1.8951405732168332	-0.9432748378464055	1.2341566172170357	0.943905153672056	-0.038493617323499985	2.7585175428839386	1.069018583318206
become	0.40804306697353465	0.3326439422069135	0.8948808467437356	0.9598655089135884	1.2664989410614673	0.44995642819417325	-0.27525622990751464	-0.2719151686441022	0.502794148843643	-0.12081250089894419	1.5612264688925441	-0.11715676357808702	-0.3891768688694993	1.0334360569136118	0.5356187509390342
fans	-0.1685608452842391	-0.15429355255354343	-0.13445585965272439	0.9812956927180433	1.4961442294934797	1.2666810335610812	-0.9751131306089968	0.7043782941462691	-0.03631311151273692	-0.03331186916173079	-0.10120056937340732	0.5655008517376421	0.6387070362126501	0.28164823761239155	-0.8085940085072069
upon	-1.1870996656355775	0.44238086079464656	-1.138934302439783	0.7104029046868805	1.2950149491646432	1.0353398111454848	0.2929614838911072	-0.04377558208012167	0.664600152369754	-0.523982331574627	0.37070343593359706	1.1239019303618145	-0.4870830267916057	0.1784373066607079	-0.7368295654855489
each	-0.2391991933384381	0.6679863788129707	-1.448990240161006	1.0584471894389151	0.44757947211966054	1.7230010634410116	0.28050360268074925	-0.3850000224311166	0.3126903893507888	0.8738571250585461	-0.4476632183676238	0.970011645125451	-0.765987058566695	0.216926649095593	-0.9194340184436323
next	-0.5952923757591466	1.3715739885979192	-1.0045596170958464	0.5716770481176504	0.3106101133424778	0.39019678006317204	-0.039989830824484596	0.936836869773578	0.05298628934964392	-0.7492430929636298	-0.7429366413614206	1.0298216458987621	-0.03544918093537855	0.15490364695340242	-0.05730875910884728
great	0.6968880140903438	0.30459861596470883	0.263311855019695	0.8800584742949829	0.6946088242580977	0.3479988696629154	0.019006618894056748	0.5081943980846226	-0.5663809478355302	-0.4732550268808269	1.0016378732447875	0.1910917127929891	-0.11988066717942347	1.0875851158210073	1.3785881418691965
thing	-0.10271657530178613	0.8838385772857089	0.38339112329454905	-0.4449204759156168	1.1822791296147435	0.2831175015109769	0.5248780525657701	0.34658503374195127	0.1896815845692853	-0.07978427792973472	-0.734223636652092	1.3489258978501413	-1.565040487637076	2.2380369973234426	0.3644677369324199
`	-0.29488204077512226	0.12706350482974954	-0.8446411984965826	0.8274059218690559	-0.14809413982009678	-0.20376395042579887	-0.33404770490398195	0.5807765821505355	-0.9611732390344431	-0.018248953426016346	-1.8861588543681043	1.7406586629678649	0.6611436603079489	1.3824150993996929	0.02325458267526237
'	-0.7793030085752465	-0.3246918029444711	-1.2157223979280385	0.5613720552601213	0.020404213111485825	0.6550627368239432	-0.7380573879068014	0.6318738713998735	0.1674781750104269	-0.09269575787483053	-2.3132616084319695	1.8991662716315345	0.1838928214426392	0.4173642165565967	-0.1661775405608562
was	0.02094521458139459	0.49086911134526406	-0.5096062586005273	0.1162049920422617	-0.7974251513482181	1.458307904519646	-0.9993207179205762	-0.4350660544422833	0.7861100791107327	0.500971328659469	-0.21106999237456348	-0.23487946375167257	-1.3831033685621417	-0.695867521591027	0.5736982072437515
one	-0.3918753129381894	1.4325149218476168	-0.2880964853078707	-0.4488171400501054	0.2233067122191883	0.11213640082929266	-0.2275444608056464	0.031297330641188614	0.06596705944302374	-0.22638205678869155	-0.6688899234439508	0.40464776809404834	-0.5619502851898512	0.912853563902528	0.0895131507053481
films	-0.028943698407260465	1.4869039416691827	-0.08996132071441876	0.5726074993464507	1.3241749084469294	-0.41263927099840725	-0.39596225896430326	0.837848180010494	-0.5350839643609833	-0.3309155669679511	-1.0784683953808085	0.6273023099638938	0.11734203830930792	1.2292915402107734	-0.3087465940774973
year	-0.3833998236115014	0.380593895051286	-0.16507035713294982	0.307924589720302	1.5960376366630498	0.3238877045204046	0.7215716587842085	0.06806074748426763	1.5174877205918524	-1.2881048781534308	-0.831994964998554	0.8291582885064688	0.4376578717475484	1.6774970157460072	0.3112627061452637
really	-0.05424227761616429	-0.6003173477202202	0.6785350552017292	-0.45942136260353417	0.8820268292887086	1.7395461753659487	-0.6042809399190953	0.5047318817462785	0.03283155660413542	0.3349269770139799	-0.13522410491503473	0.3083673122664853	-0.9985183850706673	0.6582722674322847	-1.0436139354182665
pretty	0.6426462182407526	0.605068728930641	0.6596402974489324	0.39740956847589004	-0.2445819523684373	0.33302562073215525	-0.18781998883199946	-1.0080461456484575	0.3633213157535468	-0.9964255965588995	0.5962869128583986	-0.11652052236852045	-0.6247003057571133	0.4687327166414085	1.1136986456443005
actors	-0.069574005297669	1.343287304307878	-0.47272870284353424	1.328577646994838	2.129577229164253	-0.14053206411502928	-0.7066819919402897	-0.9792838480324613	-0.3178851297716546	-0.3257449155205306	0.23649700820118186	-0.49490182790740256	-0.5828091333771606	-0.551837321619196	-0.47812338071308746
fantastic	-0.0716182774455123	-1.1400734290689507	-0.966731803731093	0.38997839617559216	1.0239353742979656	-0.1720383540707836	-0.5314389897153455	0.6967781299847609	0.4980039427185985	-2.5141097891603925	0.6810822862407059	0.2882646946594674	-0.83206721039741	0.8656383311860052	-0.965285930493317
they	-0.5669436011868719	0.4722410774154112	0.7345036343906003	-0.29428740654102103	0.3889324834057335	1.142103638901875	-0.9617138036868141	-0.25144968705368453	-0.8036671255691793	0.6669901528338236	-1.146194360632076	1.126031964057944	-1.7008677029231358	-0.22129694071083805	-1.5893810025502184
what	0.29149061813578736	-0.04230879492418756	0.015283699964740535	-0.8344918757261269	-0.16536833887872215	0.7442986587136	-1.477670513006811	0.5300135688645782	0.7272188530689624	0.16871402746961173	-0.21317333358464363	0.9735221069467532	-1.2447118066893124	0.22152727502387382	-0.0002625516797905014
makes	-0.17461025365470523	-0.07359169545926092	0.9545886482334425	-0.0019178263144786767	-0.07821598963434859	0.8701509821364553	-0.8037183356151424	0.7221531797832814	0.6043961867660796	0.3040630656960498	-0.9099178139123819	-0.6825902893632638	-1.0481795072094886	0.11327935155436986	-0.7909762078070297
worth	-0.5380259511737379	1.0172108845987333	0.40189854433330274	-0.38140410628763743	-1.8941144851601344	2.5512555268164636	0.08823742200483575	1.031519891024619	0.18173730651850212	-1.0650308302307567	-0.10956145666658379	-0.30415026409184576	0.406783160155024	0.9603738318816784	1.3590218877105618
trip	-1.177394703354235	1.6448830008329378	0.7110105412545973	0.703392046380991	-1.3085303101214476	0.7492925757046967	-0.04854814504333249	1.0242434859304321	0.7960570102665632	0.0911156526166208	0.9155601299269023	0.9096795729473197	0.6249200747693296	2.186292668380102	0.766616266230838
theatre	-0.37244454791407566	-0.12789148577268278	-0.8996458068043879	1.5159177319473862	0.7128213516001598	0.8325475101484926	-1.4887479000298287	0.3587482670771504	-0.4983487858820161	0.5956338479927392	-0.6312070110928614	1.2012518113176531	0.9117539536517554	0.5747192889192698	-0.1326507987014064
-lrb-	0.6192686065952675	-0.4148842014748214	-1.406844824636726	0.6121705548976193	0.1153398725909669	1.095919217767626	-1.556633677898316	1.6055063140154027	0.1626470686647102	-1.8344628679191068	-0.91649067701234	-0.5903321876954795	-0.25907760959439563	0.29967511307795114	0.2976117250547901
-rrb-	0.38041426492592334	-0.42137809591824116	-0.46807125229125557	-0.2433326306185123	0.515578790045559	0.6751375320842723	-0.4251585381266646	1.278858298021712	1.0383517676399894	-1.5577687100624078	-0.4403894684406859	0.36099808520029175	0.3579172509775205	-0.3219369998427917	0.8595081093501764
idea	-0.18817571698932856	0.12837138031607354	-0.5260256546091225	0.32222985248116565	0.17154119555638048	0.1727602565752422	0.033616082737984554	0.47479396190483547	-0.3796356903989393	-1.4044239317773228	0.5287333920626829	0.9403151526634019	-0.7183918254140442	1.2873228427670778	0.1908347363351648
making	-1.1511752543604332	0.210709474324453	-0.3406921810615491	0.862608271821043	0.4560039887904342	0.6690979124263225	-0.0294237977816193	-0.15236170260587925	-0.07035515499001899	-0.4331034384541932	0.17485441227771992	-0.7801142288962631	-0.44206186857773405	-0.2888118913768477	0.3751599394009654
kahlo	-0.24884946989333312	1.762196189245775	0.23556315557721627	-1.2192530864114017	0.13767594887863133	1.2695783286074425	-0.7222391306829573	2.3933007300925473	0.47643652920190604	-1.5130393671520252	0.9305851037032599	0.35768029411521074	-0.9289216619825089	0.2181087474487563	0.32652844533618985
art	-0.1660870554069071	0.237196212671615	-0.4174477258510765	0.6920821545843282	0.8700974712725116	-0.26720554398381746	-0.5963757314993041	-0.5022757828611176	0.45034389294543914	-0.6927018943184718	0.14073417017014067	0.33724639596112893	0.08568473322626502	1.0356928605156286	-0.7910130400466084
living	0.2459478000737899	1.2282327217064775	-2.4678507562055456	0.6634175411850366	-0.5894054535879716	0.6829969181983515	-0.44751103434019723	0.04813012374272682	0.5524224823980617	0.2510081898323269	0.8602996893306185	0.3681880058915867	-0.28882333803998655	0.8884388914779752	0.3693088708014569
movie	-1.0126994578437047	0.46505648142763856	-0.4314512203586529	0.878164949053613	-0.3578269475559893	0.0581770243862193	0.04378132563487014	0.1664120661290808	-0.5179166966188222	-0.32577089383580327	0.24783962732502257	0.09175452733436477	0.10926743552994399	0.8767607714469094	0.1163908889452342
often	-0.9249223865021359	-0.9858600219946274	0.7338212449924462	-0.804679052058991	-0.3466840111010099	-0.2977419153800704	-1.122565437189922	-1.8341123227820173	-0.39276475302618397	-1.148452251803844	0.8137360960785618	-0.32861993028385617	-1.2069238333831587	0.2762644909301437	0.8811995258825672
artist	0.028222323095038693	-0.5921994674979135	-0.08867387891890977	-0.4575360778439892	0.9383605346576337	0.14609900678709775	-0.6218148602274782	0.5266569763166564	-0.12889773470692034	-1.7671699635688916	1.2805640175788375	1.5598039563285169	0.17570389948343515	0.4333296735905523	0.8950084698247334
into	-0.9151334404492599	0.6838597910502724	-0.6218679039762748	0.13241971820688625	-0.2174778163373221	-0.43255820533773415	-0.34100844797052865	-0.2751838446761992	-0.53157637286235	0.12062321487878036	0.7701242245122407	0.4793036336736474	1.2279260880407814	1.5906393009050974	0.5613397320123602
own	-2.1807589578732385	0.581890286737176	-2.3837604549879	0.7761598056499084	1.0399058265928436	-0.8538404765558111	1.4551535703574767	-1.4268268527230876	0.2088435532498169	-0.23611046039850714	0.19002800363271735	0.7083379944199253	0.4543064207446416	-0.40913993113847325	0.4600907600090762
work	-0.9378420968301024	-0.4767789653456771	0.08911601230433869	0.10321848955100438	-0.12755830659072032	0.06113846969186587	-0.3250458769833488	0.29998188285468597	-0.5841273439303268	-0.858418321575305	0.712906674840619	-0.1079421774712304	-0.1456457445948538	0.5670171303822951	0.3307122013240848
n't	0.7771213698863091	-0.45582216703606526	0.8125240982308479	-1.0708697737844202	0.36051662827611825	1.3381849560774368	-0.25164013013183884	1.0429248707292336	-0.903421697564759	-0.44743708136980054	-0.497850051649136	0.463270796114774	-1.7583618689945668	0.9290088610546416	-1.6746232287840184
done	0.060288267461448775	-0.5099330063746013	-0.9192397395155825	-0.8184620079390652	0.3533911435712284	0.7819065754247847	-1.4790058757305773	-0.08959397833527191	0.27709537731477585	-0.5614918714575267	0.31296043349887137	-1.0655975407043938	-0.7939948524191409	0.5410009533801294	-0.653059619737117
before	-1.605094117930327	1.4502973236951913	-0.27977247247389914	-1.1455551809641773	0.11006085167465235	0.8900015483522795	-0.2547540852170227	-0.44950804090316776	0.745326987539261	0.5870845998127195	-1.187884801942782	-0.5130216782016566	-0.6080965646473075	0.3172443302061557	-0.34310307266268514
never	-1.0945051822472271	-0.45460512055247115	-0.20509038429041782	-1.1662763738035384	0.5477850746346418	0.9145572030098241	-0.9298621841237869	1.134145021145876	0.9480344204260864	0.4668112841277974	0.7659063542094975	-0.2620783704215583	-1.110081415493713	-0.05029255354102169	-1.5911920760946452
vividly	-1.4605864138633717	0.3111190792752697	-0.125480094441196	-0.8275307135696206	0.6798669717519511	-0.11930829220178785	-0.4599334980899863	-1.3232854146451658	0.10199044881366424	-1.253906784966643	0.7922260850592292	-0.6934078463178017	-0.49529337016887387	1.1276050209012107	-0.6951520906294586
much	0.5477796332186332	0.24883554663098612	0.06594895221009056	-0.789113935119196	-0.506497178426787	0.7184361461396918	-1.1049979288274938	-0.9962076629182794	0.3146062569518086	0.4771922433102103	0.39371587146505016	0.576862497787498	-1.780170651434863	0.7093821459299766	-0.22667029230954605
passion	-2.2387445570595097	-0.1793464777218075	0.21918188626899276	1.5071179827832328	0.6946115025682311	0.17452885294756204	-0.0679160959256715	-0.3560906274860523	-0.812791803350177	-0.9657442057856117	-0.20828605756003477	-0.2057534563583392	0.13823054619517072	0.6971721331715237	0.41123169627300127
take	-1.1406924354690235	0.932237619551511	-0.49736457710186954	-0.2936945440681568	-0.6261341859668317	0.8550094766903087	0.4725201542285126	0.9907995459029905	-0.33515863343950686	0.665661527582429	-0.591439094040753	1.0218203200345324	-0.41448902404492116	-0.24535923980944285	-0.4686861080856002
care	0.8952009648728168	-0.28565834463532785	0.596012847773382	-0.9518815014709046	0.6196859653893079	2.7008833243464405	0.5360123845055834	0.2752357561829686	-0.9899524513692676	0.7904879125141081	-0.6504078064175758	2.138305443729929	-1.6761626747187248	0.6577182982782904	-0.16233499623100822
my	1.436718528509711	1.1103512643039462	-0.19986146272546157	2.175342567173677	0.6618484467006416	2.036255161562807	-0.667589761017903	0.3826555930620969	0.04657897836541247	-0.004191630183683931	-0.8637309124012731	-0.07368187243585506	-0.35156435709834466	0.7061565665323963	-0.7747432330416737
cat	1.3666058376482624	1.870276831637034	-0.4586108782131738	2.3621046235448033	1.647393624562053	2.0361095663016364	0.1771632344400792	1.0060503069383309	-0.855505959133247	-1.1481547159120133	-0.1899959164480641	0.2227946481879211	-0.9306604822845809	0.528393058344506	1.2132178623821217
honestly	-0.3214587051816843	-1.690158870495344	0.665529091958037	-2.701550638059641	-1.3209090164915656	0.43566034944331566	-1.4370956431347104	1.0253646907136824	0.6387750799247837	0.20128662622902482	-1.1270480388949085	0.8035394178838674	-1.4818149463561578	1.3732360302294229	0.9393854874735418
nice	0.3819393473312125	-0.08229523291284312	0.5670084164739461	0.11321710623449885	-0.42816451285258283	1.8198924354588935	-0.3981238976080643	0.8181184331811647	1.5465254447203518	0.46770746991951473	1.0035905754935324	-0.6927307833288728	-0.9825479010029329	0.973137577986371	0.9857857190175829
little	0.1065005617241277	-0.48766101994629796	-0.2904833634597243	0.8066605655640018	-0.3185268920667219	0.40803372722414716	0.13140464646958538	-0.655896534144378	0.5479333541560293	0.018406004427418687	0.49371400527094733	0.2468753339338643	-0.13126697250072644	0.8717146812095742	0.6053057074004461
us	-0.2594636610208557	0.572622385202258	0.1610228828639339	0.5661582721922649	1.0059152270465752	1.1755530152366098	0.039994677030482095	0.7341885401579213	-0.10420369890763245	-0.4958948563964035	0.3216240946324266	1.192715662865584	-0.7727394364488502	0.7435080572246553	-0.029245170772906004
examination	-0.49549311401708285	-1.0315773519950933	-1.953324092293744	0.5945598941472156	0.006487177284954626	-0.7096723261318096	0.4295735750511312	-0.7020528937605406	-1.4220958558339527	-2.9476665707775984	1.5137010564583435	1.1444912651700843	0.2805983897797488	1.697529298334351	1.6319478545974517
young	0.014298180970091834	0.6345499159547375	-0.5415201786504866	1.0408125528369332	1.0619100791690035	0.12538010226881702	-0.3978090253383947	-0.5335796497537251	-1.222045609174772	-0.4661540534251624	0.0993625395768567	0.47010545893731237	0.8894090515817764	0.7632104594321364	0.8619631625808442
adult	-0.4694436306217961	0.40284397320983545	-0.26258397599425054	-1.3252261192974724	0.8858201127206082	-0.013026625794916591	-0.8825757176721865	-0.426712322626551	-1.7015928889481091	-0.2264423434661052	0.9495738234930197	1.4527472717366456	0.3448803324094625	0.49640653910964205	0.713732037491354
life	-0.7914660857577815	0.11381692775196542	0.19907292484907937	0.6186072347837448	0.366638160325206	0.5806831120501839	0.09004398854066037	0.17887213157897675	0.32037067558789306	-0.10862215595727424	0.33703920918403024	0.34691934095235044	-0.21904131875971256	1.1657433850827525	-0.46442273425966896
urban	-1.0995329079239566	0.5561663335892314	-0.6697206309171018	0.840997079285345	-0.3980232179154517	0.1277911685628872	0.7200883622722197	-0.7597262661006111	-1.0009595307074977	-1.4561919099615104	0.7369661403912092	1.381034035350858	1.0255234598481695	2.3015009990878172	2.0694102871220124
south	-1.5810168655937613	1.452981060411175	-0.017897355623881093	0.3971718091043924	1.3772778698924775	0.145143327412534	-0.08662293418917166	1.0365077865890608	-1.7458252632100204	-0.8876958411537199	-2.2889496763839174	0.71488256498977	-0.12045079692397775	0.7337756106523212	0.9984340397887993
korea	-2.21010626279365	2.0752300240186585	-0.19727632251117377	0.3634951740112009	1.0131778146486752	-0.20744660611515386	0.679545303709868	0.12799231244456288	-0.5643624646411058	-0.8583824831319765	-1.437427096634618	1.0697498984017295	0.7726120230089297	0.7417184328535891	2.3491954632212195
through	-2.776702921953631	2.2797727715929983	-0.6391766037888114	0.8242867284132697	0.5782258408600921	0.7675337060340109	0.4759353081600852	0.3897381378449531	0.26937034425767215	-0.5013186702402557	-0.35129579003451494	0.3818602211975137	-0.2721765608510611	0.022527483460611952	-0.014710506609137836
minds	-1.3856952861693799	0.13572343832196376	-0.8697913757562936	1.9583833383208968	1.5113618946949225	0.9645594852805424	0.8563340324877656	-0.7406652292853817	-2.08600259674787	0.12658290094183555	0.6068081298907877	1.168618505079949	-0.031528431010953595	1.1004223550531698	-0.9969679643357223
five	-0.4504202746756224	1.62361672376726	-0.9324027372894808	0.4376260780308253	1.2314608366405573	-0.32562251519531726	-1.079174161345465	-2.3484849317877496	1.5751647062447947	1.023370629497121	-1.6178086555214657	-1.0425031811741137	-0.8718654630599252	1.0106211726130219	0.9900737948700276
life-affirming	-0.9896965664749606	-1.0027553487046912	0.2943565239562983	-0.44706821298454225	0.4027202140911686	0.9557609363936108	-1.1830332045966998	-1.0450311018231644	-0.02651054808698968	-0.7050052038179403	-0.005485659331370851	-0.2726245794080474	0.20230954573704568	0.6510373760907128	1.2930703300034043
its	-1.1957919918537605	-0.8527696079955271	-1.0666634262503967	0.8569562284067055	0.3656407182393918	0.36692596753912077	0.0487328498077334	-0.10408159244627671	0.9544729566231959	-0.34926594814727147	0.30131027820851797	0.8436068281965872	-0.19925765130242157	-0.046869617244214457	-0.8016012757973168
vulgar	-0.6643211177974542	-1.351687054408699	0.37602185080413597	-0.6825511399622104	-0.660294968213335	-0.8808916780734345	-1.7163417493103308	-1.7772666538779083	-0.6049715151508064	-1.1297595769465862	-0.26517998789445296	-0.5969514734617384	-1.1980168142974097	1.1297970747752308	0.8446546117518734
mean	1.2475173592627022	-1.4496950517770406	1.7631972600131418	-1.1271094369128623	0.5142777952515795	1.1965933384623537	-1.9433811805806207	0.2977508222310666	-1.0840486137139242	-0.36798574609694823	-1.4727894321107524	0.04043457446311116	-2.1552534107228114	1.0142253428680075	0.17504022902566285
i	-0.11442750859225526	-0.48003370248273314	0.6889200846138182	-0.991702225798646	-0.21336390088040041	0.9901510955521888	-1.8853948819271489	0.13040152707839503	-0.09800873931700593	0.5361395212380846	-0.9524197251864911	0.996506220780293	-1.00485074395335	0.9044755739016597	-0.26440659372433467
liked	1.024246104099692	1.5216428931629877	0.4604691717602342	-0.6637093297212618	0.9806538924766391	1.6409562273597378	-2.120197200507507	0.3719898692724219	0.9106656544166156	1.0336862255543147	-0.1849403799168653	1.1281327071718996	-0.7430152157548147	0.515540948690607	0.454091207985328
empire	-0.8765239219230595	-0.46050456022075503	-0.693974595515395	1.1057503495274061	0.7363984346053303	0.9657516412197079	-0.6901356171131059	-0.010904008055901915	0.12218759834635962	-1.5561225909539322	-1.4543996137704711	-1.1246161617319803	-0.8925411676781057	0.7697426926061784	-0.3728245612426505
lacks	-1.625078269451334	-0.946472193557019	-0.10695613783690477	0.00759961565658623	0.8438674198387315	0.23884017807249458	1.2087908660689175	-0.08379165392205244	1.8581235264781326	-1.231725626755931	1.226740173993993	0.218834243865352	0.7241918468802423	1.1775365530068131	-0.045353639558938286
depth	-0.5212129811013522	-0.6453007209158168	-0.4776698838086133	0.19852041710185706	0.9627509761141715	-0.2682076187416893	-0.3636387187352097	-1.1685534849347132	0.21130637375038455	-1.225668572582723	1.4687456203906954	0.5236116513257827	0.4545590705360584	1.3126760224582095	-0.18420639232128466
up	-0.5374657639999406	1.484148554135671	0.056618003207764	-0.24870460541203493	-0.30870509141436164	0.3010368542473818	0.11070916616692472	-0.14501290812618306	-0.6701176537189437	0.5792641893041834	1.3407078625866498	0.0785933932783441	0.34785181624989736	-0.27803067181952973	-0.7899136665582681
heart	-0.9541089264271123	0.10856075182523413	-0.2132836125251775	1.1632062127222706	-0.21014344257835138	0.9000234998333441	-0.5542499939558503	-0.337869235206355	0.008138192295696012	-0.3569894925551198	-0.17056016566623594	-0.20952800728596266	-0.6299164963067485	0.7976171194444577	0.837920086821307
silly	-0.04044938487044203	-0.8044403216560786	0.16531525800110797	-0.6730958340001287	-0.6636683559740272	-0.5993847088775135	-1.723113875005676	-1.3405991775814075	-0.1383097031907179	0.7905844398479328	-0.7407246020219773	0.4661909058450049	0.1760108536501142	1.6178731970641105	0.9040138738908974
photographed	-1.783852303870771	-2.8213086809644077	-2.4307389061079383	0.013831221460604004	-1.0741790986280049	0.9498717405307067	-3.4014210045661333	-0.20339139725139224	1.5152983052945677	-0.1270116189377931	-1.5531856079204638	-1.5525939788565004	0.6307513948120903	-0.00920843513918812	0.9234067303198262
rather	-0.005041441007202274	-0.46554364024856526	-0.7825234673360678	-0.022108705894292598	-1.4951502783636506	0.6301491377009522	-1.0895013688642354	-0.866026726636127	0.2430952979939433	0.08720548466316208	0.5124932354109248	0.3512538346512949	0.08767620854707203	0.30280753190232934	1.5387515723144807
time	-0.8988616214682825	1.2344473862700405	-0.8616716116402575	-0.9701984726364109	-0.5605867521757728	1.430352442127505	0.42455019945454797	-0.2889943913714977	0.014613497042903573	-0.5556176411792384	0.0779854508052073	0.5164751689659501	-0.3093844431390791	0.18432044700626815	0.5980431527111623
always	-0.16207616768358735	-0.40907226293574805	0.36279294410175345	-0.7265584277446118	0.35396679883591553	1.5977505169190784	-0.5994827959987967	0.6764847974973401	0.5398648123356545	-0.4785197190921954	0.49416691190600764	0.03603269798997172	-1.4210304552203192	1.1865789234794464	-0.9992847575400994
most	-1.0784244559554412	-0.27008340583347035	1.1382870907757563	0.47699376948989713	0.5066425337598952	-0.7316683762569801	0.8562444825476112	0.1810821722390305	0.11578173272726239	-0.7901905744274982	0.7376469028581143	1.664810153917566	-0.3743801612222231	0.4129620908119225	0.9452830715743928
wilde	-0.5434820869095445	0.2688105111295033	0.6873862426012938	1.373835177420121	2.160339234693647	0.9015994751643062	1.6346138052800525	1.5223316142882497	-0.014593252188927208	-1.3416798933554173	0.3407796126224715	1.4518403149127366	0.857810847960457	0.8759857137233322	2.712945052875816
droll	-0.5670857181508974	-3.0157068324431604	0.48128400177782105	1.6600344577014234	2.7817542016097314	0.5145153415250308	2.3569799657280646	0.4702604441552155	-0.5172692719060203	-3.1051518021533697	1.0950591646365948	1.5575181160326212	1.1506222500069023	2.8258693052046575	2.5795828418817264
whimsy	0.02990593517953355	-2.9450203547653966	0.7450666396853429	1.6899303475317224	3.110032194291719	1.9107561951071488	0.995251268552005	-0.7201197458916612	-1.0443803973211718	-1.8570113847953151	-1.3726737544740837	1.2630407151361973	-0.3238619607279297	1.8167481313608431	0.10941454878195622
helps	0.5759513562325059	-0.8926042550839506	0.5060206850805965	2.0929408700202012	1.3991271093357602	1.8873543544360594	0.3647370261635043	0.1308269916236821	-0.5373440717719324	-0.47203100669391107	0.7807249003766952	0.9564727055312604	0.4648425464833653	1.6108097092178197	0.2516505350885022
being	1.165854038593592	0.8266131282529564	-1.3487485816733509	0.2226577518968831	0.6844707713053737	0.1961260033817851	-0.20258028058321814	-0.2709521839993745	-0.5363815491470395	-0.451699617306029	1.2341086466303512	0.47666442194544106	-1.251872610281808	-0.343749468668819	-0.06405930610930466
earnest	0.5001526615766803	-0.6680816912206675	0.47407739064230797	0.19490078962639945	0.025741694391917314	1.3928647874149527	0.8040260085208799	-1.3462130026185757	0.05215042407738579	-1.747408992886733	1.0819025061245608	0.6805419011567706	-1.1501258440783964	-0.2778020152377233	-0.06354280571971294
overcome	-0.5166163763461883	-0.4621459566614225	0.07972514069760306	1.0306568327929586	2.594044668354501	1.3919347717368735	1.2555063516423477	-0.421438157255602	-0.8599080791248974	-1.3914218309000945	0.7875824373713324	0.3700284648006943	-1.4721828696825179	-0.31190457850276354	-1.2842373026051286
parker	-1.460475304930344	-1.483999228857363	1.1271290781715892	0.3755627411775776	2.4006790971046845	0.7564060306939897	-0.01667310400012023	1.6529896857502115	0.41973157376944886	-1.6351539161067072	0.0367670244342055	0.33845544133103567	0.028862816945371295	-0.336049251323739	0.11178179794515841
creative	-0.9042129168484982	-1.1265018073650832	-0.9789469617572275	0.9610759447867216	1.6668939941914995	0.7517762463743541	-0.7115471667782649	0.3579946002756581	-0.8790412590750649	-0.30325034181626315	0.19427277733884404	-0.14526399898152126	0.32837911535551384	0.5139547389818631	0.22088314668245446
...	-0.8358095408761488	-0.7022796148411212	-0.12106375364919819	-0.3669706034374098	0.1294087677904705	0.5927839564761286	-0.838377677390246	0.09694676552224987	0.23244335130622512	-0.5789264762384775	-0.35146151269238846	-0.2788032392387416	-0.2279359804681397	1.6675625060010753	0.4814583519689002
lies	-2.0376995426309032	-0.24936224518599104	-0.9178619209923828	1.5094377749188408	1.9375649673020063	-0.37844774253626345	-0.23134362889715265	0.746020680053523	1.6241958904226648	0.41532774130803296	0.4647558423326738	-0.5013864266138305	1.5084831019930527	1.2090591099490178	-0.5358838723015615
utter	-1.7242337142684228	-0.7574803096627231	-1.5304597189907878	0.6592793731540944	1.4430146925952596	0.2905892874121133	0.9976258276965095	-0.8495830345489727	-0.5247483679310544	-2.062387855301834	0.6026123934418048	0.6934165439476442	0.38469196228840763	2.035341366474185	0.11043529998332635
stuart	0.9932682644044004	-0.9089856675491559	0.8111160028925997	1.5105947025944804	-1.254925673623041	2.5495294702704125	1.3273266980806269	-1.487823629923994	0.7222845856201991	-1.6566110444622744	0.3673228544649692	1.033791057081853	-0.6154901986836314	2.58480860206895	3.511244471188978
very	-0.2019585549576306	-0.6209662510820904	0.5163536265305313	-0.5500017001786205	-0.18100838259000257	1.3698153469515193	-0.8624587271054621	-1.5318628242566081	0.7156928259011518	-0.9450655488560703	0.26492059212660996	-1.2687132747796261	-0.7832463749686639	0.742457935267995	1.4207208990887195
path	-1.2546217330586205	1.3393518505897417	0.4089024196092323	-0.1897474548455793	1.1829401011144867	0.9880635414976835	0.19047274524787983	0.40082371192009764	-0.6438752284323068	-1.0384020755629961	0.8007880975652422	-0.15551941480597176	-0.0685197370562971	1.3431316788160172	-0.29237816154392726
ice	-1.9075163694700932	0.893265819335525	1.6129638570737073	-1.7371841782939919	2.049867035588516	-0.9264931807786687	0.4989309578895196	-0.4690619499296314	-0.09582867966254321	-1.853478862749008	-0.5921316750128301	1.009690798064081	-0.38610709911867314	1.9429846484880853	-0.0407575496530036
age	-2.5369852401955035	0.1558798341578258	0.9080684698890051	-1.4997313515529502	1.8797358461633165	-0.7868366717597823	-0.2501747669957264	-1.3905972856110207	-1.1222290820719871	-1.7141263498721853	-1.1251778507870096	0.6426101201727148	0.017985370536684364	1.3842668400017368	0.27419097877648135
follows	-2.8042157426350225	-0.19495548108148397	0.7260586344713382	-0.8911023043483135	1.548057564870794	-0.5260007814489687	0.32658414062895313	-0.2274433712318738	0.8100174745600275	-1.0348036412057808	0.47472444301754024	0.5766114624096479	1.5366602980726785	1.6284402902549684	1.6262701173238696
closely	-1.1908650420394182	-1.2528575590654873	0.840702921908549	-0.4069507707222593	-0.11195789171893	0.5404818991748258	-0.9552615151385675	-1.7620845953571178	1.712952104510121	0.6946678924697581	0.4096355341632484	1.5967358215796315	-0.17454581043372036	1.5673603581408981	1.8388354011285692
though	-0.836771605158255	-1.2642638014105243	0.4027323847796718	-1.3274847734159732	0.4514723328583855	0.08304505618736802	-0.9100651094758433	-0.7364955916910844	1.0558401029706865	-1.1006227058703109	-0.5791381052485303	-0.04281250688354887	-1.1023110642241725	0.522355437361854	0.19875838952396896
giant	-1.3146709059340647	1.635157303224846	-1.1238771981889402	1.5571259385508245	0.49133360996532394	0.5631003827330463	-0.015470625794106518	-0.29245083388919124	-0.825759221804816	0.25841304633979323	1.6705822554386875	-0.29521579605624615	0.4521574878768544	-0.15394525439058793	0.7600515791889634
jones	-0.4602204405634911	-0.3980732879647883	0.31406496862133687	1.5718258357951593	1.9636273312719301	1.018274060947443	-2.5161292506381807	-0.6526258459144656	0.6341805975132329	-1.2744316431726435	0.5058249398920633	0.05154547151476238	0.020690611495631006	-1.6397963338045316	-0.9326429862015921
who	-0.32789995855146226	0.19795172920807386	-0.2862129102962174	0.2507259492388898	1.4423456693500045	-0.20860393914973008	-2.2904079124820274	0.048232640154491295	-0.039650026098968214	0.17477392644856832	-0.02678450033801605	0.7357680107784113	-1.1563928977718554	-0.7526750876405913	-1.2076475320813453
matter	-0.0908796583159146	-1.318290502766736	-0.2639766582205255	-1.464659356870415	-0.10902973182297626	0.6950052145580741	0.05698672603090449	0.7031248644093605	-0.03430421257708462	-2.032030179068392	0.5700505897364565	0.6647160815448545	-1.1933771875310968	0.08742248463255775	0.21279009481742206
weeks	-1.3750796456149537	0.9559326137999096	-1.0120087373195488	-0.08191204654867995	-0.3879615559639331	0.6230557402480554	1.66296484276807	-2.1969665967569796	1.8042321775411188	-0.6408572596257325	-2.2854834594867843	0.795251891238202	-2.6724312395316687	1.4241222429618328	0.08550207231454632
release	-2.4753298693717385	0.8898672727186012	-0.4670932086407087	0.8635177959220547	-0.16822119428647486	1.4586691603724038	0.29907386341822206	0.9162061804562908	0.29074897206227696	0.4688125182647083	-0.9662749992966048	0.09766470888027035	0.5842349327593431	1.1320658178562708	0.7511708157089168
humor	-1.156896096738922	-0.12143231187425124	-0.6090896420397797	1.124773824910639	0.28936704495779886	0.05215642319375491	0.8566759764443541	-0.6611575098798241	-0.0360835040834267	-1.3466266651030003	0.7269802000505632	0.005603554696648472	-0.3363083735721545	1.3425114993326128	-0.36829358089098807
speak	0.16979031786586052	-0.18366050568983394	-0.6444541592100634	1.0878231608929074	1.3233637830819378	1.3621913379432335	-0.5620434690650054	0.39216242949450114	-0.18681968889085512	1.2132656064170741	0.22631315869220744	1.3719769484527622	0.39184704860887515	0.9520162168358022	0.3090770119214705
after	-0.8916520656335982	1.9403201738537539	-1.2879539752071358	0.3030950198571644	0.7018926959181693	0.06746033876732271	-0.0011264019973104	-0.7919415231346753	0.1965793440699472	0.601557245961539	-1.1394858973110236	0.8249923679909962	-0.2296964016543351	0.8572736553395842	0.5061630675788529
witty	-1.4777615448963106	-2.031878992627276	0.17426230775077145	-0.4641137606005731	-0.34613463821280954	0.619549557350257	-2.0881037890284446	0.23626346261701414	0.8844387367099613	-0.8898453492757727	0.23183092484762705	0.006189974190293976	0.6699979636229375	-0.24642846767833193	1.1642847359216748
silver	-2.982784735757818	1.7869119801667197	-1.7799535541316676	1.2780898059315882	0.575999868338826	2.157325418960319	-0.7887336381545683	1.7541077144338135	0.6939356765279744	-0.8154613828811295	0.014172028715440585	-1.3366971675531885	1.3140325517132239	-1.187647900162388	0.9069268557537054
replaced	-0.5715364352008403	1.2600886912644962	-1.4502240573246268	0.1706064924476081	0.5753467909099721	0.1483286859848184	-3.092531250681753	1.1799593689071608	0.8509740139876836	0.5473099915049572	1.7527855394867131	-1.6110982164665826	-0.010972202373751794	0.045558719286020066	-0.5422595271098258
cute	0.40588743597271704	0.24003562498447228	-0.3043529517941312	-0.45633245349510604	0.7469857519240747	0.15358904956213648	-0.6301576365070167	-2.0036376072566577	0.21625363953611143	-0.3033436762330846	1.4811984172623684	-1.0659934858585127	-0.7065536330474781	1.1855404245945	0.6880219565774709
everyone	-0.332964449552301	0.6373375655937996	0.913504829324078	0.9374204098913914	0.9770495220515043	1.951776717682054	0.08373626448076954	-0.07500540058808977	0.16689937796774634	0.2801114132280038	0.6898774724609806	-0.5370806342499221	-0.41226044486785934	0.2505912969516839	-0.10012714919692772
everything	-0.899411969431992	-0.531954681330303	0.49454576789772264	-0.8181658372483462	1.085895327548985	0.36115065249890677	-1.3842927092727075	-0.47437183800220817	0.580386131459188	0.6753896903986226	0.5143203394581632	1.0590534862816063	-2.5786467259639716	0.5977987322289695	-0.8133981093151943
around	-0.8130465037902057	1.3666562944339546	-0.7974353592617426	-0.101054434616171	-0.09894681356114277	0.8539152341078015	0.7052051783165776	-0.9809480462928847	-0.5757684428579143	0.28150442776761403	0.2758181231744691	0.01432298454072739	0.2205462402627018	1.1584117793663178	0.7193893212227429
there	-0.1509626041652153	-0.7700204290162437	1.042980782830841	-0.5033507700479474	0.7674354202959921	1.1265256798906087	-1.7230509015646245	-0.40001787633653174	1.609650413440304	-0.678948178178364	0.0177661504303816	0.37870050495939167	0.3359076717622778	0.9777216242395477	-0.2567335308687928
comes	-1.1283606193607476	1.3005162508655177	-0.008857844411243487	-1.2796747494593745	0.4867504047635095	0.23823783616523508	-1.3290890297420344	0.46964978652768785	0.6659930864305802	-0.5076654720346404	1.0817968110239564	-0.32296057689980984	-1.8257131352615454	-0.7012687601097263	-0.37997568409870885
from	-0.22705827357229247	0.3942062456860349	-0.7858846477519386	0.8993574342456461	1.4491283726623774	-0.12677033589107212	0.022021364958841327	-0.9638045700906057	0.14091506342438792	-0.10869804528171989	0.499482930801018	-0.016249405789704907	-0.02416302948150101	-0.6523563573506069	0.6858369106817748
performances	0.05721698527455221	-0.05605388933555483	-0.7449964548934066	0.8912265826502628	1.3028322669612948	-0.41755955042119164	-1.281254710021337	-0.7765065811369007	-0.15864739804481365	-0.813484987137825	1.4277338265989188	-0.9570545559080219	0.3957215990267078	-0.8333711175379265	0.22975518306368625
lead	-0.5015707852681681	-0.11703389115460501	-1.3042490742037431	1.4021772218863673	1.4635038481862157	0.8109125144961618	-1.0662576529535621	-0.0632272051698828	-1.2590206890554647	-0.05315337710880224	1.7596094540609686	-0.2634695451448493	-0.14631938936068645	-0.4316565858835699	-0.20447262926343934
13	0.08037336311558785	0.47734155548019297	-0.3577184957068433	-0.35631996664580584	1.0077874883822395	1.3496286957002095	-0.5883504439481714	0.9630269676538774	1.601991162232229	0.13532639502265456	-0.8172170115960737	0.8737212833044621	-1.884083936646731	1.4386357905562064	0.09958524948080155
conversations	0.731914394749678	0.7884579241038865	-0.10858120680860794	1.3035254083437724	1.4452179604794628	0.07290455974917376	0.6833103221637169	-0.351016110222576	0.6067377637352794	-0.9767412961811461	-0.8506977754948455	1.358366119527727	-1.434810781083541	2.893699593486158	-0.11737984032768922
holds	-1.4144201585421816	0.5147207449927498	1.0265618785216502	0.7787669432155839	1.1542844592395403	0.47922004282496966	0.41578514105385433	-0.7536189865772751	0.4361989463252387	-0.5496916653489736	-0.08673326872945353	-0.191932783941863	-1.5342480712412352	1.487402245377401	-0.8402654895759116
close	-1.1100598030170006	1.863540104589843	-0.6016435442716734	-1.3965504706894096	0.646472440362669	0.6315039196252137	0.8498454990921737	-0.2317070184156608	0.19615215456464435	0.8627019843498318	1.7008869245939306	0.13660799608584373	-2.4291582282256585	-0.8638694549153413	0.801932507601473
relatively	-0.46525307537011096	-0.7137175654026381	-0.12883837094020612	-0.7565753843245901	-0.11534860886606504	1.7139331825804274	1.2189088561784178	-0.09557492106015564	1.4868052995602388	-0.9424990639801247	2.3806624693596645	0.27164521885200565	0.21025932349475757	0.3156246674224318	0.7845299263803654
slow	-0.9769327098553902	-1.0217091568457153	-0.16696599299776396	0.08588874158490259	-0.5451122810855856	0.5967354056915825	-0.8905310758682267	-0.6375588014191638	0.12214487665756371	-0.4041794013942827	1.1598292350302852	-0.5701640137087983	-0.054114922448908614	1.202849843124985	0.6828430291441154
come	0.13703372650368106	1.5617624979736697	-0.37895417691259836	0.16337062884261772	0.6956330226795294	0.7648190237362225	-2.1982324667934314	0.6499095464376061	-0.7647721401234766	1.148025935555859	-0.02575232497497726	0.6412731116258448	-0.13690173490538404	-0.38359655346718524	-1.3477825467013755
point	-0.5887430032065637	0.14031628526822876	0.011034572823492739	0.7552419941299128	0.6138795309926848	0.9207910198329996	1.295050536235586	-0.10034737461304383	0.8294688931955336	-0.9160049927962648	0.1183288906201943	1.2050400863027462	-0.18072276609574503	1.037293967600335	0.42343563621772573
auto	-0.8317429396410868	0.8799809206954573	-1.8965755458950924	-0.5219052659558727	-1.0977948253159542	1.9211151516765501	-1.225317280543805	-2.2880832046371027	2.747864769373506	-0.6380721059946495	0.5219648996872424	-1.2664858774419445	-3.5945023556755955	-0.3516990439584451	0.3952273373688811
focus	-0.920598819642642	0.5534573763126819	-1.5383947573521892	-0.6710119749711139	-0.7108598043048442	0.7070392144866137	0.6598780383128783	-1.329805009447807	2.064225304816315	-1.3075684277055657	0.8083323775687298	-0.30988598625641905	-1.4074855861351474	-0.6806009731824347	-0.9762249875518242
works	-0.5613537347663969	0.17588937740874275	-0.764896097096057	-0.3816159301736687	0.5656071141985071	0.7292300335504798	-0.8414082706131282	0.8370371719351254	0.9528554737484637	-0.28610869234520525	1.180026580794137	0.21006308670181692	-0.686707526683795	-0.576434746623815	0.6911993186572493
unusual	-1.0753200166833552	-1.8796929440275283	0.35038663139393683	-0.5962863050648624	-0.199240005113009	0.5464698388360265	-1.213738548380388	0.34612162551557224	0.20367999496574085	-1.2637723843447086	0.31696909914547633	1.5049065025453687	-0.43905388742504436	-0.2686490155251934	1.3115115917541529
biopic	-1.4201129363292566	-0.5690450264608427	-1.163448951703978	-0.5637065224663895	-1.3984328428066324	0.9601566021339546	-1.8431136227134215	-0.23204582895646753	-0.7107368069959585	-0.5168374693641226	0.2722076744421776	1.3090867426791257	-0.03407312184340772	0.7838966531954379	1.985699998717532
document	-0.17531455703456833	-0.12359174524454386	-1.9067487723713263	0.12008756941369511	-0.4333145031553025	0.9062506297396467	0.11858414641969794	-1.4540145721061126	-0.16148801645452557	-0.5202900589009529	1.979950601950401	0.8538222449412287	-1.1150761204316035	0.7008111891381656	0.7847914684856083
male	-1.0321805850856622	0.7131300687847779	-0.2827779840319932	0.04680175035462719	0.719488785323188	-0.05917111678543008	-0.9954877852730919	-0.35289222463747827	-1.086069917012912	-1.737663159272564	1.0639308857600154	-0.4765853328090274	0.36230618709076884	0.1183389988312652	0.7599564650088143
era	-1.2428402258223379	1.1345163819157782	-0.0916473362161665	0.3351728985250874	1.1035631556731536	0.6035339431997045	0.31915782861951486	1.1764838245415155	-1.0112911393918886	-0.3772885497185767	0.17117095578568953	0.7391570779256761	0.5762205462728635	1.5738757220544775	0.29175169993875494
mr.	-0.3204904468107971	0.2837923636577008	0.4407812557027284	1.0157211508397666	1.7114709080520702	1.1921342724478703	-1.122849028373204	1.7892614645435887	-0.035340497514374854	-3.0118661862026004	-0.2744948220228778	-0.0018277852880004414	0.013867231138951386	-0.3145607182709691	1.1796101767150025
zhang	0.28742812453640765	0.843253950018514	-0.3715471898522891	-0.5777131866673745	1.0290151050822187	2.191240026879558	-1.0062392333727928	1.758498375898661	2.218552394893501	-2.055592205340152	0.5758899946048492	0.08785458701543941	-1.3103584991322828	-1.0428356257938103	1.025156460459037
subject	-0.753926368258479	-0.2526972646431628	-0.5449398570488484	-0.4997080756751614	0.6806863461047221	0.8855266710085303	0.6779296255626872	0.37542601803433806	-0.36804283483083755	-1.142236717617675	1.7629738218612157	1.3133974060892044	-0.9270729999413105	-0.253937403302534	-0.1905674323170639
degree	-0.4269886232330329	0.3852492268360803	-0.5215143549444298	1.828733747869779	0.2838171845171251	1.2214564887609547	0.9033647962213819	0.38145912929340614	-0.9587847339405741	0.050394030148215196	2.473808879516486	0.38770179728310167	0.7671375269897285	1.8949882518972092	0.23498276331700674
least	-1.3346114710089738	0.9738161599784769	1.140569555684189	0.7501916329351859	-0.5107720289562753	2.0055251795320954	0.3783272645138432	-1.5684753978135353	1.5027890021794335	0.4700390642017871	-1.7767766617783116	-0.8087006462048778	-1.3547306166658697	0.9669989811743686	1.475482444920692
american	-1.0036761816710025	0.3627856815390763	-0.807464468834113	0.3841033142901431	0.45367278333368644	-0.27144878805011463	-0.31097906233170036	0.3225771084050176	-1.315472970447821	-1.0799946982788664	0.08126310008761295	1.057009866493501	1.1222092290202268	0.5752600776011986	1.2703252268106349
