<unk>	0.13526995583530815	0.45369852626347074	0.23321687497447582	0.2118500779609664	-0.19939386114092744	0.039009364633715626	-0.10290265925764625	0.0996235305262563	-0.18793771522809952	0.12850858467884518	-0.07165803132045828	0.4289086199390098	0.34472720722523253	-0.29585172601458587	-0.20244164157167888
the	-0.0939686324905912	0.9239823878436146	0.04613599938477664	-0.3844223328909129	-0.46860467510050385	0.16400780775318435	-0.020367693716567437	-1.8185767647962858	-0.2865716309032971	0.11193702055140342	-1.0572857388242298	1.7419201945291396	-0.01296381989688955	0.3596892523453386	-0.11118008253195
rock	0.09175482609304486	0.10335295360912763	-0.35112546884157264	0.0859534109539454	0.13659308239648738	0.1323366137765098	-0.25385721698818253	-0.37261804823178085	0.15385376758438069	-0.08008115481055528	-0.1713915111908051	0.2733152160820418	-0.21629323577717996	0.4225545530566007	-0.22345022214243349
is	1.484037778726521	0.4720979259256881	-0.855650815476183	-1.134386436012265	-1.3786355627245823	-0.02547980252836518	0.2325571090905213	-0.8716004006501469	-0.2743070884143566	-0.6310718581409201	0.5359120857097286	0.09928198136341682	0.08555076118233904	0.5077605073598824	-0.13650135715467326
to	0.07433435162444002	1.2191842083588806	2.2919948397240133	0.5794309087886118	0.28605663817784166	0.3112679437446083	-0.09996856138796417	0.07281958542248274	-0.9192863641219517	0.6170703647491814	-0.5694316880672174	0.22753888757761287	-0.7777068694849834	-1.704170518847457	-1.2038777918637065
be	0.37643852131596844	1.295639083087105	2.242590464328951	-0.31424144781743807	-0.397803717146903	-0.12984002365951988	0.2398189810241511	0.439770380917722	-0.4341742202077995	0.4251135273477947	0.553225533383549	-1.0335477999603506	-0.5561473935448122	1.0241828048981392	-0.5227901070210044
21st	-0.005520185023521029	-0.08893382094788699	0.003118863737401223	0.5015635917652683	0.3557976799742593	0.16054418062383335	-0.06796392804391536	0.10377051671694923	0.07061227117356303	-0.13776181223151157	-0.5279895138769363	0.1962520404281866	0.20466371469743688	-0.3560178404367543	0.34929460563066006
century	0.08570899229362183	0.051211641028919314	0.07909084000201316	0.07709606972146296	0.025798972909749307	0.015788627655757947	-0.4045385764303937	0.27433889400063494	0.3382179810179069	0.1365971555179301	-0.2042221845964573	0.26480496841235207	0.0510786457329275	0.1756237227801538	0.2830184821651083
's	1.711265131381308	0.10537286014505334	-1.300642779837622	-1.4977607563984596	-0.9145198993936738	0.29551196154328596	0.7976452127542095	-0.7260425423399497	-0.5662153426343802	-1.1019199758735123	0.4271406041277287	-0.04670572448162469	-0.12910668085622545	-0.2658396715561225	-0.6040395329992849
new	0.1398906036602564	0.6991551000527487	0.4996528173211589	-0.2052554048716058	-0.4497915038810333	0.3138284615653617	-0.06626038605654991	-0.5158928913019702	-0.629806368153126	-0.15265025784815678	0.14516394639873098	0.6751253299286313	-0.19830185177658544	0.2501410335517412	-0.3117519236124012
``	0.2503947879590457	1.003524024268133	0.3566195927744238	-0.7521027137850843	-0.23925845571089677	-0.21783161499223425	-0.1249999943323787	-0.0409874168971911	-0.5124941054495068	-0.06279439842238474	-0.28184652237550595	0.6067981116188907	-0.2167645611318827	1.0293664423752704	-0.1660052462126923
''	0.2182359429722348	1.0304883294368643	0.46245890489327024	-0.5124363144029771	-0.3702181518196358	-0.12649686172497449	-0.16774032600494898	-0.12397675741166687	-0.38904869740337633	-0.044156372690839274	-0.2796308790963987	0.7530727187451898	-0.27643708808640244	0.7775195121620938	-0.14878019280685117
and	0.17257330318495012	-0.9598542664859838	-0.8864762777267036	0.17707734581477688	-0.28680360117287185	-0.5922845297266534	0.3351719721227669	-0.7269735803861994	-0.19160326210586787	0.22106989621181578	-0.1555455337194116	-0.33965449548399235	0.757823458700477	0.7182174766512035	-0.8065897861102007
that	0.2657492195920248	1.0683838586345233	0.8678284911983105	-0.6767982194425979	-0.8582486782013342	-0.03782129250290708	0.08345932162029229	-0.7377348445860213	0.1328560232259901	-0.1487036599630753	0.19161057042625695	0.20445655630829593	-0.5096896452791917	0.46019212928074693	-0.2532378803515031
he	0.14134910854042004	0.6654887892932844	1.2089637057511937	-1.8183241383777222	-1.0592266615956805	-0.10056684746928363	0.5493514472207788	-0.2278192483333657	-0.19387264520595238	-0.2869048546374573	0.6886561981863111	-0.704513043274047	-1.1007445443671067	0.3959664465475123	-0.6125750515794544
going	0.0014410127338685408	0.9641576772392296	1.2883736296844779	-0.46841533381495687	-0.6346534566095157	0.35181501226113854	0.18519483879206106	0.09607407847123178	-0.21392901540115428	-0.22460784805040604	0.23887518287507747	-0.03403848946137081	-1.120855040046922	-0.03492515067431223	-0.6706789659995112
make	-0.2638406951863489	1.4527589308596518	1.8990737515051572	-0.047100875991113386	-0.6033273701978838	0.2807319610361431	-0.14751836400745638	-0.24694922511690298	-0.33778824505920424	0.4560787296012522	0.3950373004520502	-0.5768831011137145	-0.8413506953324804	0.008479417732461247	-0.6547129248378354
a	2.11223826932998	1.0587919267376773	-0.3554551610048773	0.779085426338166	-0.9811350644044162	0.11469433862318701	-0.7846867143800179	-0.5446521579466723	0.04147954427474487	-0.08159169252137577	1.2181484236478664	-0.2968066083131333	0.3841747094203203	0.914517777119362	-0.05947550947114655
even	-0.5148576238895254	0.13341389035244286	0.8421213771562404	-1.809499511150939	-1.2998005197128153	-0.36282205399370726	0.45079825481142477	-0.7136324513434835	-0.3404429413421324	0.377013457916102	0.503780567697177	-1.1270388995235654	-0.5842430364770086	1.0871013879009528	-0.5363259904276522
than	-0.05632584510414218	0.4934129313751524	0.30748936685133843	-0.024021697317773205	-1.2570199364090937	-0.16292765151567123	-0.4377332354813635	-1.130940729770527	-1.4135370971233072	0.5251502776100576	1.8533302120048385	0.029897033961058028	0.31569158311804063	-0.037356681632583315	-1.0550319687028358
arnold	-0.15575153132155106	-0.17835392434393893	-0.16399396638415153	0.2469326890318448	0.018476766704099257	0.29086881938838505	0.2507496485071235	0.4448826268900785	0.24563306337452967	-0.13609110957344403	-0.2494804812212555	-0.31161799213066166	-0.12706442206375776	0.208195442859922	-0.029478033331007514
schwarzenegger	0.007919718398536335	-0.18397935021758288	-0.4467729307230195	-0.20005327664090553	0.1722294967340069	0.07470337763574642	0.1398488953326477	0.30665123627373025	-0.13567619887076166	0.01015629169385468	-0.10618555214774361	-0.1984168224899336	0.2610246944048783	-0.4103470161134182	-0.14317035824930335
,	0.18826774410922065	-0.8201977062156671	-0.8228094405722038	-1.0425658932400652	-1.1513939781398037	-0.5644905375093121	0.37641364770464397	-0.2788633702329627	-0.11663548819831046	-0.290683518879782	-0.12934491204055876	-0.24402055217304888	0.30718532614490424	1.7333523150508894	-0.3976190437796527
van	0.19056183119046644	-0.19781380913178015	-0.12000108339430732	0.1114781068113182	0.16575625913626169	-0.08011016463214338	0.325034100797165	0.5775389493940439	0.018089664980290077	-0.3554579548313854	0.11568237567917483	-0.25022111302112165	0.23610589130253545	0.18449191341825494	0.13538534002483849
or	-0.012316472561658354	0.11954376074390394	-0.029830355506564987	-0.4977430840841037	-0.655297382342628	-0.11636008467170358	0.0642437258368985	-1.0745440270561928	-0.5850347556074607	0.3923068474195971	0.17425574254596377	-0.16043957873042344	0.042986647020869906	0.46474795659129936	-0.6697199457712738
steven	0.28937787441763696	-0.14998242801938133	-0.2603204035433144	0.22350449057449676	-0.19481373052268236	-0.1263714796124663	-0.05629885863771465	0.38726657410006093	0.09168549764676415	-0.15285984284235257	0.10923246454889729	-0.3021216563406977	-0.047819397735504005	-0.022103286397733346	-0.08689835943056912
.	0.2668958293915846	0.24997546021683376	-0.11916553631875498	0.7369773453595458	-0.28863751439933044	0.09643706204028946	-0.21695973211840858	-1.5380316536767207	-0.5074242092528697	0.4209656064413349	-0.2946482852845913	0.6309396307186876	0.47452649423574167	0.16229429758375238	-0.7974259037825171
gorgeously	0.31854047335873104	-0.0070273298398094985	-0.4890666723832783	0.45057615676111795	0.14579009725164538	0.15789223568051797	0.07337212735841402	0.2887378320165833	-0.040335321716528816	-0.03809477867232128	-0.0317456153204867	0.035278508323552185	-0.12810929801550291	0.04338895137898359	0.4140803011523033
elaborate	0.06575383393174639	-0.10699284853891304	-0.21719418399174298	0.24123633336958278	0.10757670092854144	0.1307282701175837	0.13698897955642161	0.35342307701507925	-0.2111487047129074	-0.07877748127554275	0.010746892797055985	0.11453351753419111	0.08104413101470948	-0.2509250389290241	0.05841933895920692
of	0.3862065020099381	0.8830660357922182	-1.2119417868744138	1.0035190544183485	-0.4743770539855663	0.301248296647461	-0.5945177365386016	-2.4108194591539274	-0.44984861341501264	0.224154763324077	-0.7680617427480847	2.4472757809658168	1.0770386036998223	0.5792978905119337	0.3146218007213449
rings	0.02941982244481378	-0.2431253990672331	-0.3306428605767845	0.27403605788991303	-0.11282147899570749	-0.13150103888572043	-0.2713937178657944	0.002932675580062327	-0.21385511231891538	-0.4052661133109975	-0.06861404330491605	0.04117115744894906	0.1666342319514214	-0.1645123272320625	0.4888148076358424
so	0.10194934846631099	0.7160422898621129	0.4463270078900778	-0.8721127591827156	-1.041091213218922	-0.4315402542086021	0.36976580493438854	-1.252447979536194	0.0008816620023637811	0.30939248391372554	0.7018042802610517	-0.6464784423913007	-0.4749092303741556	0.6157956191136943	-0.3670207710189276
huge	0.5411508051445375	0.05709649294223308	-0.02306191867377394	0.2218039828788049	0.20205105075016128	0.14281249635428384	-0.28963089782361984	-0.16003801959536554	0.3072150005887282	0.09150985929261257	0.02885292567694797	0.09484583209175029	-0.002509629421784204	-0.0028615993106214203	0.056371119437087946
words	-0.0018134895089526593	-0.13048756422130844	-0.13118545393859105	-0.013443678490740407	-0.07138447263051317	-0.08682756076036224	-0.02635911508657368	0.029532790181651947	0.06531936615646394	0.10841184714743893	-0.025108639321184234	0.09073500425730735	0.2191416237583361	0.39034587234736057	-0.24488161332218128
can	-0.467815035527672	1.2543112670779974	2.128643668027785	-0.604946955153816	-0.8396024437588381	-0.033083992600776435	-0.013249693896415948	0.21437907140848833	-0.23687695719058166	0.4930165043834457	0.2551894643680016	-0.5733695307136529	-0.9938756195271261	1.0040272041956657	-0.2708053939771622
not	0.47899568207641774	0.7878546296916048	1.370966518249922	-1.6187460156863651	-0.9318612326769715	0.0727392415039344	0.7755869260455899	-0.35643338693997345	-0.7132122456787633	-0.10638314083831946	0.7088922271498248	-1.3084510044985878	-1.0086412409040517	0.46130670204212104	-0.9584270166723361
describe	0.36207379520617766	-0.04983396016710585	0.16895087920625534	0.36456294785611687	0.30540952501371144	-0.11981710963420594	-0.15048642950534388	0.5214825646188551	0.28482745810339166	-0.07733982960917332	-0.18932708910565998	-0.24723673422508274	-0.03865748515025269	-0.18534952782467634	0.27223597373876696
peter	0.16162501079175795	-0.4260895519870713	-0.4759642390224359	0.07069729399617147	-0.09025455107566838	0.17525353501655816	-0.1546951299505479	0.061285445448824694	-0.23146256498662238	-0.15208197281766628	0.004336784241509517	-0.22843723991657144	0.07052756207707045	-0.055631195177460846	-0.05491012004923346
jackson	0.21180258452176415	0.022492214879751116	-0.0496146663490627	-0.08776417537055513	-0.07994683581139195	-0.021784279738480572	-0.30546259765016115	0.29242492224072336	0.0007749810219973563	-0.10815611864737001	0.2999086220221986	0.17968912966642553	-0.0020363425293207227	-0.2849013288596579	0.03152498807167459
vision	-0.2089740724776754	0.038813967694501045	-0.24863689209129863	-0.21856216347573118	-0.45034064215624225	0.08703367973719434	-0.04156957191269198	-0.4955189467180678	-0.10262725964785904	0.010855916998048443	-0.1310012962477497	0.554310822134046	-0.011290978189230277	-0.14049689418928907	-0.15307807074889168
adams	-0.25123433555498215	-0.46172059987704794	-0.6283204193658372	-0.2446734721844333	-0.045968660854097454	-0.20093758561416641	-0.31377196739569924	0.04801589115235447	-0.039952141342007974	0.15116565030290072	-0.12315972426746102	0.030556848445149776	0.15850076205648028	-0.5138726892554938	0.6758934455166815
songs	0.10967073424719109	-0.2693908028731492	-0.06815731046135237	0.3672958382397628	0.29324421440974113	0.07417687845494991	0.024071605460227657	0.17437654266278985	-0.20551035224456626	0.17211075498959166	-0.08201734344936018	0.17836729694246187	0.0722384513052502	-0.4469364219509139	-0.16969890113735486
--	0.030323781733430977	0.04000369977367545	-0.05093454615940514	-0.7695679642423915	-0.7925835933866244	-0.26515601575175796	0.35111230781567265	-0.9723813406423927	-0.3772823911323604	0.19351987659541486	0.26313255028714155	-0.5712180714535723	-0.00913966562271698	0.9051326080113411	-0.49341704392659436
few	0.1558933375493723	0.5511171109368158	0.14347782631182654	0.001965350183122022	-0.8207773733562787	-0.13908779167419527	-0.02136677754698922	-0.42643364595759153	0.04147044346685397	0.22589111472755258	0.7962160117453131	-0.3759601441439255	-0.3682326187975864	0.7487299160798043	-0.4422932876469404
potential	-0.024342268286389857	0.33388732542077826	-0.04429743530494262	0.018817051231249746	-0.16117992630546585	-0.15465806160086798	0.046430365422465675	-0.4184028025021185	0.16319704514328512	0.021987302508624018	-0.2670604967925555	0.3651759889631899	0.031827985284386316	0.21094374672528077	0.027324038972615816
hits	0.34866125451676044	-0.16810207581332426	-0.29846460676156894	0.3400119405719354	0.29271664229695216	-0.03272837818495708	0.10700582571973796	-0.0208882451905279	0.04199898718425027	0.05990190489307867	-0.012443544428635156	-0.12350980332332945	0.04475692817245139	0.0735682403094721	-0.04097880545851251
more	0.026076813806210408	0.8630289160348663	0.761421773178558	-0.1599943247551595	-1.6583545808982045	-0.34454788565453337	-0.6188210388678868	-0.8766589125649296	-0.9322561997933203	0.3940870219069311	1.6233649880571863	-0.41423009672585814	-0.113781072422773	0.12146479047598246	-0.6747685236557823
simply	0.5236312359193165	0.09045683324295943	0.7966473832022416	-1.0935083377109323	-0.681068362531754	0.11370784864786376	0.26852184518586836	-0.23174506958046787	-0.34679393536626657	-0.25934510547189954	0.8522727744611593	-0.43175891230765173	-0.22649436406595225	0.20069581012255477	-0.26785609919155007
story	0.25235182758383856	0.7926469337786382	-0.06307553569836322	-0.6313904522294767	-1.0126025523047328	-0.06073465800174821	-0.19977242823580338	-1.5096874579777158	-0.8779996929975115	0.18276943800241174	0.6563986871737517	0.20765271876998437	0.03981305292495105	0.5465005509151132	-0.3506005320815768
but	0.28703954321821523	-0.338102834831262	-0.20964826583185703	-2.0576018903591384	-1.381693842841353	-0.0005470869720126015	0.7956748977649899	-0.23871743048630084	-0.5236259089981162	-0.9663630238052362	0.09632710420126389	-0.20415316931294314	-0.4377710110327023	1.0542820356648028	-0.7638153680530158
whole	0.02311751688129493	0.8369283544224091	0.27632253556914477	-0.20153161958691326	-0.3880826008948831	0.09433185501533393	0.07369855679992769	-0.9421325395717806	-0.0005484221574685866	0.2912863349606607	0.19572714868840357	0.10717198838342393	-0.22929421549392903	0.26285183019989583	-0.23953331283558532
certainly	0.10003381169450776	0.35515808832642404	0.9622045665685773	-0.8240081500010283	-0.5471888159089215	-0.011542422463574453	0.2974786561073093	-0.06288526234290104	-0.18490400330202236	-0.16828585384348776	0.3119616267254096	-0.7138117410927096	-0.6553573235935729	0.2459663986035333	-0.4517976274328016
captures	-0.15294379592002716	-0.0727234900018198	-0.04221618605564248	-0.17889270131782353	-0.0913244501627416	0.04524146049245112	0.05050442965996557	-0.15763146203779305	-0.1359129161501293	0.128942970632428	-0.25727596197704994	0.22119860828204232	0.07822773040460448	0.250583428732541	-0.09751750140985538
intended	0.2850715341568547	0.5262713512656005	0.3449828156146387	0.17472151416454884	0.25258530959734715	-0.0940401752794364	-0.0559209248725088	-0.018118285290658898	-0.021961577591427695	0.040824085900881296	0.051928094329787955	-0.039758453363671176	-0.021137206569152356	-0.21038709010774514	-0.29402027938188924
spirit	0.2817185745416294	0.26944123617031324	-0.25707040602992637	0.21449721541940545	-0.0032079033304213134	0.04727767496382035	0.13911250200928543	-0.6639336915199038	-0.3088586142549591	-0.007824435217580195	-0.005067224175029028	0.25340624789494864	0.03765071261949046	0.35776388582708085	-0.24257983334913502
piece	0.4770996011443644	0.40434941469557045	-0.3248859253596502	0.24436336796520589	-0.23695980952844564	-0.02232656213801748	-0.26829396689242635	-0.6732473556170513	-0.34075975642518797	-0.13084852528558977	0.19294051483740238	0.6408979622874847	0.1856158152808573	0.32733548357641085	0.08899193966448582
you	-1.503182602697544	1.03288990675144	2.970353527044914	-0.6049699108285582	-1.0246370802204867	-0.3803173582956058	-0.1280873113329568	0.6931051177729262	0.75266193108406	0.8331269821686044	-0.1943026425860065	-0.7244136747155336	-1.3031575277697223	1.502021784824447	-0.24721417381029198
'd	-0.7040791426120212	0.2183671322112971	1.5692525201494931	-0.6861487157123529	-0.9016823628415161	-0.0454814845291594	0.030591679079164463	0.6344431966204641	0.5271292157964058	0.3906453629838038	0.2084522530576789	-0.9929447475455181	-0.724870622846016	0.676711223599656	-0.2672550497661528
think	-0.6939621705669454	0.9869590098343489	1.813828178741991	-0.839937393718033	-1.0597056588728893	-0.13774829832360952	0.059405503555365946	0.028551301038393984	0.06588059644351363	0.3450343858118532	0.12471033707503287	-0.5800943486789918	-0.9931222525568348	0.32021808715460065	-0.3814096642393642
by	-0.04966856332008818	0.04095591804911847	-0.21224144952325041	-0.4352215923775896	-0.43991586347218126	0.026381002734988	0.2579940184762286	-1.0761030176222792	-0.3602961050622529	0.1000113596700166	-0.37087095234364187	0.3347600892675033	0.11101863425919574	0.32159985372673205	-0.26472336846636074
now	-0.13280817418404234	-0.30665327455556257	0.19814516132690302	-0.8576417125205187	-0.6057463753322028	-0.0436337861626972	0.3161453397536061	-0.35091897851867637	-0.12066479569847609	-0.18694067562568828	0.2715977828479522	-0.2184800864128829	-0.20418532892994706	0.19278064858368454	-0.26768217855921406
america	0.1331685086055519	-0.17555004617872683	0.15350792399400381	0.14922910660288646	0.03522887454287882	0.40748086803992967	-0.08795592409425168	0.08292722174184176	-0.16354192121426875	-0.22516253528785884	-0.0877264456837239	0.14748802115198742	0.19287478797500804	-0.08349870850708935	-0.1959599223858416
would	0.01296535444915392	1.0755592654965414	2.302818579848336	-0.8050209897068394	-0.9795870970551022	0.16723910160361777	-0.09730888968115636	0.49208460927766884	-0.1221889856443655	0.2009171148727007	0.6358017381280507	-0.941014295557107	-0.9706945247090626	0.6929565270511169	-0.4812026683882602
have	-0.1954658206775165	1.0953005866696428	2.770577859245339	-0.9657765333979295	-1.0513691179342308	0.0990062619924642	0.08174233386083585	0.27365320830369944	0.6118666114074087	0.5096492604682145	0.8676331883119418	-1.197578065699905	-1.238666774537279	0.43399867490722077	-0.34885296137816935
had	-0.32258730740371333	0.5261457932071743	1.250291113825275	-0.9289986254802122	-0.8138617616042139	-0.10898565672285121	0.20675184365091792	-0.0657021860291919	0.24266823285671407	0.16681854490545214	0.5823750692820748	-0.7227767268119698	-0.7776761626164357	0.07060447999523381	-0.5411091711131093
enough	0.1466895323605406	0.6297709532210602	1.1414178673180402	-0.7753443116664811	-0.5035547960441056	0.13815363095158045	0.5417218106612836	-0.4836268646388381	-0.9116841464036322	0.014550608254834622	0.36641347499438354	-0.7009235130150356	-0.7867491869714638	-0.23520451798309627	-1.0657952717409227
british	0.037591962599411666	0.26783372821350837	-0.0623829156442709	0.05695142793116717	0.12551284711745891	-0.03346561828333855	0.2869302475185518	-0.09724614118418007	0.18266468473189829	-0.026667868191010496	-0.21056102120195008	0.32126771239979934	0.4019710542677284	-0.0015124174327865725	0.18056635014161315
with	-0.13469965125077332	0.04809290992328363	-0.6637741064331328	0.41123460934581035	-0.7291181431620153	-0.31351559526068057	-0.2511673327862837	-0.9530525626433308	-0.507708143314867	0.33851436148200015	0.3050734926490227	0.3946562706885529	0.5016361629776158	0.8273701518540324	-0.28027925216825345
hearts	0.00879182621015373	-0.3970221811445239	-0.0012689554748347431	0.603454554170479	0.27623095157678573	0.12347831691249439	-0.04260025409103187	0.2721439724313344	-0.24904357435257182	0.07960752832521167	-0.37489915441906246	0.07683617293968761	0.1849093573250548	-0.06846718582651365	0.08080402242672124
yet	-0.11929900239303115	-0.2148036522461474	0.08471789138804281	-0.7596279813667908	-0.5270527689275943	-0.35620465180883265	0.6212226784508397	-0.3856571994686869	-0.13223688738219322	0.206639764944738	0.48097769222519987	-0.8879792619305902	-0.33758690693769217	0.625359127267864	-0.5846033465160969
act	0.14602178701408086	0.2115092432572526	0.30628996123630853	-0.12015357147933811	-0.02879951240503842	0.14945683851835967	0.2817241527352699	-0.0690200531365378	-0.3028271291494812	0.1318211616717117	0.027423294354075423	0.1793124894227912	0.11197894596603719	0.1440809080510088	-0.2660613383802567
still	0.2093481945663037	0.5427329521131281	0.9736277803647566	-1.4307807578338316	-1.0610243453889772	-0.09708703245205502	0.3187279086464855	-0.02794533754644779	-0.4776798344632317	-0.30836026058266114	0.6706670933300046	-0.9779102050660686	-0.8875858231549008	0.3694834111863964	-0.6051906122085404
charming	0.4598560918341236	-0.1907856505404475	-0.18132941320661577	-0.45921150135366706	-0.20885220668383064	0.02622423472406965	0.37994905053278466	-0.8063445630050623	-0.1548541689066985	0.031053033668412444	0.4939528366830505	-0.6038585499901542	-0.137862557757019	0.5259973613233805	-0.3081767155455357
here	0.07210675273431033	0.40535891304372584	0.3449076200864648	-1.1434657248293623	-0.8996326941236932	0.06636120441946569	0.3514929150466124	-0.35995788731953965	-0.3786105665040475	-0.13912055403774237	0.5102403965479712	-0.30151803228592866	-0.6951711162061391	0.3584731630443695	-0.6009060534882478
whether	-0.1659446851866182	0.254000427756559	0.8225110513116747	-0.3495703475987779	-0.4186610353937724	0.055330058462974396	-0.09406794575899102	0.40970548987583216	-0.09526321626936575	0.03363843119307819	0.4015662517866512	-0.4160931925375122	-0.2948147258703139	0.1611693439332504	-0.4342185497966118
're	-1.5659830493184161	0.5008325347847788	1.9133246212325465	-1.4610145664931524	-1.141105208697441	-0.21527307152912367	0.23740330306819193	-0.2106473251932272	0.7638611497177777	0.7438076268143742	-0.16180516044180648	-0.8445887702140374	-1.2804299170073368	1.2341667633316242	-0.6070415988534108
any	-0.08443185905435774	0.9089847849445677	0.7824140636636141	0.1168296652137336	-0.39748982804556277	0.08530450649884369	-0.22881133583117952	-1.1206560412770645	-0.35403605284544626	0.4525437054387581	0.3085751763746215	0.32274905856478103	-0.1541694689451833	0.05406591715178752	-0.3478339766008154
on	-0.388299514180651	0.42361725872790146	0.24661838618797188	-0.029818233551904133	-0.342121582724321	0.04602729981195974	0.18352065218964148	-1.0272613189295767	-0.5604399124393837	0.2372869524064637	-0.3563670022233111	0.6733923117741688	-0.2478409210774375	-0.2955098318663719	-0.7406551193756568
other	-0.6218613505789276	0.6867717316943772	0.5940310148826992	-0.31826953125327306	-0.6052625642600222	0.06921675007174788	-0.05521414625944271	-1.2660373120119326	-1.061181178340063	0.6155681028118679	-0.031194937413192347	0.5633712136955915	-0.057190492670925464	0.40485919576880347	-0.6441542999219529
an	0.7530510856377013	0.3402398650234654	-0.3963815139572498	0.0070619259049900795	-0.3945564710989651	-0.26687226425769983	-0.1983035475793239	-0.5107994335993968	-0.18509155885409073	0.040572412740290664	0.4654936150738439	-0.2533517979190175	0.5498521594723438	0.22920305236129412	-0.09942624151824742
undeniably	0.09677626934646255	-0.475986269102311	-0.2599287707712349	-0.3011876559966731	-0.08673933043691306	0.09021531028096508	-0.06068187911459113	-0.0062377944502233496	0.16776187230192247	0.13206721874061664	-0.09233727488924115	0.04976300283893358	-0.17697595896289997	0.08675015943379488	0.04064933469716059
fascinating	0.4563117043653048	0.31399439479397484	-0.08083666430139697	-0.3441262430617904	-0.6979243754653348	0.19226976413287675	-0.17157630687990522	-0.46887651167703387	0.15640809956523077	0.06769680126549638	0.6712960990499603	-0.30279173111489843	-0.12325125626849523	1.0011255131449208	-0.09179339083792593
playful	0.4103818270912032	-0.0801460115686102	-0.5836467119551396	0.16648475792956963	0.02545265134295782	-0.26431910322372354	0.006167045054672762	0.13359240965622993	0.06169240268566667	-0.3458500359571004	0.22019964915172496	0.148173415583681	0.42578030397541156	0.02424829533647943	0.1099709565628626
fellow	-0.10516758213863253	-0.3948967634202405	-0.41345585138154867	0.29924890266326887	0.15546624900833717	0.25034795597541337	-0.21584511557848216	-0.03875317975751369	-0.28171690785159365	-0.033424158892704725	-0.2625619757703154	-0.16099403776167961	0.1376916759510988	-0.12542989122214548	0.20033515471524488
just	0.331135791344084	0.9210929813379752	1.1220713790319552	-1.2351999194602699	-1.0475045746469487	-0.2523759871658125	0.41114514395993296	-0.7838187113701085	-0.19902524252960396	0.016226942349178375	0.8474897786389339	-1.0105447189451395	-0.9136950199104564	-0.24538806780780908	-0.6861249537019778
involved	0.00411844372217729	-0.07907119880462535	0.017530913601054854	-0.2797749351660583	0.1251065267308601	-0.027084763990392585	0.0009484803102435997	-0.12257311709980656	-0.33665661025785854	0.09913040858045297	-0.15672901411130458	0.015243519200698469	0.09874928329291921	-0.2091674917878598	-0.3478438126338085
in	-0.3260567741204644	0.49613235030382924	0.07617241456909707	0.47266224513798843	-0.6071824181149421	0.15920892691531519	-0.2022690561596875	-1.2442489391527893	-0.5617683326071142	0.38687730354490585	-0.3768810578034221	1.0289378493720118	0.20406620018939742	0.7005507758203696	-0.47446804436356477
creating	0.32791434479507253	0.28690686654969977	-0.1511441825846287	0.08482974438423757	0.2912225592559329	-0.06552825655837868	0.1330205043033574	0.01871937995173663	0.04760612102415679	0.06517096563931546	0.1761529881082704	0.19282248072226763	0.42167840498090725	-0.12471152711348271	-0.06972852196436696
imagery	-0.0019022624615822048	-0.3178620741410464	0.061458538784319505	0.1657662051459538	0.1981957747488231	-0.22125098210820324	-0.22531015899906603	-0.0820274921938971	0.22072746426517786	0.13419008749439318	-0.21249049181765778	0.1953948007181363	0.07584747796691219	0.06518322169412571	0.35513740864305343
this	0.6632488205779439	1.655136329056007	0.3455187941674097	-0.13248240853962576	-1.401315459930238	0.22858287005967487	-0.5866925416417653	-0.9011206328286977	-0.26455066647953207	-0.18424384600830995	0.7256959398024453	0.7065562591778779	-0.1397718583937092	1.7039217082453642	0.37429951108119686
madness	0.06384986052100139	-0.29990022850897874	-0.3972537787962295	0.2730533921354767	0.2478061789690177	0.01102472487301942	0.2997346013520521	0.011414505318439766	0.15197268420890706	-0.0214554809819425	-0.008567642054662594	-0.00029753086895850656	0.24309069568333955	-0.051946371072647185	-0.15207106212538835
light	-0.10112802463838555	0.2142861056353371	0.14045478086261415	-0.4045108408197703	-0.5540690772721202	-0.11679511465147398	-0.08948506975891744	-0.2580516796929695	-0.06139669332158776	-0.10209524386891766	0.2910611024429687	0.05545504636218049	0.08703614850231617	0.19037908184206118	-0.12102043596011036
astonishing	-0.15200382363829545	-0.32869876449871954	-0.18575524733286453	-0.15784983824761534	0.3631961259416766	-0.21962064223151742	0.06318617475144624	-0.1432064299138538	0.12613918846257266	0.14650198051772562	0.05907704027318106	-0.3254222322939119	0.04082386878074859	-0.1224928072367667	0.03253042677550089
part	-0.04495735531965117	0.7979694384260747	0.16322962709175987	-0.2910600999394519	-0.5295508421741731	0.06619945633302665	-0.033165759348200374	-1.2584663131178315	-0.19041879106364065	0.054135880651749235	-0.08334198406554216	0.7760402927242513	-0.0997548064318321	0.7118419504593146	0.22000436133586254
charm	0.0711743661448141	0.10148280857637693	-0.20802462182906617	-0.507201699676631	-0.4544473654642438	0.27416633768930787	0.010080202215873857	-0.6616603177868469	-0.17462410334552747	-0.052558817562812055	-0.15252190836553592	0.4566520282229819	-0.062120918308059436	0.08626182395748758	-0.14522013467493844
rouge	0.08357223738332831	-0.2666130285616377	-0.14441777470893774	0.06830117908584439	0.5705082856280962	-0.04885063419501645	0.2702172505337644	0.1192788434827676	0.09944459957891896	-0.2234483838652871	-0.05840263134686685	-0.2666769300077693	0.10201643279357897	-0.4687986482575739	0.39625986900396676
it	0.9144621468205008	1.0732363005767738	1.5985909818352815	-1.7828275760378007	-0.9482417439678172	0.1784704952580008	0.6712102151080094	-0.2048487620557837	-0.5259773035381701	-0.4682105720501709	0.36952401019145836	-1.0674166510619205	-1.0158998397077208	0.06621552291049393	-0.6231100464431933
avoids	0.2545625344464736	-0.0008394795059521037	0.0694008672224603	0.09397315827816008	0.4666874538987623	-0.09958902370922695	-0.10933474279023087	0.07528947056442037	0.2829560688693821	-0.02400390256306678	-0.24640078048701963	0.22728089232761164	-0.13762832895027408	-0.08647868389195726	0.245465607501494
obvious	-0.09083144320814596	0.06549772416263079	0.004186886713769877	-0.44153540215191717	-0.25836093390795867	-0.252811526518509	0.17905164196059917	-0.392780428930614	0.038782790216232044	0.2539020845223626	-0.010496930534906412	-0.24524888128178998	-0.03147029809476953	0.09773293973661752	-0.29958745369512596
humour	0.11062484412435336	-0.303085663975669	-0.06040145195641572	0.32616179648497445	0.2836197533929541	-0.1684567085814287	0.08832024696102186	-0.05115479399996892	-0.2749921402826273	0.050829618150377065	0.16915211882059067	0.15146337413433286	0.07779981255620727	-0.032072260155859296	-0.03405568221602073
screenplay	0.1775178191570721	0.20687843412140355	-0.22629219109746979	-0.7193342196454581	-0.4365466128075328	-0.11983531983703449	0.04958596226913478	-0.7586808836172213	-0.16016332031303476	0.13858628223443437	0.3433676515489947	-0.1604403142820029	-0.14407816090949904	-0.17512399146073027	-0.4806586341736526
constructed	-0.015264617891737275	-0.29699839450277155	0.21343902396344006	0.126247220525731	0.22172601670663872	-0.23771160640736322	0.20464817409109723	0.1783764870376623	0.01592166132284653	-0.1839912618441258	-0.020832077787923953	-0.3228859500140224	-0.0039032436697165607	0.1882349298449213	-0.14802718722645491
extreme	-0.14937468649991592	-0.17151642250253785	-0.017261763950088937	0.030894239806470897	0.0573160577526467	-0.3218265113299188	-0.34687211556763536	-0.06231624673066112	-0.2522689912802145	-0.014272704492706068	-0.05435738500249265	0.2114635727363156	0.3149988551424338	-0.30015899220761744	-0.10606674715438713
expectations	-0.07438194420516475	-0.13312384968759622	-0.009936665133216616	-0.0579712651742512	0.13788172426350476	0.09129960506683021	0.23269074122525035	0.40785876779363556	0.4096826335739749	-0.19632788040473903	-0.07002546328424208	-0.116460609057083	0.1280613838321517	0.17779137643938103	0.1723969995174638
good	0.5895373047812716	1.0910377080417708	0.30449581802364245	-0.35590283496695185	-1.0657486630289157	0.4484136328114621	-0.11927614168238897	-1.503370751723947	-0.8719802478823204	0.21481372149276318	0.9616691695114781	-0.3147138647780526	-0.3458231508305608	1.0839984419648172	-0.5899443174483283
fun	-0.27852543514981665	0.5936602012622727	0.3255662245469972	-0.6240160544573767	-0.9238795495032567	0.06608591058085733	0.08694123236067194	-1.3786979657410399	-0.695516111936908	0.4474297197569689	0.7607357207878589	-0.32278716349357894	-0.47462690820261355	0.6270549998090478	-0.6092549080099726
action	0.16751260569590343	0.4606343902622133	-0.06184513180701523	-0.5185619119641672	-0.393680434862121	0.024891709157681075	0.11980121450729801	-1.0652663248699743	-0.4577769729763169	0.22700402787256183	0.14324076635559824	0.19148560231211026	-0.21777833148782666	0.3051006742929204	-0.602251229265932
acting	-0.06613139285325775	-0.12074428084533863	-0.09384972776273326	-0.8283903720066284	-0.5730724825096438	-0.0048536094527173446	0.1562025506497246	-0.8931574029604357	-0.40607029146359774	0.09489304704469159	0.2653248992227043	0.11140748285302587	-0.06952883987602487	0.7854996791266844	-0.318768219342476
dialogue	-0.17442687412928415	-0.4396418098864422	-0.3635515189808468	-0.3028319554652961	-0.681748242555922	-0.10544715986698167	0.027219723527849987	-0.6043041023892134	-0.5247219318989993	0.019997162355991582	0.0373928201028052	0.18059104302267234	0.3506740369833098	0.9309690679559832	-0.12082582258712926
pace	0.01641863168939217	0.0866435144530407	-0.5391126070308543	0.5047633547570856	-0.17699297908300238	0.10504353628674828	0.27847137528480476	-0.17361819028392095	0.14097488698860927	-0.17443154537073752	-0.1490775038654542	-0.1048063791673734	0.29675101082197675	0.39430974712349565	-0.0864472994297415
cinematography	-0.20116077658899845	-0.2936902887332959	-0.13363450685458728	0.08153712720567709	-0.3550928400270953	0.2480545433228482	0.27521412417173835	-0.16592101153382566	0.015710538927308004	-0.05169143578877394	-0.03955222240653822	-0.019093811863839766	0.2533992843131102	-0.10074911855123525	0.015417766601840355
should	-0.06748347177924086	1.1434639068975334	2.174733909804819	-0.6538309380678793	-0.563406761303032	0.10018733362598792	0.09797941259381726	0.15574543146491998	0.06337073482715697	0.5242573027514821	0.3241272942183595	-0.7489684727441024	-0.9406667261885366	0.21821919302329126	-0.2671586570177896
pay	-0.37571004765627525	0.39187658957556804	0.5654469155371238	0.40668874867185606	-0.2746438221138199	0.16061619607364197	0.03784322608215132	0.24060691321194028	0.022027289795485183	0.14190441033756357	-0.3931201205482804	-0.18334710306024815	-0.007687805941997805	-0.5992042595937679	-0.1817119205875094
bucks	-0.18545554271141718	-0.3090476109581537	-0.01897603851666463	0.4539874501282679	0.3616425024047538	0.3389885951684611	0.12641726669968548	0.19971264634605915	0.21796612311902866	-0.07809438255927223	-0.40414288595102954	-0.04625663290686294	-0.16933031608002658	-0.11015871662090869	0.1634915499597327
for	-0.13824112917954123	0.5909824750604414	0.420933414510416	0.1652221424312392	-0.46854356558138044	0.36709706439364814	-0.09657814821803842	-1.2065015882567494	-0.4263416993409329	0.26204301007478165	-0.16514798456838858	0.5520759198933078	-0.21270327316564597	0.01693084686768559	-0.45541039084778157
:	0.1385248898287481	0.7895223203374243	0.9582495409096409	-0.5135394960201735	-0.7065755349482254	-0.041534126728642706	-0.09213181453936536	-0.34230542317565454	-0.12006669250990473	-0.15143593439732886	0.4108994301495742	0.21503264259096802	-0.518945557178482	0.42237470418346623	-0.11719028421344124
because	0.1173376883833045	0.5721200659982915	0.7849946544217512	-2.0849687455869907	-1.1646085543871656	0.11084440569737475	0.6242734181592962	-0.7427549993392915	-0.0694004197648396	-0.47854328108071686	0.4048320253664306	-0.26661411080465947	-0.9214404906079947	0.2799423466142247	-0.31494634971962066
hear	0.1535401843447004	0.2511107212454142	0.3873029273086067	-0.10186637382091232	0.22691290785777218	-0.03451481697709197	0.057651017121554446	0.31762887715457	0.2172628927119325	-0.027495509270089993	-0.07481207902733222	-0.01809154599079149	0.07461058380323388	-0.09308118651806405	0.20460503745494163
about	0.17034608375594185	1.1966802683894138	0.3555169566528411	-0.12184245601632335	-0.6797342270627995	0.18949743842937417	-0.08763746913261714	-1.498386643740926	-0.42881469460826716	0.27451261574922736	0.40072260003023363	0.40671479421302514	-0.1505663789884366	0.19247018270290867	-0.2763402279457776
suffering	0.16738338446116263	0.19856025802654081	-0.25172945621482645	-0.2825230174521159	0.4044014560051289	0.008373224594281192	0.017307149904259807	0.019831857414072396	0.24344712671148844	-0.14705503281776758	-0.2740039061307377	0.2962528971047575	-0.3384118166425565	-0.5161544079892301	-0.009049425339457962
news	0.4141434280530377	0.2169033763857642	-0.14875465609023525	-0.1295002648026196	0.1570114407405938	0.208300105637718	0.27156666883693065	-0.03808535989763176	-0.3049922615931915	-0.17247038598050551	-0.16477493744706728	0.4815358733473001	-0.2522891737259148	-0.5076669259656503	-0.17426028563572538
dramas	-0.041967816961772764	-0.27884544724124827	-0.009628215702290666	0.11032564942342832	0.11301286624640983	0.045753823979498676	-0.17007667452823552	0.5254217431217837	0.006214578396173676	-0.09512136627399381	0.1370932467469586	-0.35844522422495434	0.16265857880959594	0.31489293771404747	0.11340615867005688
like	0.28984596941079566	1.2872311783206403	0.9788728620758554	-0.08191374592849587	-1.0692153307546683	0.14374739561839112	-0.6483373810239998	-0.4147289294957825	-0.5974087472127732	0.31897653082870236	0.8128100210215284	-0.3503307205634918	-0.36283562664276214	1.08957265613751	-0.3719956588761459
human	0.07409684662562738	0.3268204681515853	-0.17646331292939332	0.2269903465770162	-0.24200101827058673	0.16980967070571473	0.011830976382966304	-0.9323580155278066	-0.3234180553007642	0.28558916604533957	0.3063785303135045	0.2035753326212142	-0.17020152500671998	0.5085864605864653	-0.4049576164931885
ride	0.23246699792105108	0.4834223389539259	-0.10988887927745039	0.3442152109055314	-0.11229987442561218	0.09104353076333938	-0.16535126802076683	-0.4298237772921114	-0.14513494790698836	0.1390687799325595	0.12460778858895327	0.009269413563788409	0.16769635307670838	0.4262427166145507	-0.07098851142129892
at	-0.6932201557983605	0.21298757293192178	0.15834236405051305	-0.4014073276895591	-0.6167986329567648	0.30399097594214597	0.3884591626694103	-1.5373890340065635	-1.0489719996451685	0.3454445130128303	-0.5413082399501803	-0.05603884951612026	-0.14195929805608654	1.7823216518318254	-0.6337145585369857
first	-0.5411705152723199	0.6358631625395326	0.3143848157035623	-0.843363485014839	-0.6203731571131037	0.09060513387326513	0.23428943758894585	-1.531694060414928	-0.5503104020405518	0.35423274765447293	-0.21584268563167697	0.6595494147012899	-0.15780487831143872	0.3063734997021589	-0.35191404484960076
quiet	-0.06415747232821067	0.34121540651668947	-0.395567442625699	0.2327359133392528	-0.06586220124824593	-0.08697975326372123	-0.09644528463281749	-0.20946298382991443	0.008711226592664267	0.214302821562532	-0.2783842963070178	0.5753804169086771	0.30315823643275785	0.01268577824751628	-0.11306399301228309
pure	0.25265095174610963	-0.3126958068798332	-0.21490288603001367	-0.21829390426754686	0.27723044776061023	-0.151189892847295	-0.00041741194965032313	-0.314312191095011	0.2724823930567667	-0.17154849621138582	-0.19365926275508594	0.063095154572262	0.2719761971752119	0.02476945756024579	0.18178872224168785
are	-1.1628785329066063	-0.6989777620169081	-0.1947996275601347	-1.0856410623871822	-0.8564184707334601	-0.540109309001907	0.8920130139491482	-1.5278288495807628	-0.30259881795839383	0.6600446902394006	0.10158464770929898	-0.2247625721186134	-0.23595247194802238	0.2872691210470316	-0.9813675564061186
far	0.04721382874116453	0.4667673777361666	0.47142308523165344	-0.8844138913459025	-0.8659644292535711	0.009449294592736468	0.22396124506769427	-1.1432500251192619	-0.43682844638776114	0.31519578653298796	0.8551131072543923	-0.693915161277543	-0.43451896418444724	0.24104810774463878	-0.5186910352207704
between	-0.13998722318632972	-0.2155259197778289	-0.504488084272664	0.06340494815414391	-0.23833159969867168	-0.37603996343414303	0.16287201761080924	-0.5827021855834067	-0.3017884429161886	0.1633473911720627	-0.20336603126655606	0.368162509990142	0.4234307051379575	0.37666137505378405	0.03147703521838252
;	0.1622541756922694	0.8165069823549209	0.27162393296829623	-1.1044771928763584	-0.888294937547219	-0.14948368931729128	0.37420248574889053	-0.6758256554234171	-0.2414581421825657	-0.0902056906933785	0.4303485414945345	-0.01374849820912309	-0.3565106280757825	0.2320638860861767	-0.29415192371036825
their	-0.6309389333194183	0.2473539372870138	0.1396967845983898	-0.2920766680639437	-0.20514184378059186	0.10686165035561734	0.07302826722314212	-1.3949219694645343	-0.950958210126659	0.5762112556591096	-0.415569888957111	0.27657659307099797	0.08971455758544622	-0.15044169171827637	-0.536579752476644
otherwise	0.1003521556499376	0.08146131774916612	0.3595707526513996	-0.5932857481517921	-0.18551550959716678	-0.10065917690448245	-0.06647614855209719	0.15902992355237172	-0.3360998276099477	0.19819098620843686	0.41680146319579003	0.22836315719105138	0.15925428252540508	-0.041223121703325906	-0.3167513021152314
respectable	-0.2097186936143074	-0.17616052460387976	0.2758763383309058	0.007996910183723296	0.2734723632002417	-0.08693899533809923	0.0017450533704251592	0.1583758183645101	0.21194284219242648	0.15201426265082335	0.14921656014683427	-0.0185287122932992	0.11790539037663117	-0.4296898638837072	-0.20996356940331462
flick	0.3677625189098951	0.360401658794001	-0.0014680146560155927	-0.026394224908808536	-0.3025708849088966	0.25334153028507794	-0.1979064229297897	-0.17277642831390905	0.1559846172693713	-0.14291020375180907	0.09365925187497304	-0.12342713913166328	-0.1694964962295587	0.32048863776626413	-0.13405198333736912
some	-0.42568313285364684	0.18928797028424899	0.07483139389917129	-0.44480271944596306	-0.575715828358294	0.07040165328458692	0.15634730875596836	-1.031853025292548	-0.7226661749902498	0.2797953745012454	-0.07643946039894434	0.3848794757855373	-0.07696989583733382	0.9731340257911367	-0.4904516734033513
truly	0.5307309470871537	0.6118985883688705	0.4282498423510559	0.036381008213813945	-0.1344883341081864	0.18663076364495487	0.04041917639628573	-0.2555212996854015	0.0511149595012102	0.09823154271507667	0.030632885210529093	-0.5218255016279898	-0.1505338645679569	0.18221823406429224	0.04782267093733361
excellent	0.21297385262230184	-0.019690220707043404	-0.1368358632345038	-0.0799628542635977	-0.026783539114355936	0.14283360946190482	0.1879227921736718	-0.5460524224713241	-0.32407658729577443	0.12980437738579906	-0.11994517461799858	0.2795869796046235	0.32265981006327155	0.1898780564468337	-0.06786282954566514
sequences	0.2772749722256649	-0.09782914759109874	-0.10040086104719659	0.15005155871499737	0.21141459552766573	-0.28982235578965404	0.25793347956378876	0.10335867097277866	-0.11773367114807376	0.23779733102276346	-0.004467197185486826	-0.4398465275888015	-0.2674329289308877	0.41735461541301716	-0.35847114601246377
john	0.08194931720712617	0.1371358927499167	0.09722008757474304	-0.11690856371863129	0.06474271352483807	-0.0037395168372949816	0.06881130459933421	-0.02524674742690923	-0.10572000314996383	0.2682585980902394	-0.20347819485337904	-0.14741083796062804	-0.19747932622178233	0.2522797707992417	-0.07102943212158253
english	-0.2242988560049487	-0.5562653450999524	-0.13246731455135213	0.19159708786098553	0.12248302498966168	-0.09544326019524677	-0.12715552971039207	0.3936775937919279	0.09176104127276978	0.28121345119245944	-0.0025782539498929724	0.18086591769110166	0.22918416926684593	-0.4191496578818366	0.00409181777074108
terrific	0.22269719817776334	0.06355509046096706	-0.3061432475612476	-0.03210379481493417	-0.1913799322028804	-0.04588393847398797	-0.24736645211502412	-0.41117150385510426	0.05394621316647885	0.06469068587994095	0.3153139671115325	-0.6794220201701656	-0.11811282408205243	0.647770127956862	-0.21347971904912688
effort	0.16356453532352677	0.24122063627385848	0.01165146974487924	0.028738504541569024	-0.315982503817703	0.1528658144560025	0.059879491555790545	-0.29961657252177853	-0.2694316266681116	-0.09944753768271858	0.24881208005257327	-0.012066242176329137	-0.17714828878466587	0.24931251835402043	-0.5443939611203479
energy	0.2680926092338449	-0.055895540078660766	-0.2209496472809762	-0.2559084739976988	-0.326341605113332	-0.11379662630488746	-0.06303235750192679	-0.7475659876849239	-0.6333973594347292	-0.0555522521498506	0.1480795171912967	0.05879317941717821	0.07892795692034221	0.2462902019516674	-0.17418464382253085
walk	0.03247132281292864	0.067236366289627	0.030939899994263886	0.45571878370811003	-0.1091887156041429	0.08638287151664881	-0.010870204099836814	0.3290630590178317	0.16603758885271203	-0.003349355254735481	0.09361014873520102	-0.06346685918555015	0.12891292570959734	-0.4366335768134888	-0.10916507708645995
out	-0.17058165625008792	0.524523172006006	0.8690914333375239	-0.22020768739735408	-0.22601124708356235	0.3480621835926847	0.21711378818026877	-0.8153579100762721	-0.6643841980832009	0.19150176629607657	-0.13411191843394532	0.2986862224543747	-0.4781683811581563	0.3961299487720856	-0.8171720344971374
girl	0.31726857472459014	0.47194824533956264	-0.3356359552305278	-0.2180028844601351	-0.3361972238369939	-0.23169204401493382	0.01656923889450812	-0.10804463959633814	0.036306747147369645	-0.05440952490065076	0.29612470189624407	-0.13921027180447498	0.15582544279248212	0.4840375800261898	-0.0836573872659423
mixed	0.029961278581893014	-0.10612192273824134	-0.4019045686195468	0.07291702501297971	0.09231060246679323	-0.006192600655964997	-0.3122048551979348	0.18562267911668812	0.13939589917216433	0.16453242129494106	-0.2627059372572092	-0.2969414630211632	0.39482337460122485	-0.10234212033864684	-0.2661455779376234
emotions	-0.15799215469352024	-0.04492072045980947	-0.03899520609753154	0.2707167987549253	0.0825286473251996	-0.019590058561346935	0.046026833763142184	-0.11555344566963574	-0.3867240477344349	0.07628847066116423	-0.30208921640070485	0.0856362137166376	0.36980350179024124	0.2864727441511387	-0.1827746188427778
combined	-0.020285302433357355	-0.07785133015814458	0.04273502683875091	-0.16325895023915157	0.2143505739467373	-0.4738270693475168	-0.16501465429092188	0.23378017248192318	-0.04387312612326144	0.18760640663065362	0.24527908397396053	0.232470803686186	0.2694975465072806	0.03070898936894688	0.17973919198443977
understanding	-0.35451848363874694	-0.17058458639291288	-0.17749901926354272	0.05913307238054226	-0.06033239404787316	-0.2557521949666106	0.4378522665750413	-0.14377316088585745	-0.13829133418311584	-0.18937130382719236	0.0035227243581308354	0.14793011377594464	-0.11214774845213846	-0.09580642060784009	-0.21378452541191761
her	-0.4086644929646248	0.07014386178961575	0.12538228733606077	-0.3222357584464487	-0.35946839670496095	0.19067315656066253	0.1885591028620383	-0.7385469488631617	-0.48401448772791617	0.2950381740036194	-0.34904841138562853	0.17611602437794055	-0.15678796583136667	0.11192112079394084	-0.4152224668018205
philosophical	0.30524998673901693	-0.20098215592474672	-0.347166449142602	0.19658565936882977	0.38263754897440394	-0.4700165460159237	-0.03195769687986444	-0.0733018432360806	0.04092328606596002	-0.008250125047218726	0.06384738163969689	0.14394955013120203	0.24864828580713655	-0.08253760789375056	0.1421691418806198
message	0.06132146801969385	0.5704346924125109	-0.10680955316728188	-0.17786562167155337	-0.39030799096231394	-0.16762347561331245	-0.2551299667880112	-0.46882589092051974	-0.020485895074081356	0.023224015867769066	0.2553436906376775	0.2699923031599076	-0.11154407661337387	0.04930242503661854	-0.17055286142039194
personal	0.005604107409468817	-0.2759420827439929	-0.3100025314549578	0.029348903807429567	0.04595060605717216	-0.21724096039524382	0.03904667743944185	-0.42940952045755715	-0.1825599682697963	0.12333955834756408	0.0010621398297803175	0.16068962193484537	0.3745342936817089	0.33265528326995386	-0.08402976167044973
freedom	-0.07155787653370266	0.17259728940861518	-0.2178678055019146	0.4323105677369493	0.048673716689516144	-0.39610689726069576	-0.13936399625077092	0.32641285218797766	0.1953388451115944	0.10805134829188455	-0.1758729090119726	-0.029179551294230135	0.16402237518190899	-0.33475742020354887	0.2858696882311056
might	-0.2795250230755548	1.3444257054194724	2.432541778183155	-1.0891266075523347	-0.695098236258128	-0.0774900642257671	0.2231397897527702	0.3615090895004244	0.020489149631762238	0.6010486546950111	0.5099667697950531	-0.8348840355073162	-0.9585856119363083	0.6450106289327717	-0.3962974282835815
as	0.8433042214479691	0.5263399477905903	0.11398965154312107	-0.7270709440878887	-0.19081069526937566	-0.6109002937624797	0.343292909453722	-1.9958658311928488	1.0890586696848186	1.0365539836579818	0.006290918030420145	-2.342396904421797	-0.07010790781243911	0.33949489162633484	0.11526620720267389
absorbing	0.0991625865976693	-0.3010083234405493	-0.21159741569483848	-0.011093201078386726	0.18637144565910913	-0.11710073417444872	0.19098398245647655	-0.29768450314349265	0.08437862324662665	0.24907347599410606	0.051598893095054055	-0.43027308315845403	0.02863869045966788	-0.15713277440293902	-0.13126355937235068
character	0.38438065734980154	0.23911068709498012	-0.18721564994612527	-0.7160901908637887	-0.6196982585368813	-0.05224370749705659	-0.040325965462167164	-0.9130912434685349	-0.6529424474185881	-0.03438334869522186	0.2020359148878263	-0.1497325572303497	0.010864107368419917	0.35107081088079395	-0.375364561172186
study	0.3727465776220026	0.6245033481388569	-0.31996442357096233	0.01041134508496927	-0.07382199556066249	-0.04376527025131419	-0.25157729020510233	-0.6425808046356225	-0.20707942266325846	0.14471504316149036	0.10065914631761785	0.278558046065032	0.20999409608770891	0.5092629305379338	-0.020887547378072746
if	-1.040305810403485	0.3998752780104487	1.5025091238472321	-2.071702580616661	-1.1113844179455006	-0.4830189283245312	0.7044398097305922	-0.5544271534402826	0.8998836828876337	0.6042413715551803	0.07557002448556482	-1.583092529229594	-1.065453524078695	1.2092569427103066	-0.1817928394954178
love	-0.4829748194542437	0.9148992635454338	0.5641667689139538	-0.4632784670144013	-0.7928854942249453	-0.2626214461322989	-0.19390478805373013	-1.2823953396136734	-0.767583702411843	0.5405175107046817	0.29406839605851476	0.28115562435571	-0.08756944565895075	0.946437790809268	-0.20648501074264358
reading	0.04919393070518152	-0.39027397659521057	-0.005269967882891136	0.15389623995883908	0.13971276961323942	0.06810809672975932	0.12313259797357186	0.24084377006138863	-0.006809449148330163	-0.05863183932363786	0.42687696563980865	0.15018955285723012	0.09029560655620722	0.05464131606660483	-0.0014342953854800111
poetry	-0.15147758054200477	-0.43961118275726735	0.035210581872604174	-0.0739021197503318	-0.10320302746036858	0.019914168783258746	0.15812738211834723	0.20583750188856595	-0.011741082498827993	0.011560131986202205	0.12713006415910244	0.048390442272872536	0.32075729915080786	0.22213333735112561	-0.17622767072682066
then	-0.5284425870436686	-0.12347539601822285	0.2982662628363756	-1.0582452319851434	-0.9064120634041805	-0.4895744062349474	0.7136386741953451	-0.17054631040271606	-0.13858358001902532	0.2487515482301505	0.17191757979942768	-0.8725887753697381	-0.14551154438212294	1.325138732973527	-0.29670688518779453
all	-0.6802820483513026	0.5869725690736356	0.6169472769020597	-1.3063916086730218	-0.8052799861658541	0.49504489800561496	0.7643540697556218	-1.733921387818194	-1.1296481432820251	-0.0075101404507389655	-0.42390362130150944	0.8525285583087068	-0.752230141567509	0.593738545364372	-0.7715191001374052
means	0.11536675736922253	0.13826595491074353	-0.05979805592090037	-0.047375080615162574	0.017772063322099574	-0.08044506691395115	0.09232708928575471	0.06449512304316712	0.09533137920376336	-0.16933017940464382	0.028111922774157305	-0.1190385863195928	-0.11040833702585481	0.006868399187214186	-0.2483581683446029
check	-0.12747117226414983	-0.43205779025426927	0.2934595088565624	0.07702968753931333	-0.13099997890054393	0.20728004001680014	-0.16351961279538313	0.23464381622975716	-0.12435266647140211	-0.14851358986075153	0.15289454745426145	0.21825366417250908	-0.4373217761599707	-0.12236838094826503	-0.28262575471865636
'll	-0.8538647477963104	0.7470594490948217	2.1116397235623015	-1.0557650089879378	-0.8508096315944528	-0.320914114890954	0.19851295924517487	0.5336297680441275	0.25159623278022686	0.4792167212253101	0.2843952173236898	-0.8795091087456921	-1.0831727568759335	1.3909071496526555	-0.3713777806289208
probably	-0.07638642614160107	0.7376208408614504	1.708700201183175	-0.7422502655434415	-0.6960812155260834	0.13602475663959546	0.14165359324504648	0.24786333349037856	-0.36478831051385235	0.0840541859330815	0.4712170617577207	-0.7045151941414076	-0.6992371596702176	0.20732621561465464	-0.5623199260518462
frailty	-0.1728947460511162	-0.09345684503943555	0.05161556395275774	-0.1236145362750837	0.016088184271425332	0.11108610567199967	-0.3072516859442519	0.43865120647755573	-0.11209931149033883	-0.3326194198759346	0.03283910536492152	0.017392502281912352	-0.06762400365022028	-0.19234236600971247	-0.12584985921829717
has	0.49053676330089124	0.7110314576390232	0.024722811576937676	-0.9529759173504945	-1.1104480938721655	0.15126518605273054	0.06377385378906425	-0.8975790004170889	-0.23701183395697548	-0.31617791392505423	0.5427394224788823	0.29945403503713136	-0.4461619090303419	0.0958942160815324	-0.20315951541756883
been	-0.011783959288593104	1.3934933206462206	2.44978159120658	-0.9108127032117134	-1.2454786478185915	-0.000763429691780261	0.10238842366163187	-0.4972003340608013	0.48285030681403984	0.15031621018872549	1.1488404325696648	-0.6148306890534219	-1.0325948230809694	0.16434579504611246	-0.18244439675807955
written	-0.172998199249621	-0.16951379351215784	0.1710790843062383	-0.33162368944689813	-0.34812349164328393	-0.28541384972111594	0.3984601163754028	0.030844511592127005	-0.056625186240433	0.2175593392967139	0.060701365399277285	-0.21342147048119925	-0.0008357709631419685	0.18246832231385465	-0.03929569958251433
well	0.29446098784748853	0.5842914023278267	0.8110633297529508	-1.4207565057150513	-0.6024594177599496	-0.2945150978424779	0.5061137598084	-1.3080796806690882	0.13908013438598493	0.7110543794382465	0.6161015195773444	-1.8206292529366763	-0.5816429517654896	0.7210490453083906	-0.34870140767637126
simple	0.3731629343777372	-0.0010070571052272492	-0.07358258871031143	-0.16075056669459434	-0.13004817262949453	-0.391623418622807	0.165583966150181	-0.23623776883931735	-0.14564128220463438	-0.07962165323855375	0.1343639018491053	-0.08804541948719108	-0.08660221344954816	0.07900124121623711	-0.03417497321545948
!	-0.18669995810972595	0.2889019534436138	0.28714519412539286	-0.24878398777643007	-0.13972628294810685	0.05699750000596493	0.18710719270774004	-0.351059828263926	-0.09677215272981188	0.21366488375866424	0.23765315052863034	0.05249073302658532	-0.4173689412511308	0.5950372444963179	0.0803703007567188
near	0.28321004292997753	-0.195446614155713	-0.0002152842598910354	-0.1686884883120851	0.25085239781987356	0.05748326109388402	-0.24570417311582604	0.012102205825806456	0.14068514836970653	-0.15236400289372592	-0.04251524607032753	-0.14688368307431968	0.16537732829550342	-0.17701838049684157	-0.280938972089841
end	-0.7213267870543009	0.622346346942628	0.9418043733379533	-0.7592512215304463	-0.8947209334733965	0.4787897888190843	0.454959156247351	-0.8452997211922315	-0.6625849639278123	0.11510929426995986	-0.37976231091618584	0.3270727069378674	-0.7097610723419006	0.8348885139131936	-0.6835882511756237
takes	0.39240380710306044	0.7061340619413601	0.20346347046054247	-0.5110120503961468	-0.4456530750223313	0.24243538170231327	0.37148942022722614	-0.5990037469932146	0.2818194591389934	-0.059615275261696576	0.12335907698876825	-0.31334752794972837	-0.4660897470286064	0.04684786452921415	-0.0740603231638659
meaning	0.09193402411824925	-0.2601811550584064	-0.08163190787891131	0.290357527054495	0.321821922104375	0.11191033652636484	0.13133312060321367	-0.1736654732643142	-0.17934156909915083	0.19060686771862106	-0.24293635008102998	0.2224924787829708	0.34346320117314144	0.025603872777453934	-0.07696619064227439
bringing	-0.21248164461106978	-0.49070042940598674	-0.26330083873378685	0.1830538071923115	-0.11419081939419617	0.03872252975320635	-0.15847485384900134	-0.036361484544507716	0.054301938478812095	-0.02724887791521935	-0.40752350046955454	-0.2441062459380361	-0.01539950257019268	-0.17782660230457017	0.36226397035761404
unforced	-0.2331266073170457	-0.36400103842141157	-0.5723593285893551	-0.1492777296223245	0.09925309671688864	-0.2689300682035434	0.015632581981701477	0.3756421741203827	0.008160662289712628	0.2143331014923669	-0.25645857505239394	0.05672994163575462	0.12397244097512072	-0.06453999985275022	0.30470342915496607
delivery	0.06397925199930843	-0.05090263967871378	-0.3526910704154037	0.12628763365113815	0.12072307069940702	-0.06866315521331995	-0.14640157604010962	0.08350798647670167	0.18867742841883856	-0.11773548777705481	0.03994094546297938	0.08168938297648931	0.102159839782409	0.4203066345387846	-0.24252911964439505
toback	0.37312034237342795	0.06961541974172837	-0.4392442566535859	-0.032084432337272206	0.33098540337150867	-0.05719359058951484	0.14159447336400457	0.422361546573085	-0.13168547699893804	-0.15998774506981783	0.276207318742812	0.22271036845765657	0.04340451037806087	-0.44518582412319474	-0.036600207422454845
-	0.20918937120299064	0.03085446262268504	0.3158117159846038	-0.8404625815979729	-0.7776524250450139	0.3239112388246482	0.1926830618259572	-0.4152497393381165	-0.41347565764250177	-0.43165390550252397	0.33983823486973325	0.09417466698982734	-0.3195195961667199	0.48948625945521274	-0.29572612063287096
film	0.4518595096669892	1.2788144679813662	0.517720442393607	-0.8550924367278121	-0.9656093312223869	0.029249399434417178	0.2958537510371685	-0.7270405495265508	-0.0922748642110609	-0.3431768124842977	0.29679552585527386	0.47949004408040297	-0.4139680469109901	0.503904376117727	-0.09297684925065264
festival	-0.013552612474770354	0.0952755172566388	-0.25633712818430243	0.3386572574270834	-0.23324349831992564	-0.00011759882536538369	-0.010872622792626213	-0.3630707483161072	-0.3209293799371135	-0.23441684946135305	-0.08638177000999142	0.2182589595634421	0.25697052757819344	0.059384718702588504	0.055894857354928495
become	0.1994505206742606	0.35839651527784344	0.6822003811769325	-0.4268751228452073	-0.2008010926248417	0.26683240580943407	0.11022954593763981	-0.030961979449036198	0.06687114045443263	0.1727015304772654	0.046617570873844105	-0.39094833481721597	-0.48719641894384524	-0.02087575656146015	-0.3845706385867743
fans	-0.46969595669026504	0.22865601039894942	0.16066732915862048	-0.22634692908315052	-0.5255219711281175	0.15520745565791033	0.0663325212456756	-0.5141420524606402	-0.12463780003269331	0.13471349456004203	0.04220098022898189	0.4126769038961947	-0.03738651628812323	0.041253546182092204	-0.40901912458163514
upon	-0.2113180716951879	-0.10710734366823305	-0.3396666089222558	-0.19703401098379614	-0.1373004070533833	0.001927116284322683	0.24478624068570895	-0.4529542912877921	0.16905418736183564	-0.02868522287475972	-0.3288138805328073	0.13547605200092705	-0.30199051870380045	0.04153737484362028	-0.08941060855358218
each	-0.6415541107691589	0.1800952821345637	0.5173989637933523	0.01975622425015372	-0.2218819382001762	0.06158989681427257	0.13956879323106308	-0.585834719902425	-0.5215321575206792	0.31716268999362074	-0.2997920752265606	0.22282744408979055	-0.012562088277327632	-0.20932665647763024	-0.3599783637049113
next	-0.1657143996116709	0.51929020107076	0.39861130238110226	0.08799877483265198	-0.030708476916239236	0.050762414539139544	0.11902849634309298	-0.42614907986668965	-0.30140848899236405	0.2313683050006331	-0.04470937440275968	0.566769626387764	-0.23334242017314127	0.025114447444247956	-0.6352445021435056
great	0.6013525951100981	1.0446986182839755	0.14918074458182995	-0.4329872678801478	-0.9165676296607028	0.010096594090552247	-0.12902443956270418	-0.8266169723055248	-0.546316249354172	0.0494351629314681	0.9246076018572662	-0.0573386124362911	-0.11747381625803788	0.7667345847256917	-0.1662862548841907
thing	-0.14047260434757913	1.6233673630822665	1.2623134135418106	-0.8509911554880707	-0.8507142707850931	-0.02196658319807704	0.13882377071915203	-1.3034108351918663	-0.27573714626635687	0.16798422131598906	0.3052734911300956	0.5357360851279676	-0.5679965105617686	0.8487871987260636	-0.11381101213804323
`	-0.5356075321966054	0.335048336145635	0.6427955031439283	-0.5882261788232408	-0.7858167223354537	-0.4277550240262132	0.21157264443592277	-1.4266568941107096	0.4342719746851628	0.4404677544595796	0.21301484952107486	0.27799772984656657	-0.034209760354729134	0.22411246672515117	0.15679490727335366
'	-0.8244008658566604	0.20744403313082255	0.44565760055199044	-0.4068035969711652	-0.5632489106305705	-0.37845495063645884	0.20224986678327328	-1.71392172276003	0.28502205008446596	0.5252659335890217	-0.3398386291381147	0.6477423178091003	-0.037605782200698545	-0.3737312001803434	0.009313208078266744
was	0.3998134482208587	0.9320250959074425	0.8879556370715864	-1.4428788363193912	-1.1222530424426274	0.04054640000630422	0.38918775354943635	-0.6171571956788844	-0.026499490209169335	-0.28813198324946504	0.44639814283827983	-0.5424147218040889	-0.8557011484204625	0.29821453683268917	-0.2331833372152724
one	0.15997436810915644	1.5288728814091572	0.6481124273922038	-0.9293754386459119	-1.2256712145165007	0.36193466788213224	0.18582384125967516	-1.4850659541495845	-0.6289212807349958	-0.32254934222228393	0.30310541422276904	0.8929380002213871	-0.4180173982409823	0.9901851237937542	-0.08136532377595307
films	-0.6220590679890412	1.0551326831930514	0.8207233219817868	-0.683797717084711	-0.6213801827188078	-0.04256572302523687	0.15940540136543918	-1.0318995132960593	-0.9441834111851201	0.292817521863749	0.04762996672535724	0.8617823547186293	-0.40157497883844356	0.28186185431639155	-0.5442577753278157
year	-0.23597534831257294	1.0887935718349897	0.034750721767499715	-0.34993849835874963	-0.8494826749161577	0.2944912473322651	0.14538341526921245	-1.5039735923922746	-0.87602502601756	-0.06761175598778135	-0.062253733976277426	1.0659055869768883	-0.10377798559118528	0.26804335364643184	-0.28577899273674046
really	0.05575725088866679	0.8730422226967129	1.3181929332958997	-1.4168679464950147	-1.2221615317871382	0.10840484873292636	0.08197483060131955	-0.2641247370947824	-0.550195612675599	-0.12099043265494513	0.8847549703715895	-0.6358020344091305	-1.2235126524088167	0.17665740783133227	-0.9863814933481684
pretty	0.7635020889949002	0.7164143990309478	-0.06754101014021707	-0.6657662282152867	-0.3897830605493604	0.2260471934058832	0.3921847832307137	-0.5311388048985676	-0.41186904731666785	-0.1166248309104772	0.6024298621410153	-0.38085119631232167	-0.5868234909984845	0.32795038988413505	-0.7014389658667857
actors	-0.276061440330416	0.5212647847247911	0.05147221357612841	-0.5076041156356572	-0.6076243014072876	-0.04409410720422785	0.5395099860065019	-1.338703854770267	-0.7856510193973656	0.218756223022693	0.03003399219187486	0.18785057257899979	0.08385934675820927	0.4458480670311464	-0.36264609808261716
fantastic	-0.04582256872335999	0.11721356469237826	-0.30584863394848544	-0.04808651643406284	-0.07328636297295643	-0.060654376074960936	0.08280618507352583	0.07040002426292472	0.020040185651123713	-0.3485116549361985	-0.09143265798162281	0.38266026736643083	-0.020746319782273356	-0.042442947558889464	0.05358722987440756
they	-1.0578207919396052	0.45490534767164403	1.725989553254575	-1.5336897248306365	-0.8956889536731771	-0.2998984537398836	0.43725124862290554	-0.4906716173983753	0.3002997810980638	0.6377178997105076	0.12437018385276852	-0.8678240711048599	-1.104358554627644	0.748480194841904	-0.7355417487413595
what	0.09312048692318164	1.2047508230314765	1.542596338344768	-1.4613467058545857	-1.0149819166089835	0.22815116381251185	0.34176478574464936	-0.373757087431255	-0.00041409149858151473	-0.4382463010300805	0.33231380281466744	-0.051006385003227045	-1.2705713267591079	0.3317760824946179	-0.4037131683271167
makes	-0.03187066812437944	0.9399331084567981	0.7241080311095698	-1.2354624774406402	-1.1622104679350727	0.41464460274048653	0.3241717965436166	-0.9845375656577455	-0.24197327029306626	-0.26246282261004794	0.46719024984141255	0.10155269069077134	-0.982436514889288	0.8028833883463246	-0.2580203877485393
worth	0.534963916281912	0.7884511031216862	0.40390258677862273	-0.8334296234951568	-0.624331172366947	0.38065068924522394	0.06100907096224917	-0.9826733326007439	-0.2917247718772718	-0.23651604828279377	0.3864113800359443	-0.5688423908801532	-0.5830158837095494	0.08717415946277629	-0.34623355213300466
trip	-0.14553392328381753	0.024344664509168557	-0.16003218105446726	-0.11577607004188144	0.06075345508965635	-0.0017381164519355008	0.04611455206581174	-0.3199972172010462	0.30555861410453355	0.32293190942686845	-0.10892544299535012	0.38746354625876867	0.33269472662221367	-0.29745658548940446	-0.1112994708362669
theatre	-0.1286879341616155	0.19043533092352233	0.16506907752576971	0.24974515209635825	-0.03295182205893665	0.13497686650669782	-0.18528160709991995	-0.02290888511811784	0.33395128378465805	0.0990012394564814	0.16694877313282663	0.3053809672109902	0.051084436400921696	0.09039454799134772	-0.04508700594686266
-lrb-	0.48116513875595646	-0.17955007939223872	-0.7203307739774256	-1.310086672969201	-0.9048258652745811	-0.06549223932165849	0.03454933947049432	-1.4884817193160997	-0.18304201553934463	0.1542696632111867	0.3061635893656599	-1.0815742848240733	-0.00792185563615444	-0.13635879961004427	-0.3472435102734057
-rrb-	0.32078976693252437	-0.12204293892341167	-0.7732026532537006	-0.8719998782048406	-0.8022557223005257	-0.171420737887038	0.06089753656740582	-1.34412244730895	-0.07629910694292641	0.026917114036961384	0.151212745331331	-0.8359389770640523	0.02259280040452316	-0.37711933958840116	-0.4884000655044775
idea	0.23075214686404555	0.6388337507493722	0.22218952179855408	-0.42787472559579587	-0.6435200838789273	0.20487969313809062	-0.06505786252223889	-0.95447133609451	0.06972962919596731	0.20094383968185642	0.2633315009880518	-0.05446443964444003	-0.022273197303033024	0.19889662373145806	-0.03629265286377881
making	-0.10746611378313975	0.4527380583220168	0.13326110477010378	-0.5243289114521563	-0.3878640264703731	0.0804783481843856	0.17718392942942185	-0.8993699769279053	-0.5610059759606292	0.24177579628797127	0.07500174727523445	0.19280148271626785	-0.09234869549174435	0.7756215073549476	-0.4253419162418277
kahlo	0.0560091410480113	-0.3037125828852032	0.026280024903954147	0.1834772458184954	0.5454935768378721	0.17467806946217238	0.021614187681789312	0.14520722447393505	0.2400976970102477	0.23800699758543903	-0.24558523525385034	-0.1123598707017394	0.08026414629069101	-0.0608995633008427	0.11587145540995136
art	-0.5269199917419747	0.03672939470313802	0.09591820180220562	-0.1658655105361049	-0.43545893986946227	-0.20407611044059992	0.10220111347728897	-0.9922346469936068	-0.3998271863987862	0.4857812211491504	-0.12159382519030726	0.03943452427900623	-0.058239718785532746	0.6772495859356038	-0.1706954781868748
living	0.01651627443237036	0.22550316522067987	-0.13822420013973452	0.3414289321364602	-0.27072431179829426	0.01591778920359488	-0.3483345995709733	-0.15273764098116502	0.19434690612702826	0.11116012140662493	0.09294444962104054	0.1765824382630245	0.015415929861252176	-0.030031681947504718	0.025155104995057354
movie	0.3550401193844762	1.7342646562791535	1.0684192005749333	-0.5140405956757288	-1.2406717436064492	0.20494506687038377	-0.013463106218084688	-0.8294769314161756	-0.3208710185425676	-0.1516820095214852	0.5554858203735804	0.3549364838755493	-0.46798650681861426	1.1802020931502795	-0.06112034461833593
often	-0.031330952590173045	-0.08590972813337829	-0.06383439300109012	-1.141660318485392	-0.8768380518765946	-0.22973606761423299	0.3772403694665071	-0.7058761226926662	-0.39059595753747245	0.1454113603827699	0.7761666711370141	-0.7879579766311258	-0.24063769965074877	0.5344586321333311	-0.5800655321500593
artist	0.1851759421128104	-0.04658884607048505	-0.24075449447501968	-0.1667547547481627	-0.12042097317963774	-0.279103191005819	-0.04385459695842957	-0.10860626455730485	-0.09327454798966323	-0.2626840065466052	-0.12723331998044318	0.32744399677451896	0.008702313760299119	0.2689215318660799	0.0670516771273868
into	0.2469189727144372	0.20729596175396936	0.15286065559091427	-0.025443578753330143	-0.1682749103139347	-0.024688349793010156	-0.062105913966511946	-0.4662756690310965	-0.337423534726073	0.07507156686789251	0.012220344258514815	0.47013816635821254	0.1698588245034647	0.3168150511244202	-0.19344165309266775
own	-0.9334355503331917	-0.2510780882533684	-0.25194299157583677	-0.5770029519184762	-0.3553778983806627	0.23229657510982074	0.2761240680894764	-2.3653529325820104	-1.459593839671641	0.4701018980995255	-0.5132745170337413	0.7784023261793023	-0.033383560111435506	-0.15250318601437418	-1.1267301054072982
work	0.2504369321101274	0.8216868720631925	0.5516048080590745	-0.5726043410881709	-0.6434530648001902	0.18296581032877274	0.04026339472663269	-1.1593228061110326	-0.7057231687789096	0.27350591173702	0.42653567017073746	-0.3369474087647206	-0.3412050374113137	0.4214844915144601	-0.500622197400524
n't	-0.3693082811399939	0.6392267723111059	2.1926649313977142	-1.1330855925323446	-1.0801022984445938	0.45020229885585306	-0.32947490527870715	0.2420230288121707	0.27755358960787135	0.08021338511102682	0.48761149960210426	-1.4552044670700746	-1.6872682644378392	-1.0643091284984505	-1.4812066307552931
done	-0.08737537302772425	0.33435653331444604	0.6782526581766661	-0.996444225162569	-0.5916376245100572	0.022261732664726253	0.2081641902014905	-0.4881350486723448	0.002654442774555732	0.23824946884925116	0.4410400657169987	-0.1386457968951151	-0.4771235998670575	0.33467918481959613	-0.45165601526275456
before	-0.5475770210521842	0.24356002697968201	0.9721708346213039	-0.7064925537767454	-0.3684586722048653	0.06791398552277361	0.1491758302083031	-0.43532107536693926	-0.09849195270344355	0.26596046385601513	-0.08188165323080443	-0.0475725169120669	-0.6379597061676906	0.1774241223727278	-0.40038541520793036
never	0.01900469650605463	0.5950641729408299	1.233684271003121	-1.4321413961296905	-0.7458215302093336	-0.04157098482845356	0.28661452346501837	0.07443751411042998	0.032243412032258556	-0.2912237915703496	0.13204950361461132	-0.24986464701222855	-1.080959290150811	0.15585816216581688	-0.5345757575191684
vividly	-0.05545877952770728	0.16047223561159965	-0.06951741039405007	-0.014305988869643904	-0.1542593952476381	-0.18680499723042532	0.2871130664564717	0.22171271794043468	0.30672375088262344	-0.018778112926438606	0.26782871401593483	0.43987296251604674	0.19020173298928317	-0.08549548747387542	0.21127757808255176
much	0.1637029142273283	1.4129576515752027	1.0539650619545293	-0.46378682169304386	-1.186597053940386	-0.22205103694819653	0.06431936712844494	-2.056050589993112	-0.38323571380685145	0.7343800038541148	1.426709257407104	-1.3022430896617354	-0.7360236636361099	0.20162450032192006	-0.7206415863981736
passion	-0.2979767910915947	0.20820514890390157	0.2585518929909759	-0.13987439123709344	-0.011384218172394767	-0.14646799799166987	-0.0020906468982645338	-0.3198753045098261	-0.21821893630891692	0.35454635090494935	-0.17054220854444752	0.3593797186514657	0.27642669960946026	0.1430472930600606	-0.17769406554309386
take	-0.5934007640078274	0.5089677914292922	1.3433098785788729	-0.18513711570835423	-0.41099705026152245	0.14569495791513576	0.00976601115365542	-0.454196533365575	-0.36195621971322917	0.375225817105488	0.13860579138930218	-0.2863490743436019	-0.6785913509481627	-0.20946576098736208	-0.6515287171030064
care	-0.46918874547523465	0.9542757123227146	1.5491280991920267	-0.050415068907626426	-0.5604459206958831	0.12756609914286904	-0.016091305456466087	-0.3829124754969044	-0.3643323784066649	0.32318940326795487	0.19337010536619248	-0.4936557965062007	-0.9149969702431048	0.03493080707575216	-0.7486368764213336
my	-0.30456665863001703	0.5328784640740316	0.14057868461152973	-0.2612006570143033	-0.4611289690469959	-0.024180199469497343	-0.046020162880329674	-0.17413425857404324	-0.07074615040589449	0.21816142713222203	0.05456312310068312	0.16210453855118376	-0.10410759185231028	0.21423249760218482	-0.3933592936638479
cat	0.0573644532248091	-0.1811173129139299	-0.3254935048043671	-0.20310783549347017	0.338238727612313	-0.03939531464467699	0.2961204534949511	0.09862543804810187	-0.017843328271394898	0.020789491205294025	-0.21206706410451714	0.13054320743901954	0.08761711196995708	-0.1408675711897903	-0.008338410856415512
honestly	0.012852485725895701	0.08717340718123656	-0.01108251135169136	0.1569122962361517	0.33062825916106786	-0.07753571789120434	0.06494968147934166	0.12848755475391105	0.02074109161968246	-0.0952373297505619	0.027546114150774903	-0.13222876606712478	-0.20602579937624935	0.3220119436906059	-0.1187109688725394
nice	0.2516523679412628	0.47748745397235626	0.4842431487854213	-0.31438382557193467	-0.5327613937449597	0.18634655579410409	-0.08661991892960112	0.1429747182751151	0.13012895975189867	0.026257982092073362	0.06808586180143356	-0.4536807120432656	-0.0508789496084073	-0.033591254593901276	0.028489681679182977
little	0.5749587934857947	0.9594990646877457	-0.004378698629413924	-0.07797508899213687	-1.2423375118500175	-0.16992468043411135	-0.1891988316263885	-0.8770245379889233	-0.41274944521235296	0.1034031017698907	1.4177214435695435	-0.339720278494122	-0.23542543947222375	0.521549860634119	-0.54411264200617
us	-0.3860888839898093	0.9828878608613401	1.1223636720266121	-0.005996293896673777	-0.6061857747080596	0.243035266018736	-0.13882834412149805	-0.45973081809747607	-0.5038218831014055	0.2582032078105059	0.03179067055493123	0.05749671183820666	-0.4240441257511932	0.4301928234358406	-0.3207024494780787
examination	0.38624219839918084	-0.1829969853590106	-0.6381276623435502	0.276567454478335	-0.25642423995852737	-0.04558798744654109	0.04019844230839262	-0.6162305078581095	0.05189435558034092	-0.22581872135480113	0.00815073443747405	0.6369831712554678	0.39595066748433705	-0.09057221267149972	0.2469380102200489
young	0.34810688456063976	0.6425142531751079	-0.162111480307555	0.026190692926851597	-0.29290021106596065	0.15174972058580294	0.10994116896768835	-0.6115771915120677	-0.2808699150213013	-0.14448033739504576	-0.10880265110396847	0.347789267657918	-0.054921963952873465	0.08490790651803704	-0.11649283486409012
adult	0.07617946319635183	-0.126889829586976	-0.2517097186324069	0.07190138058327089	0.08604853043093297	0.04006285212584537	0.25335078406750106	-0.2946826034107289	-0.20965047537900824	0.1983165056872807	-0.3592066495361111	-0.2919102127751062	0.45565020747226587	-0.4805026252484508	-0.06446133772736262
life	-0.2605076678917795	0.9099838262414652	0.338927159322772	-0.4194578031704954	-0.5815243226203446	0.2887571686069298	0.010664198531959754	-1.388764086859811	-1.097035483567842	0.3687087186677779	0.1751503262019024	0.3653799056812954	-0.32066697299379715	0.21828881287700508	-0.6303573327512522
urban	0.35520326585473944	0.10314759745636945	0.025893015095692196	0.1809486111009715	0.26109871001796336	-0.3135418785436346	0.20965496820484475	-0.05877090043713286	0.2731886511056266	0.012733572272272398	-0.0592541298566166	0.4343667129504379	0.07591472778755337	0.07070476560667308	0.2430837232127523
south	0.11171062131123388	0.04123972702769102	-0.12355471238151966	-0.09153776553384971	0.516395462850131	-0.38418782157637055	-0.06945530514699004	0.30331504341453025	0.060213550043007824	0.2395132699101808	-0.3786623343391185	0.02873911475830189	-0.19421348573802977	-0.29213903281783976	-0.08305574344649114
korea	0.08709638047656865	-0.18602425088783633	-0.10518379898562308	-0.19848187430190578	0.14630097276180232	0.06960467164236468	-0.3338626074633169	0.251690311817348	-0.24532549876443246	-0.03233156964613815	-0.012610893867694872	0.05576019501671736	0.14467942116243449	-0.1925369021607029	0.17296802398500333
through	0.06444270620123815	0.7570537268554185	0.8015266894203426	-0.36604164687822	-0.29506425958008553	0.3374226503375235	0.3992608135773894	-0.5981643455860516	-0.7614048935149038	-0.08821775414264776	-0.27229340414595227	0.3866446272440515	-0.40322543888115414	0.04228183678239862	-0.4426092462383776
minds	0.08428306556327625	0.13742137461575907	-0.14047717512517435	0.5368773167442307	0.318910378193514	-0.014839776748801103	-0.24512030326599632	-0.1289994943924433	-0.23661529523447858	0.11194846083803861	-0.1784643602497733	0.28738888635152066	0.35524571310096664	-0.3174328227560434	0.21996385069871138
five	0.10530372816358524	-0.13440112586443656	-0.043775390963518235	0.056784169032405366	-0.23464859304526675	0.03211292664763182	0.41772061082713896	-0.14712925943653812	-0.028790105043740133	0.17789947186905838	0.027859381124793026	0.15938755260373422	0.18393302100375805	0.0693591766697545	0.07330671286746737
life-affirming	-0.07942229680684387	-0.31871427770182936	-0.3288072730006553	0.1707300443190119	0.4140345343324825	-0.021010924417935006	-0.13942597045743704	0.06355491637890402	-0.36991996127716675	0.11775302005551236	-0.1341891152314193	-0.25840341848062254	-0.05886210734537928	-0.03693855959818823	-0.3657709530610378
its	-0.7541030090201668	-0.4288099605395602	-0.6662933023159049	-0.6146766635465151	-0.171485614706472	0.06739353032508	0.27944898742117086	-1.9981733569373321	-0.9584801858466362	0.2982499981602129	-1.0027875050149675	1.0442758853064555	0.41731116854496264	0.3232738816874201	-0.7714926595946814
vulgar	-0.047780975042124085	-0.30163169756860697	-0.5780816031014375	0.1685620608871541	-0.1655869067489394	-0.22699411541808961	-0.21084512097447125	0.15739040223059908	0.21968196661694525	0.0639424079804343	0.274566926586266	-0.040266717003609565	0.06466061264435141	-0.09005734504795743	-0.1449487586910524
mean	-0.3166222469803915	-0.006175288322527991	0.7111124578177814	-0.24841329564664255	-0.4304250910373659	-0.1516110025739592	0.1926232302116281	0.49038882661163763	0.20517836500040457	-0.04762803911363078	-0.012314457982802396	-0.5485810585033987	-0.40230447194533403	0.01206919731345174	-0.3312141815975632
i	-0.3239542932789671	0.3346303808504933	1.9043564872500203	-1.5364417957901	-1.3640518659567062	-0.1309146031005535	0.031818969604522074	1.033008619634329	0.8593563055485305	-0.16054594687399304	0.6347207807836766	-1.4187616368080147	-1.1708108105067339	0.7116448737866647	-0.4054228976689518
liked	-0.013981823373665714	0.2816738658422413	0.7647098460605841	-0.5574413414144195	-0.17346075680262674	0.03494843169989609	0.14489881962200882	0.18436071915553554	-0.05295604208784732	-0.05683806764491685	0.07125941021116267	-0.43918294923517287	-0.4602801251796269	0.14742236845361442	-0.21649923009084537
empire	-0.19191560519372597	-0.268957151186464	-0.16658518239087255	0.17172723340180998	0.0011782641192991106	-0.1928739655886352	-0.1518224417929025	0.5809313147849285	0.15074677585355117	-0.309159513408087	-0.007310644014958734	-0.15099607285668604	0.002304673708906968	-0.3055003784781092	0.2602604825393575
lacks	0.3502878155643041	0.544715666770866	0.08791779396218052	-0.1706793151182621	-0.26229856609522484	0.22906749427712803	0.06714045825786677	-0.11608020520531341	-0.03796806387880558	0.052313269999080036	0.09591472512220978	-0.2236503250523592	-0.15082045548560458	0.49263860827698297	-0.2341674006382939
depth	0.11694281919275507	-0.278990258179283	0.16154803832654135	0.16208089538681547	0.20690732880947593	0.12864804087688042	-0.06609343949938291	-0.29140255048046576	0.024203529656626088	-0.07429272948266369	-0.30143505180398245	0.1621249262485766	-0.01038930543543276	0.12581471567178637	0.004546147029481418
up	-0.3483179148424622	0.586617494731372	1.36892999241322	-0.17761384553715578	-0.5290367560460446	0.18261855815115846	0.04459769232028204	-0.5142833021495556	-0.459427500620476	0.25120911110293764	-0.00560573799395403	-0.04686651675392986	-0.7470347376133515	0.04124490039762907	-0.7378294539209109
heart	-0.287392219315767	0.27977769064228775	0.0451580218551777	-0.5396286709824313	-0.4473217801351018	0.05704933194528429	0.15095444914571512	-1.2509633873392818	-0.6269095446378765	0.2719675953229078	0.09574152860578933	0.36426604512296706	-0.1204285075711741	0.5602215274958253	-0.5069853114182343
silly	-0.026737907640565384	0.2092883019330954	0.03715182338402284	-0.7329171732540474	-0.9078002786230753	-0.2796380763187219	0.0859409675123145	-0.18428369499425934	-0.16321466104144006	-0.15319963520822188	0.5376748121614215	0.06784034309821874	-0.23007601797915456	0.3070768917455619	-0.2944939386714813
photographed	0.004640153186162621	-0.5214632197959758	-0.5639675013808639	0.2920891059806061	0.10391887625090968	-0.03566814065975682	-0.21177855058435077	-0.009406780750539134	0.2017394787205151	-0.20844617621728734	0.3508685127321739	0.18512017668166983	0.11172511744833469	0.28821120664927713	-0.04656033324641773
rather	0.49623805110499464	0.2920767426598251	0.2340008459860049	-0.6853217940565375	-0.9528176257552129	-0.003586346831299936	-0.0024975881932514654	-0.4931110448429321	-0.41259664459350703	-0.05839279279366938	1.0611169007673418	-0.49940589097717736	-0.21848943592264192	0.40634823402786197	-0.4463551930835976
time	-0.3179935929351856	0.7500990706863546	0.7708687984926289	-0.4421386142869502	-0.6804676434732426	0.2970449437738534	-0.10314391998122692	-1.3919216175831841	-1.0453029186506995	0.4827540096538469	0.2504860101402543	0.43145429050487377	-0.2664758378043911	0.4710753151359143	-0.6399744044521344
always	-0.1538756308901854	0.18476858029179177	0.49781798559577795	-0.8897418555725465	-0.7389913271934736	-0.20460244033402597	0.07890877229539564	-0.17717079971140526	-0.34082585600672377	0.15148017463547916	0.6653429149532428	-0.5190859316462727	-0.41489759071922616	0.04141045823990992	-0.5502215090481553
most	-0.727132759566645	0.5693651308756742	0.11603074961842913	-0.49589885595646344	-0.453523003430384	0.07311122903160805	0.22246593103470305	-1.645472532876143	-0.6959484942694746	0.3714574250630922	-0.511176487111664	0.9208843360085516	-0.05021332173852061	0.8704048537235622	-0.15545105662866732
wilde	0.3328927804649474	0.2601743443415582	0.04555471961838442	0.1260439956176348	0.34580611319658305	0.007611557217567733	-0.1398745148367697	0.10128246529305618	0.27107633876712633	-0.21922042881469586	-0.01881135961418212	-0.06455821061016634	0.3224774836136936	0.0015145097632381366	0.1843652076655813
droll	0.20546687205630787	-0.18340358386237954	0.042348624306856986	0.3056790692919005	0.5625604894803242	-0.17414127144908514	0.27407303635845104	-0.1475837733250473	0.255590914197531	0.2843383517362393	-0.2934528315903276	-0.07795102339649368	0.1964835262780682	-0.40072180599506557	0.5448996307233207
whimsy	-0.053899182403160995	-0.3766922424304494	-0.07261201865246542	0.23780321018018347	0.6563708677627453	-0.2535026985015262	-0.12616014339733977	0.44326957349692314	0.30599688292445665	0.1908489824605997	-0.23292880684071837	-0.07679425789755864	-0.13414208588990445	0.03363318706735818	-0.0520477700036035
helps	-0.23912301156756322	-0.27755032531877033	0.10441205871624348	0.4251176066096991	0.25959559486031925	-0.339180456259605	-0.026383487579928783	0.313139872802444	0.21654197408968465	-0.0165148757317053	-0.13623902710261065	-0.08372561749661166	0.11067195978057147	-0.1251917145276175	0.10128853377352764
being	0.27878728826966837	0.7138945646041792	0.4076106173792312	-0.11464422676030231	-0.6730222051425734	0.2460762703749488	-0.11400953979060599	-0.804125817688335	-0.4042863509595117	0.08165625157496637	0.4014449897402683	0.021116478037250586	-0.4325530782196082	0.2852389018973689	-0.35554033545019603
earnest	-0.015462293587706122	0.27931052738587825	-0.2794942276283361	-0.25561150140685895	-0.31119675876545383	-0.0991090918898509	0.3476766850401682	-0.49910308522214697	-0.10696458949261142	0.15764291574838352	-0.14508088711050582	-0.06452813083974807	0.028992933878476346	0.3570884327387397	-0.06741289704482889
overcome	-0.30695976152290705	0.3351794313533283	0.5379620928059973	-0.08634171039039207	-0.21014946239973253	-0.008336671173048316	-0.3597239080735412	0.3299773752140077	-0.194267714186514	0.14192051374535467	-0.3262743738847821	0.18543152924807876	-0.3126231766078137	-0.2871440734250878	-0.11175141076321149
parker	-0.10130017493420873	-0.42827751972136535	-0.39774479914895705	0.0860131991941118	0.40782064691310876	0.07915636885812027	0.10836422452248884	0.16176695548880166	0.08101940607460384	0.15124215749670394	-0.24776432875744459	-0.3350531551909075	0.29051940649755537	-0.14180363467238466	-0.0689832223212139
creative	-0.0477252715356945	0.171045089040788	0.16176136101848526	0.150173029557933	0.18240899272251088	-0.07291314840410443	-0.2979811855060117	-0.1543317015684535	-0.037377619554760405	0.1413129132694535	-0.3472682221186457	0.2904036967825249	-0.12810671915828398	-0.1972926601654287	-0.12163539257051048
...	0.22730732690464772	0.43354487154742666	-0.09638192207806848	-0.8126063933627553	-0.9834981672356801	-0.24099518933338615	0.2090517725037375	-0.8608275898037576	-0.04405070208383492	-0.07860492491531182	0.4707851480331071	-0.24386868794032143	-0.21764802279806644	0.7517028769139216	-0.27581781918069825
lies	-0.12915280726107004	-0.5100159451276542	0.110615006994733	0.20791155686824145	0.28430501520023366	0.31650810571608556	-0.036807486626627944	0.07701925830058218	0.025015538580935026	-0.12977862884915042	-0.08895879343777002	0.10321055961220596	0.17248731386614158	0.024685452271053576	-0.03088700536643363
utter	0.16910006287204693	-0.14516024332478833	-0.21974613659792816	0.34069286968375767	0.09443295961129783	-0.05982565752635982	-0.0928110852533561	0.14648146823584052	-0.3371634735582777	-0.2715773119797082	-0.12887403989228308	0.0037559827934205425	0.05289670020618609	-0.020273563694270386	0.4656638770655088
stuart	0.16228374780229882	-0.08626357865722534	-0.5249079059035576	0.021031619494279785	0.022571039993622977	-0.04354395383060844	0.019637393348920888	0.1915803750833467	0.007519206516329369	0.14307890379191657	0.2710521053330579	0.13185544133746385	-0.009913296282176243	-0.021139058996177504	0.26449656559130175
very	0.531694679926512	0.5609453684177751	-0.3876471816743315	-0.9785108556043125	-1.4247302169369955	0.1887060858561972	-0.037669890738039793	-1.5306071867527251	-0.7087476046401765	-0.05397161717928189	1.363097151974979	-0.6154207987066298	-0.38917770007695207	1.07317747611811	-0.6588064228284185
path	0.2047373458695313	-0.3236179751975525	-0.1957077884068882	0.22833533194425865	0.4200338534195823	-0.04280234038868336	-0.40792761834097724	-0.06280293372886606	0.20032773805553283	-0.19945253236907223	0.031445624572695285	0.42695774800314007	0.007478028242130702	-0.2744225017728476	0.025981803614408605
ice	0.009583398205380345	0.11008675319616511	0.03597417119298746	-0.15006652595830516	-0.07140874565618305	-0.004311019231312718	0.15895546673858496	0.052729718017609006	0.2360341644673582	0.007432584104266171	-0.154786262316923	0.21427176751416543	-0.07761518497425757	-0.2955803011786954	0.07774474682635979
age	0.158275704822481	-0.06910413541352858	-0.3296376746700225	0.05278415634013488	-0.17728287644417773	-0.11197821903938249	0.17665419672973298	-0.35316752708860644	0.03960572359668063	0.06267648212834967	-0.0747029852539105	0.4015233574537339	0.14367455602258822	-0.04686467378761398	0.10050797299916403
follows	-0.10054163633285962	-0.4116578151668881	-0.19884096682516494	0.14389364751580871	0.0651454550554289	-0.2585668579349373	-0.349328091066188	-0.08093397400682004	0.13393153743880212	-0.08843048629962932	-0.2841347568716318	0.2550513737195842	0.3254034049660912	-0.028265471687191887	0.4894786476356384
closely	-0.18022823364267765	-0.34983865861090413	-0.041611416405816726	0.29129917544500417	0.30711186368129306	-0.1614970034316245	0.26648548704508057	-0.0060859769780906015	0.4331264588377991	0.1174930610709109	-0.03387716866193258	0.2528792151178907	-0.08676572986552905	-0.16202012158341844	0.2667590976940033
though	0.09286872027868465	0.05943447674197311	0.24790972686337442	-1.8808647626658903	-0.8190313204810545	-0.07849721452356004	0.48885561140424993	-0.34117882176976855	-0.2380285724230674	-0.19269894488482614	0.4387001593688744	-0.8932546146192306	-0.5449631026547515	0.8369591377590153	-0.34596910276925386
giant	-0.18268141339024252	0.052113905031934665	0.1548055315894643	0.1354104147530617	0.13555040327016576	0.08374113606682554	-0.21659008726336526	0.3819593063140552	0.30529742642104274	-0.19456860268247772	-0.27089613923563377	0.38918434175432226	0.12095096089949586	0.06373043981849547	0.2565739410764971
jones	-0.0775475599147255	-0.10593288111109236	-0.3211746214259683	0.26492285593164666	0.08058839238946436	0.19991977642580067	0.0808218407928252	0.2930744631861584	0.014214188375290981	-0.45264558446368364	-0.27875425919862157	-0.26855389426206333	-0.1280754477838391	0.0030002145434165073	0.269899781030456
who	-0.8719527693320769	0.3924815980211429	1.1723137676041422	-0.9078202030311149	-0.8166714488877911	-0.0426556341350291	0.4091686416319805	-0.2963489055261025	-0.2979774990225311	-0.023087966968603074	0.16832983588990919	0.047504568929344126	-0.7303981532516515	-0.4395410237084931	-0.7503106330638651
matter	-0.17718957137382219	0.2913176149042686	-0.029941156936391544	-0.6752426460242672	-0.8379279297546423	0.1406180954829519	0.43141762408970863	-1.173210763409779	-0.1416404948666351	0.043048078227161723	0.16720907182427935	0.006410899526004821	-0.18440830476886966	0.24396051737651758	-0.19340878900232084
weeks	-0.13295524618210863	-0.2373469843327335	-0.5773092501135895	-0.07791774199029658	0.0008083628800440446	-0.1307102449178899	0.1489628294650046	-0.07475780445946596	0.17677143523674993	-0.06447868054346079	-0.12952994215506675	0.5177139547795953	-0.2817600378920782	-0.34917677837545485	0.060449963489646485
release	-0.3868917910085255	-0.3263010598792845	-0.1475011230792982	0.17036602693410555	0.039963668177904754	0.08795022811458103	0.1269968178313751	-0.26639949982369004	-0.08829018788029572	-0.22030946460662862	-0.4316050757605365	0.4148339979816762	0.09230645582089675	-0.17869330145757964	-0.11897727087381416
humor	-0.20625941045114404	-0.0013974767224897364	-0.33292154774051425	-0.3056505074817112	-0.505660763383645	-0.03201798295106545	0.14986765988677048	-1.1029034715121928	-0.4848507229259814	0.1736020706230811	-0.1451064199736124	0.02839162335011297	0.25765685051953424	0.790979607336651	-0.2397527332639091
speak	0.16430150874820493	-0.001223737387681452	0.010907620868205292	0.015307207469736323	0.05870540496740417	0.491613014908728	-0.16250136490235867	0.1868547925726309	-0.078691760083819	-0.05807452756011558	-0.24721892564402198	-0.19014238996854124	0.03237056753569745	-0.01579314914453389	0.4329193889476791
after	-0.3101425866044245	0.6073273749197186	0.26359935079136604	-0.6421046660099324	-0.5488522050870085	0.04425818393907344	-0.08921228921782895	-0.4352278513204647	0.0004970905317674412	0.26198286734162624	-0.10771900644257826	0.03469409043425431	-0.29677218780931436	0.6022967569493741	-0.20048769199816485
witty	0.18493129260702612	-0.1434911967523363	-0.49066066317472995	-0.18811381785784584	-0.17066196822548674	-0.1405902485028902	0.02210338420376383	-0.19443640430912965	0.15322148355676088	0.1994112551828188	0.1577960814993986	-0.5240107686957697	0.1149174689090321	0.33112763716158006	-0.0919772202911302
silver	0.041861091984779275	-0.1664511205783128	-0.33187094998707967	0.40240803637108946	0.16199744975554853	0.11767272303322823	0.21449906319347994	0.24632542026573465	0.35529209970516684	0.10864462332744645	0.06120879988547023	0.21824654834469207	-0.3147419341125182	-0.05553480054204807	0.01075439959772062
replaced	0.08050632905195942	-0.2634856909569352	-0.3150603454574892	-0.12768843220643303	-0.12157651976996109	0.07804563488084615	0.03581370305103304	-0.22788496264929756	0.3125896503218062	0.23432736900870543	-0.09882430014618837	-0.19187445579559717	0.008084196723004325	-0.08144225138270145	0.32701020103564893
cute	0.01952468903753013	0.15951309512076053	0.12136325606045045	-0.08670219632347738	-0.09629371197840708	0.19504292020613864	-0.1375005685757536	0.08850016653568665	-0.08471912066486792	0.17982333140187998	0.10132575497036411	0.18169853278527776	0.32338287587901005	0.09625791257542084	-0.19032825008876786
everyone	-0.26667245932524153	0.12938150852338123	0.4330228777708731	-0.5507562551025365	-0.27200470088468165	-0.04354577836884793	-0.03411596294537132	-0.006285747158327137	-0.17085620010482266	-0.044427694610845433	-0.3307748202867621	0.07504570533113727	-0.44768312190884885	-0.28939983217603665	-0.44474326309942624
everything	-0.1049877012023055	0.34580067599244874	0.7566252757740529	-0.6765885417371358	-0.37199786829704273	0.2104991161434952	0.18460046091835663	-0.3470605330289658	-0.08506190676323849	-0.063213971312654	0.1227402287290219	-0.06318673582440296	-0.21091892353651748	0.13575021572426263	-0.17177857660540963
around	0.022168637575937677	0.3455752406914349	0.19490440631350153	-0.2772623161968032	-0.41190683652844595	0.12175639040193423	-0.06730510875155836	-0.588686379435972	-0.3658146163677466	0.22497335458853268	0.21869354373276262	0.08957932350111025	-0.09142282725529655	0.40426901396202497	-0.18248536844250685
there	-0.05549557274946815	0.6639118441939238	0.8505148658643595	-2.5341592187960655	-1.7938862565765106	-0.2687150895644084	0.9247881813606058	-1.3260214744813297	-0.2926932963352112	-0.31745458251417125	1.8398472798484806	-0.8323894610925628	-1.4905215384514858	0.5220001296484802	-1.1500402062936146
comes	0.5256695291513006	0.8525881894513547	0.9489290049861978	-1.0116058901500922	-0.27790803147510534	0.012383831786398292	0.5138849798832192	-1.0461098781960623	-0.11025631254198798	0.059956981415288525	0.08048967783164895	-0.5150032486808037	-0.5527904502291929	-0.21701672858517518	-0.12264884013432298
from	0.21361114131530468	0.5098098812350353	0.4082630474801115	0.1649721980817473	-0.14430436611966357	0.17806445567457874	-0.024827600199899935	-0.577089789235055	-0.612303370131366	0.016371287669237025	-0.12692803549402448	0.6232384209899384	-0.023934207584019485	0.05943514383335452	-0.5168973060482704
performances	-0.28564065746888867	-0.056788647184950095	-0.3239308018301298	-0.8328242993426003	-0.30899467098311373	0.07088230679115665	0.4108211107984953	-1.1635079338555852	-0.7092434738776456	0.33238108497639696	-0.23251095044571735	0.2457943461934094	-0.023317389430137447	0.8510256462096806	-0.5379755821414092
lead	0.17040928890480322	0.09873177273192826	0.1933639063192643	0.23216190686374902	0.15268300608019625	0.31505642286760316	-0.10253855217565054	-0.01152805690810249	-0.22144281521472867	0.12153333136038275	-0.17534578041396665	0.31219149823306247	0.17924378337012287	0.03268080051064598	-0.30166052077583283
13	-0.2111662937757624	-0.018971711741289768	0.16010512500193022	0.2818825620170619	0.3057751815941271	-0.12889754104146073	-0.0423509346204954	0.3455210965402698	-0.004130314342137148	0.15739030221540212	-0.2710835445657562	-0.0630998155095212	0.1810007012145317	0.00035246966740429264	0.4705359723010093
conversations	0.009351952548818154	-0.3688049583470768	0.19813088095806697	0.1518289753973443	0.23729473008655178	-0.21667986944397633	-0.024134213593789436	0.11647721637557201	-0.1541148606570917	0.07099720330525605	0.00942863805552413	0.0007446510147588264	0.4345996451427532	0.13281777790812577	0.441812027073883
holds	-0.12471419460700373	-0.29803300941329536	0.3185625906572552	-0.03861542516475713	0.04870914873150167	0.04485613869912658	-0.09257772904081035	-0.3810943875118671	0.28742303312274153	0.16769003897286877	-0.10677704929179688	-0.08793355425978079	-0.2131076927463953	-0.0629870958956769	-0.024672574169372297
close	0.27982126528516404	0.24811618326559062	0.6630782387182798	-0.23920526822896435	-0.06498051112282976	-0.21254471833990096	-0.12430280005871136	0.1270477925872881	0.16949743508612566	-0.07354785841545389	0.06138570925982023	-0.0357812635580505	-0.5097454706404205	-0.3648308749916904	-0.1219823854501404
relatively	0.2252495154094445	0.05187854980260245	-0.41436223691058766	0.273765699794886	0.16704478380692744	-0.24930412774140828	-0.059813110736142414	0.5054230764456034	0.18384176492094925	0.21589648856514077	-0.0052262150730574275	-0.2211018105121606	-0.04262900652138468	-0.010975384864940999	-0.21774044142383453
slow	-0.05943513818838553	-0.021251423760027723	-0.0509554000365256	-0.3830212593246937	-0.42760167905109536	-0.4221854813526089	0.13589515812854355	0.08478014466032732	0.31739521728479786	-0.19044590613527024	0.1278883391986908	0.13739228731208764	-0.11185558811841062	0.20139816295473512	0.00769804935274454
come	-0.4654332790559842	0.9042160542625908	1.6024737205059272	-0.2793455933855828	-0.4668679572897687	-0.2708055511662017	-0.14071107978981945	-0.39112341648126636	-0.05453736418489302	0.47928015504459637	-0.035985677386259574	-0.4907827756215659	-0.7058125999317708	-0.006789223658297927	-0.21873729128180097
point	-0.1321008461210036	0.6688365527005284	0.4586587369957337	-0.22779325580186566	-0.4684848240198435	0.053421250156328315	0.036586585006746004	-1.081953746903973	-0.3572909353300641	0.23706568633749164	0.19818637293971586	0.4960893824954459	-0.208713098079638	0.12770488708563485	-0.2701482832390538
auto	-0.3753452371032244	-0.13039885851005178	-0.3373458056493883	0.15223214860496	0.13755508232056335	0.2722957726378932	-0.1334120492275945	0.11728376124213215	-0.0839956496897207	-0.25697909302888755	-0.19809696020903145	-0.37029629916348006	0.3180639886693929	-0.15342208215119033	0.09083811802539199
focus	0.12432307169800738	0.12055106865050229	0.014107625200036944	-0.0960054911899368	-0.1877878502836101	-0.241513909646275	0.022782126272035186	-0.02881280179563167	-0.19166864549323875	0.04033593817309353	-0.10943261653707259	0.0519547910108484	0.060030631622902786	-0.10502753499082682	0.1634921583248563
works	-0.2313081503709602	0.7212701577783097	0.4787745144797725	-1.3724165334744372	-0.5842064331185358	-0.1836932342037597	0.34486871649880263	-1.184259119566767	-0.29894192865943525	0.40043953251066955	0.2582307999265735	-0.27085381476045695	-0.4760458527323217	0.2666052750659321	-0.2376285807173698
unusual	0.31149542270335917	-0.14805398422730187	-0.29479888316105524	0.03548396331188518	-0.18004006982942866	-0.22494442547783153	-0.23236386960908043	0.03710726810847928	-0.17533371977229031	-0.1140622052292006	0.0655708920179201	0.03384412230151479	0.11567519360363941	-0.03479440154348333	0.11430827918111519
biopic	0.015378757371176555	-0.01850613572600865	0.08916538198794599	0.20648261216755454	0.16873819207083607	0.0008042942695243305	0.0022959806457355098	0.0997702181246824	-0.03417999698358606	-0.2584710383112784	0.18572797036893385	0.1127296866327655	-0.13657034558017717	-0.2496713016585939	0.22026710420277118
document	-0.01267017894426481	0.05876431363982672	-0.18688635001466303	0.45133115722780337	-0.33930088147111126	0.32602288082679964	0.07757640249092812	0.1478974147876541	-0.261935889310342	-0.102683860368879	-0.3996977362488255	-0.21265611689765598	0.4423719313658425	-0.03560893136439486	0.07907428824692297
